<?xml version="1.0"?>
<opencv_storage>
<opencv_ml_svm>
  <format>3</format>
  <svmType>C_SVC</svmType>
  <kernel>
    <type>LINEAR</type></kernel>
  <C>1.</C>
  <term_criteria><iterations>20000</iterations></term_criteria>
  <var_count>512</var_count>
  <class_count>2</class_count>
  <class_labels type_id="opencv-matrix">
    <rows>2</rows>
    <cols>1</cols>
    <dt>i</dt>
    <data>
      0 1</data></class_labels>
  <sv_total>1</sv_total>
  <support_vectors>
    <_>
      2.25702319e-02 -1.17892176e-02 4.99729998e-03 3.63169499e-02
      5.83984889e-03 -3.18263359e-02 -5.44711389e-02 -2.96796504e-02
      -3.85993253e-03 1.17139583e-02 5.60742803e-03 1.11086643e-04
      -1.23825436e-02 -2.08142190e-03 -9.44067910e-02 6.14954671e-03
      6.10162504e-03 3.50956134e-02 1.42163690e-02 -8.06766679e-04
      5.40348999e-02 5.39240800e-03 5.25254710e-03 8.19027238e-03
      -1.26339532e-02 1.00805182e-02 3.21358591e-02 1.14365965e-02
      -4.37000170e-02 2.39859279e-02 1.54481567e-02 2.75973696e-02
      6.18304452e-03 -2.18271539e-02 -2.30131708e-02 4.53301035e-02
      6.78223372e-02 -3.52276750e-02 1.47754624e-02 9.00534689e-02
      1.02784093e-02 2.63474267e-02 -8.66827276e-03 1.55340238e-02
      -5.79322502e-02 -2.50460557e-03 -9.62442905e-03 3.60767096e-02
      -7.31858909e-02 8.04350898e-03 1.27815618e-03 1.73020922e-02
      -1.88102331e-02 2.53050420e-02 2.19311025e-02 -6.09629462e-03
      -4.86121513e-02 1.34278638e-02 -1.28694130e-02 1.82322934e-02
      -5.02434708e-02 2.94083450e-02 -2.79327370e-02 2.38315240e-02
      3.77182104e-02 -2.34405678e-02 -1.44263050e-02 -8.26345161e-02
      5.22633158e-02 -1.80500057e-02 9.97179095e-03 2.33074334e-02
      6.32046722e-04 -4.87682363e-03 -3.78138851e-03 1.16754761e-02
      5.13224117e-02 3.65078673e-02 -3.41199040e-02 -1.39116682e-02
      1.49504459e-02 -8.32375977e-03 1.00096585e-02 7.83325639e-03
      -9.75742470e-03 3.20786680e-03 2.28557456e-02 5.76469023e-03
      -2.60083005e-03 -1.76076498e-02 -1.56969170e-03 -2.90769506e-02
      6.97983662e-03 -3.78921069e-02 -8.70750844e-03 9.94739495e-03
      6.74766600e-02 -4.53822166e-02 2.85478253e-02 -3.06466818e-02
      1.58909243e-02 3.25984247e-02 -1.65208621e-04 8.23024381e-03
      -1.49841979e-02 1.08230589e-02 -2.05068092e-04 3.99382636e-02
      -4.07134928e-02 1.01989647e-02 -8.22145790e-02 3.50808874e-02
      1.81297888e-03 -5.39858872e-03 -2.22225748e-02 -1.02917906e-02
      -2.99085900e-02 9.84905008e-03 -2.29157563e-02 6.17241673e-03
      2.55365316e-02 1.63337998e-02 2.50286609e-02 2.34286324e-03
      1.43485572e-02 2.22668704e-02 -3.16030793e-02 5.27085625e-02
      3.33692599e-03 5.83904684e-02 1.42630180e-02 6.85899332e-02
      -8.44919980e-02 -5.59072290e-03 1.00709200e-02 -4.47276793e-02
      4.16510738e-03 -1.25655532e-02 4.85666282e-03 -1.23960525e-03
      -9.75049566e-03 2.95409393e-02 -2.43015904e-02 -1.05360998e-02
      5.21159135e-02 -2.78438684e-02 -8.41733068e-03 1.55250942e-02
      2.61763949e-02 5.23773534e-03 2.44461838e-02 2.37920769e-02
      -1.22493953e-02 1.38818461e-03 8.39542598e-03 3.94367054e-03
      -3.95713979e-03 -7.15386542e-03 1.20840408e-02 3.77192795e-02
      6.15287246e-03 1.90663189e-02 -5.71005382e-02 3.20788659e-02
      -2.00075265e-02 -2.80358940e-02 -8.48216750e-03 -6.43304288e-02
      1.61139108e-02 6.86839735e-03 3.07514309e-03 4.01142007e-03
      4.08856943e-02 -4.85842768e-03 4.49268334e-02 9.34214331e-04
      -2.63730693e-03 9.20492597e-03 4.84807678e-02 1.38368104e-02
      -1.43299764e-02 -2.04628822e-03 1.83300711e-02 1.05148368e-02
      -1.62653849e-02 1.74275711e-02 8.84243287e-03 -5.56366332e-03
      3.25010298e-03 -1.54564660e-02 -1.16122849e-02 -1.40704848e-02
      -2.86018793e-02 3.56472959e-03 -4.69764397e-02 -1.33094098e-03
      -3.35944369e-02 2.21386943e-02 8.81680567e-03 5.12630157e-02
      6.97075436e-03 -2.67416816e-02 1.03781940e-02 -7.85950758e-03
      6.78367242e-02 1.69791859e-02 6.40814193e-03 1.54169917e-04
      9.22936667e-03 -5.36925020e-03 -2.48264875e-02 -7.85604771e-03
      -1.96578223e-02 6.18074555e-03 1.22393854e-02 -4.44110716e-03
      4.04969193e-02 -9.39455628e-03 2.27750093e-02 7.96206947e-03
      5.60085475e-03 -2.98345294e-02 -1.27886618e-02 -4.57702670e-03
      1.56239821e-02 2.91301217e-02 -4.83174324e-02 -1.21583575e-02
      2.20939331e-02 9.48715582e-03 -3.21953953e-03 1.08414814e-02
      3.81663628e-02 1.00101000e-02 3.00296000e-03 -6.90325582e-03
      7.78357591e-03 2.97620390e-02 -3.04928795e-02 1.17898760e-02
      4.32514772e-02 -1.90866645e-02 3.98626411e-03 3.40829827e-02
      -6.31527603e-02 -6.44462835e-03 3.38404044e-03 4.97773895e-03
      5.06944656e-02 4.91317222e-03 -9.40962322e-03 6.12889323e-03
      -6.33096322e-03 -1.76480087e-03 -1.07965004e-02 8.65065977e-02
      -2.40010768e-02 -1.09782489e-02 2.61675138e-02 3.54549587e-02
      -1.07110925e-01 -2.48998441e-02 2.58432608e-02 3.28955520e-03
      -6.52338658e-03 5.20530716e-03 -5.25056338e-03 -6.08295482e-03
      -2.46267184e-03 1.25944642e-02 1.83381103e-02 1.82232296e-03
      -1.17569638e-03 -3.64548787e-02 1.34193804e-02 1.17128287e-02
      9.44702886e-03 -5.91159007e-03 2.39694174e-02 8.89214501e-03
      1.75900571e-02 -1.20276422e-03 1.62258104e-03 3.89775261e-03
      -3.90653908e-02 5.87752031e-04 4.48802970e-02 1.78238582e-02
      -3.44051942e-02 2.28197873e-02 -7.90250767e-03 2.30169930e-02
      -5.54173179e-02 4.09870259e-02 -1.70168169e-02 -4.36782092e-03
      8.85032397e-03 7.32256426e-03 -7.44098215e-04 -1.45112276e-02
      4.23775148e-03 2.79181171e-03 1.01864543e-02 5.39164478e-03
      5.32283075e-02 -4.55732085e-03 1.40310526e-02 -7.11923046e-03
      3.02861594e-02 -1.87050607e-02 4.25270461e-02 2.03265846e-02
      6.00491688e-02 -1.22766085e-02 3.71254724e-03 9.94007569e-03
      -3.40937302e-02 1.47662591e-02 5.78773282e-02 -1.38942571e-02
      -2.08715219e-02 4.84791435e-02 -4.18814458e-02 2.99711283e-02
      -4.72272038e-02 2.35165395e-02 2.77628172e-02 -6.45216694e-03
      2.83058621e-02 9.74868797e-03 -2.43540807e-03 4.51694615e-03
      8.71717464e-03 -7.87430536e-03 2.01246552e-02 -2.45537069e-02
      1.99386012e-02 1.06247433e-03 9.79222823e-03 4.35834331e-03
      -7.31782115e-04 -1.93260741e-04 1.85963809e-02 2.01727487e-02
      -6.85563718e-04 -1.03060519e-02 3.95939592e-03 6.53951103e-03
      -1.93362162e-02 1.40442513e-02 3.09224073e-02 -2.55234856e-02
      -5.19829453e-04 3.39400433e-02 -2.53536701e-02 1.12829227e-02
      -3.40783671e-02 7.62067223e-03 6.58860877e-02 -3.49967815e-02
      4.87362035e-03 1.79225840e-02 -1.31697580e-02 9.64137353e-03
      -3.33435126e-02 -9.60765313e-03 -1.22613693e-02 -2.23731659e-02
      8.31449106e-02 -9.13647283e-03 1.93308748e-03 1.08307749e-02
      -3.88922053e-03 -7.56692188e-03 -3.90600553e-03 3.05822417e-02
      6.38365075e-02 2.60384870e-03 -1.12155331e-02 1.52041214e-02
      3.06948600e-03 -1.06902085e-02 2.33054180e-02 6.88178977e-03
      -7.33120274e-03 4.41846764e-03 3.61213759e-02 -5.17681576e-02
      -8.73601958e-02 1.81200393e-02 -5.20843677e-02 6.32347614e-02
      7.24721402e-02 7.73171196e-03 9.87056643e-04 3.37598845e-02
      2.59916000e-02 3.19192894e-02 -5.12786023e-02 1.20076081e-02
      1.61900762e-02 2.74269463e-04 -2.25828122e-03 5.60782570e-03
      1.35500962e-03 1.00390548e-02 1.51169235e-02 8.95527937e-03
      1.21420184e-02 4.42169234e-03 4.66804393e-03 4.32921899e-03
      3.67488191e-02 1.44300302e-02 -1.86487138e-02 -8.44493601e-03
      -2.99856775e-02 2.09193137e-02 -1.35220550e-02 2.46588942e-02
      -1.33780278e-02 3.72981019e-02 5.30781820e-02 8.04639130e-04
      4.46473658e-02 1.51006058e-02 7.06709409e-03 1.44947693e-02
      4.61698696e-03 -1.95865193e-03 8.92776065e-03 3.04342397e-02
      -2.88739149e-02 -2.29214272e-03 1.97967645e-02 1.65518727e-02
      -8.96737818e-03 2.63129710e-03 -1.07074156e-02 2.28533987e-02
      -1.19107924e-02 -1.16899461e-02 -1.45374043e-02 4.11127834e-03
      8.91026258e-02 2.53948867e-02 -2.07596347e-02 -2.25029606e-02
      2.27779411e-02 9.35579956e-05 -2.72515155e-02 5.86491674e-02
      2.29182485e-02 3.29744667e-02 3.62943821e-02 3.11220363e-02
      2.49026548e-02 1.05019915e-03 2.64792750e-03 3.77774285e-03
      3.60850729e-02 -1.68344602e-02 -3.29626799e-02 6.78647682e-03
      4.22138870e-02 7.52686756e-03 3.49491835e-02 9.97393019e-03
      -2.67340615e-02 -4.05807456e-04 -9.98105109e-03 1.17597627e-02
      4.17352282e-02 -1.16499644e-02 1.64146982e-02 -8.72502662e-03
      2.56181434e-02 3.67464498e-02 -1.57177467e-02 1.41460588e-02
      -2.80590914e-02 -1.26842298e-02 1.85846221e-02 4.76156250e-02
      -3.22999805e-02 5.01316413e-03 4.21406031e-02 7.40733743e-03
      -9.89814755e-03 1.46855013e-02 2.41669863e-02 -1.58989169e-02
      3.88619751e-02 1.42082777e-02 -3.42120156e-02 -1.41681563e-02
      -6.71926606e-03 2.42634322e-02 5.55460751e-02 2.43728757e-02
      1.63455140e-02 2.81809014e-03 3.19302827e-02 1.29243045e-03
      2.55683027e-02 1.57597326e-02 5.69941383e-03 -4.98372072e-04
      -2.57579051e-02 2.40138713e-02 -1.13414871e-02 1.51391029e-02</_></support_vectors>
  <uncompressed_sv_total>163</uncompressed_sv_total>
  <uncompressed_support_vectors>
    <_>
      6. 0. 1. 2. 8. 0. 2. 9. 2. 0. 0. 0. 6. 0. 3. 5. 2. 1. 0. 0. 0. 0.
      0. 0. 4. 0. 0. 0. 8. 0. 3. 2. 10. 1. 1. 0. 7. 0. 1. 6. 0. 1. 0. 0.
      3. 1. 3. 7. 2. 0. 1. 0. 1. 0. 0. 0. 1. 1. 0. 0. 9. 0. 8. 3. 12. 9.
      0. 1. 1. 0. 0. 3. 0. 0. 0. 0. 1. 2. 4. 5. 8. 3. 0. 1. 0. 0. 0. 1.
      2. 0. 2. 0. 3. 0. 10. 6. 9. 3. 3. 1. 5. 0. 4. 5. 1. 1. 0. 0. 0. 0.
      0. 3. 4. 1. 0. 0. 1. 0. 1. 0. 0. 0. 0. 0. 5. 0. 6. 0. 9. 0. 1. 0.
      13. 0. 0. 1. 0. 0. 0. 0. 1. 0. 1. 0. 0. 1. 0. 0. 0. 0. 0. 0. 1. 0.
      0. 0. 2. 0. 0. 2. 5. 0. 0. 0. 11. 0. 2. 2. 0. 0. 0. 0. 1. 0. 3. 0.
      0. 0. 0. 0. 0. 0. 0. 0. 2. 0. 0. 0. 6. 1. 0. 0. 6. 3. 0. 0. 4. 1.
      2. 6. 2. 0. 0. 0. 0. 0. 6. 8. 3. 4. 0. 0. 0. 0. 0. 0. 1. 0. 0. 0.
      0. 0. 9. 6. 7. 0. 3. 0. 3. 1. 1. 3. 1. 0. 0. 0. 2. 0. 3. 6. 2. 0.
      0. 0. 1. 0. 0. 0. 0. 1. 0. 0. 1. 0. 2. 2. 8. 1. 0. 2. 7. 0. 0. 0.
      1. 0. 0. 0. 2. 0. 0. 2. 5. 0. 0. 0. 1. 0. 0. 1. 0. 0. 0. 0. 0. 0.
      1. 2. 12. 0. 0. 1. 7. 0. 1. 2. 0. 0. 0. 0. 2. 0. 4. 5. 2. 0. 0. 0.
      0. 0. 1. 0. 0. 1. 0. 0. 3. 0. 4. 2. 7. 1. 0. 0. 7. 0. 0. 5. 1. 0.
      0. 0. 1. 0. 0. 2. 4. 0. 0. 1. 0. 0. 0. 0. 0. 0. 0. 0. 2. 0. 6. 1.
      11. 1. 1. 3. 7. 1. 0. 3. 2. 0. 0. 0. 1. 0. 4. 4. 0. 0. 1. 0. 2. 0.
      1. 0. 0. 0. 0. 0. 3. 0. 7. 5. 4. 0. 0. 0. 1. 0. 1. 1. 0. 0. 0. 0.
      0. 0. 0. 6. 1. 0. 0. 0. 0. 0. 0. 0. 0. 0. 0. 0. 3. 0. 1. 1. 8. 3.
      2. 4. 0. 1. 1. 2. 1. 0. 0. 0. 1. 1. 10. 8. 6. 0. 1. 0. 0. 0. 0. 0.
      1. 0. 0. 0. 7. 0. 10. 13. 4. 4. 1. 3. 3. 0. 2. 6. 1. 1. 0. 0. 1.
      0. 8. 15. 2. 0. 1. 0. 1. 0. 0. 0. 4. 0. 0. 0. 3. 1. 8. 14. 7. 4.
      0. 2. 1. 0. 0. 4. 0. 0. 0. 0. 0. 1. 1. 2. 2. 0. 0. 2. 0. 0. 1. 0.
      1. 0. 0. 0. 1. 0. 6. 6.</_>
    <_>
      4. 0. 2. 2. 4. 0. 1. 9. 0. 0. 0. 1. 1. 1. 2. 8. 0. 0. 0. 0. 0. 0.
      0. 0. 1. 0. 0. 0. 3. 0. 5. 1. 3. 0. 1. 0. 6. 0. 1. 1. 0. 0. 0. 0.
      1. 1. 1. 1. 1. 0. 0. 0. 0. 0. 0. 0. 1. 0. 0. 0. 5. 0. 0. 1. 5. 1.
      2. 0. 7. 0. 1. 4. 0. 0. 0. 0. 1. 0. 0. 2. 1. 0. 0. 0. 0. 0. 0. 0.
      1. 0. 0. 0. 6. 0. 0. 0. 3. 4. 0. 0. 4. 1. 3. 5. 0. 0. 0. 0. 0. 0.
      1. 3. 2. 0. 0. 0. 1. 0. 1. 0. 0. 0. 1. 0. 4. 0. 2. 1. 2. 2. 0. 0.
      9. 0. 0. 4. 0. 0. 0. 0. 2. 0. 0. 1. 2. 0. 0. 0. 0. 0. 0. 0. 3. 0.
      0. 0. 1. 0. 6. 4. 6. 1. 0. 0. 2. 0. 2. 4. 0. 0. 0. 0. 1. 1. 5. 1.
      1. 0. 0. 0. 0. 0. 0. 0. 2. 0. 0. 0. 4. 0. 4. 0. 3. 0. 0. 0. 10. 0.
      2. 2. 0. 0. 0. 0. 2. 0. 1. 1. 0. 0. 0. 0. 0. 0. 0. 0. 0. 0. 0. 0.
      0. 0. 5. 5. 5. 3. 0. 2. 4. 0. 4. 3. 0. 0. 0. 0. 4. 1. 1. 18. 2. 0.
      1. 0. 0. 0. 0. 1. 1. 0. 0. 0. 3. 0. 8. 5. 8. 0. 0. 0. 10. 0. 0. 2.
      0. 0. 0. 0. 1. 0. 1. 1. 0. 1. 0. 0. 0. 0. 0. 0. 0. 0. 0. 0. 2. 0.
      0. 2. 3. 0. 0. 1. 4. 1. 1. 7. 0. 0. 0. 0. 3. 1. 3. 1. 0. 0. 1. 0.
      0. 0. 1. 0. 1. 0. 0. 0. 6. 0. 4. 1. 8. 2. 2. 2. 2. 0. 5. 6. 0. 0.
      0. 0. 1. 0. 2. 1. 4. 0. 0. 0. 0. 0. 0. 0. 1. 0. 0. 0. 4. 0. 0. 2.
      4. 3. 0. 2. 8. 0. 2. 4. 2. 0. 0. 0. 1. 0. 1. 1. 1. 0. 0. 0. 0. 0.
      0. 0. 1. 0. 0. 0. 0. 0. 6. 3. 8. 1. 1. 2. 9. 0. 2. 0. 0. 0. 0. 0.
      1. 1. 1. 0. 0. 1. 0. 0. 2. 0. 0. 0. 0. 0. 0. 0. 0. 0. 1. 3. 5. 0.
      0. 0. 8. 1. 2. 2. 0. 0. 0. 0. 1. 0. 1. 8. 1. 0. 0. 0. 0. 0. 0. 0.
      0. 0. 0. 0. 2. 0. 3. 2. 10. 0. 0. 1. 8. 0. 1. 3. 0. 0. 0. 0. 1. 0.
      0. 3. 0. 0. 0. 0. 0. 0. 0. 0. 1. 0. 0. 0. 1. 0. 2. 2. 4. 1. 0. 0.
      5. 0. 2. 5. 1. 0. 0. 0. 2. 0. 2. 7. 0. 0. 0. 0. 0. 0. 0. 0. 0. 0.
      0. 1. 3. 0. 8. 7.</_>
    <_>
      8. 3. 0. 4. 2. 0. 2. 4. 1. 0. 0. 0. 0. 0. 1. 3. 3. 0. 0. 1. 0. 0.
      0. 0. 5. 3. 0. 0. 7. 0. 9. 2. 6. 3. 1. 1. 0. 2. 1. 2. 1. 3. 0. 0.
      0. 0. 6. 12. 6. 0. 0. 0. 1. 0. 2. 0. 3. 2. 0. 0. 0. 0. 16. 9. 4.
      2. 1. 3. 1. 1. 1. 6. 1. 0. 0. 0. 3. 1. 6. 15. 1. 1. 0. 0. 0. 0. 0.
      2. 6. 0. 0. 0. 11. 0. 8. 8. 5. 4. 0. 5. 2. 0. 2. 4. 1. 0. 0. 0. 3.
      0. 0. 6. 2. 0. 0. 0. 1. 0. 1. 0. 1. 0. 0. 0. 2. 0. 4. 5. 7. 3. 0.
      1. 4. 0. 1. 8. 0. 0. 0. 1. 2. 1. 4. 9. 1. 0. 0. 0. 1. 0. 0. 0. 1.
      0. 0. 0. 6. 0. 2. 3. 3. 1. 0. 0. 3. 1. 1. 6. 0. 0. 0. 0. 3. 0. 1.
      8. 1. 0. 0. 0. 0. 0. 0. 0. 3. 0. 0. 1. 7. 0. 0. 2. 4. 1. 1. 1. 3.
      0. 3. 5. 0. 0. 0. 0. 1. 0. 1. 1. 1. 0. 0. 0. 2. 0. 0. 0. 0. 0. 1.
      0. 4. 0. 3. 0. 6. 1. 2. 5. 2. 1. 2. 5. 0. 0. 0. 0. 0. 0. 4. 0. 1.
      0. 0. 1. 0. 0. 1. 0. 2. 0. 0. 0. 8. 0. 2. 2. 5. 2. 0. 1. 6. 0. 1.
      5. 1. 0. 0. 0. 0. 0. 5. 8. 2. 0. 0. 0. 0. 0. 0. 1. 1. 0. 0. 0. 7.
      0. 5. 3. 5. 1. 2. 2. 3. 0. 2. 7. 0. 0. 0. 0. 2. 1. 0. 13. 0. 0. 0.
      0. 0. 0. 0. 0. 2. 0. 0. 1. 1. 0. 0. 2. 6. 0. 1. 0. 4. 1. 1. 5. 2.
      0. 0. 0. 0. 0. 2. 3. 0. 0. 0. 0. 0. 0. 0. 0. 1. 0. 0. 0. 5. 0. 5.
      0. 3. 1. 0. 1. 1. 0. 5. 5. 1. 0. 0. 0. 1. 0. 2. 3. 0. 0. 0. 0. 1.
      0. 0. 0. 0. 0. 0. 0. 9. 0. 5. 0. 6. 2. 1. 0. 2. 0. 0. 1. 1. 0. 0.
      0. 2. 0. 1. 7. 0. 0. 0. 0. 0. 0. 1. 0. 0. 0. 0. 0. 0. 0. 12. 6. 7.
      1. 1. 1. 1. 0. 0. 3. 1. 0. 0. 0. 1. 1. 0. 2. 1. 0. 0. 0. 0. 0. 0.
      1. 1. 0. 0. 0. 4. 1. 0. 5. 6. 1. 0. 5. 2. 0. 1. 5. 0. 0. 0. 1. 1.
      0. 4. 17. 1. 1. 0. 0. 0. 0. 2. 0. 1. 0. 0. 0. 0. 0. 10. 4. 7. 2.
      1. 4. 2. 0. 1. 5. 1. 0. 0. 0. 0. 1. 2. 18. 1. 0. 0. 0. 1. 0. 0. 1.
      1. 0. 0. 0. 4. 0. 8. 10.</_>
    <_>
      10. 5. 0. 3. 2. 1. 3. 4. 3. 0. 0. 0. 3. 3. 2. 9. 4. 1. 0. 0. 1. 0.
      1. 1. 6. 1. 0. 0. 5. 0. 10. 7. 8. 1. 0. 5. 1. 1. 5. 3. 1. 0. 0. 0.
      2. 0. 5. 6. 3. 2. 0. 0. 1. 0. 1. 1. 3. 0. 1. 0. 7. 0. 5. 9. 8. 3.
      0. 1. 4. 0. 1. 4. 2. 1. 0. 0. 1. 0. 2. 8. 3. 0. 0. 0. 0. 0. 0. 1.
      0. 0. 0. 1. 4. 0. 6. 0. 8. 3. 0. 6. 0. 0. 4. 5. 1. 0. 0. 0. 3. 0.
      2. 10. 3. 2. 1. 1. 1. 0. 1. 0. 1. 0. 0. 0. 3. 0. 10. 11. 9. 1. 0.
      1. 3. 1. 3. 7. 2. 1. 0. 0. 4. 0. 1. 1. 1. 0. 0. 1. 0. 0. 0. 0. 3.
      0. 0. 0. 3. 1. 0. 1. 11. 7. 1. 1. 2. 0. 0. 2. 0. 0. 0. 0. 1. 0. 2.
      1. 4. 0. 0. 0. 0. 0. 0. 0. 4. 0. 0. 0. 0. 1. 0. 2. 13. 1. 2. 2. 6.
      0. 3. 3. 0. 1. 0. 1. 0. 0. 1. 3. 1. 0. 1. 1. 0. 0. 0. 0. 0. 0. 0.
      1. 3. 0. 0. 4. 9. 0. 1. 3. 8. 0. 2. 0. 0. 1. 0. 0. 2. 0. 1. 0. 2.
      0. 0. 0. 2. 1. 0. 0. 0. 0. 0. 0. 4. 0. 3. 1. 7. 1. 0. 0. 6. 0. 1.
      6. 1. 0. 0. 0. 1. 0. 6. 3. 3. 0. 0. 0. 1. 0. 0. 0. 1. 0. 0. 0. 6.
      0. 3. 3. 5. 2. 3. 1. 1. 1. 2. 4. 0. 0. 0. 0. 1. 0. 2. 5. 1. 2. 0.
      2. 1. 1. 0. 0. 2. 0. 0. 0. 6. 1. 7. 9. 7. 0. 0. 0. 5. 1. 1. 5. 0.
      0. 0. 0. 2. 0. 2. 4. 2. 0. 0. 0. 1. 0. 0. 0. 1. 0. 0. 0. 5. 0. 1.
      0. 6. 0. 0. 2. 6. 0. 2. 3. 2. 0. 0. 0. 0. 0. 0. 0. 0. 0. 0. 0. 1.
      0. 0. 0. 2. 0. 0. 0. 2. 0. 0. 1. 10. 4. 2. 5. 3. 0. 0. 3. 0. 1. 0.
      0. 2. 0. 5. 4. 1. 0. 0. 0. 0. 0. 1. 0. 0. 0. 0. 0. 4. 1. 11. 6. 7.
      8. 0. 1. 1. 0. 1. 0. 0. 1. 1. 0. 0. 0. 7. 13. 9. 5. 1. 0. 0. 0. 0.
      0. 2. 1. 0. 0. 3. 0. 9. 12. 7. 5. 1. 0. 1. 0. 0. 0. 0. 0. 0. 1. 0.
      0. 7. 16. 3. 3. 0. 1. 0. 0. 0. 1. 3. 1. 0. 0. 7. 1. 16. 13. 4. 6.
      1. 2. 2. 0. 1. 1. 0. 0. 0. 0. 1. 1. 3. 13. 1. 1. 0. 0. 0. 0. 0. 0.
      1. 1. 0. 0. 0. 0. 9. 6.</_>
    <_>
      8. 1. 0. 2. 7. 1. 2. 6. 1. 1. 0. 0. 1. 0. 1. 5. 1. 0. 0. 1. 1. 0.
      1. 0. 4. 2. 0. 1. 11. 1. 6. 3. 9. 5. 0. 5. 2. 0. 4. 6. 2. 1. 0. 0.
      5. 0. 3. 7. 8. 2. 0. 1. 1. 0. 1. 0. 3. 1. 0. 0. 8. 1. 3. 16. 9. 6.
      0. 2. 6. 0. 2. 10. 0. 0. 0. 0. 0. 0. 6. 9. 3. 1. 1. 1. 0. 0. 0. 0.
      2. 0. 0. 2. 5. 2. 15. 13. 3. 6. 0. 3. 1. 0. 2. 9. 0. 1. 0. 0. 3.
      1. 6. 22. 8. 3. 1. 0. 0. 0. 1. 1. 2. 0. 0. 0. 1. 0. 15. 15. 9. 0.
      0. 2. 6. 0. 2. 6. 0. 0. 0. 0. 1. 0. 2. 2. 1. 1. 0. 1. 0. 0. 0. 0.
      1. 0. 0. 0. 6. 0. 0. 2. 8. 2. 0. 0. 3. 1. 2. 7. 2. 0. 0. 0. 1. 0.
      1. 1. 2. 0. 0. 0. 0. 0. 0. 0. 0. 0. 0. 0. 5. 0. 2. 3. 6. 3. 0. 1.
      8. 0. 3. 5. 0. 0. 0. 0. 1. 0. 1. 0. 1. 1. 0. 0. 0. 0. 0. 0. 2. 0.
      0. 0. 1. 0. 2. 2. 8. 1. 0. 3. 6. 0. 1. 5. 0. 0. 0. 0. 4. 0. 2. 3.
      1. 0. 0. 0. 1. 0. 0. 0. 3. 0. 0. 0. 3. 0. 7. 3. 6. 0. 1. 1. 6. 1.
      1. 5. 0. 0. 0. 1. 2. 0. 4. 13. 0. 0. 0. 0. 1. 0. 0. 0. 0. 0. 0. 0.
      8. 0. 0. 1. 6. 2. 0. 4. 2. 0. 3. 6. 1. 0. 0. 0. 6. 0. 0. 14. 2. 1.
      0. 1. 1. 0. 1. 1. 2. 1. 0. 0. 4. 2. 1. 3. 4. 0. 0. 1. 6. 0. 1. 1.
      0. 0. 0. 0. 1. 0. 1. 0. 2. 0. 0. 0. 1. 0. 1. 0. 0. 0. 0. 0. 0. 0.
      1. 1. 8. 2. 1. 2. 2. 2. 2. 6. 1. 0. 0. 0. 0. 1. 5. 14. 1. 1. 0. 0.
      1. 0. 0. 0. 1. 0. 0. 0. 3. 0. 4. 6. 3. 1. 0. 4. 1. 0. 1. 4. 1. 0.
      0. 0. 1. 0. 8. 5. 3. 0. 0. 1. 0. 0. 0. 1. 1. 1. 0. 0. 4. 0. 10. 9.
      7. 0. 1. 0. 2. 0. 1. 3. 1. 0. 0. 0. 2. 0. 3. 13. 2. 0. 0. 0. 0. 0.
      1. 0. 2. 0. 1. 0. 2. 0. 13. 5. 6. 0. 0. 1. 6. 0. 4. 2. 0. 0. 0. 0.
      3. 0. 2. 2. 2. 0. 0. 0. 0. 0. 0. 1. 0. 0. 0. 0. 2. 0. 2. 6. 3. 1.
      1. 0. 0. 1. 0. 1. 0. 2. 0. 0. 0. 0. 2. 14. 3. 0. 0. 0. 0. 0. 0. 0.
      2. 0. 0. 0. 2. 0. 8. 6.</_>
    <_>
      10. 5. 1. 1. 2. 1. 0. 9. 0. 0. 0. 0. 3. 1. 3. 10. 2. 0. 0. 0. 1.
      0. 0. 0. 1. 0. 0. 0. 6. 0. 6. 0. 10. 1. 4. 2. 4. 1. 2. 6. 1. 0. 0.
      0. 0. 1. 2. 7. 1. 0. 0. 0. 0. 0. 1. 1. 0. 0. 0. 0. 5. 0. 9. 3. 9.
      4. 2. 2. 5. 0. 2. 9. 0. 0. 0. 0. 3. 0. 10. 8. 2. 2. 0. 0. 1. 0. 0.
      1. 2. 1. 0. 0. 8. 0. 3. 7. 12. 3. 1. 4. 1. 2. 2. 6. 1. 0. 0. 0. 3.
      1. 7. 12. 1. 2. 1. 0. 1. 0. 3. 0. 6. 1. 1. 0. 7. 0. 15. 4. 10. 0.
      0. 1. 12. 0. 2. 1. 0. 1. 0. 0. 3. 0. 0. 1. 3. 1. 0. 0. 0. 0. 0. 0.
      2. 1. 0. 0. 4. 0. 1. 5. 8. 1. 1. 1. 2. 0. 1. 5. 1. 1. 0. 0. 3. 1.
      2. 7. 4. 0. 0. 0. 0. 0. 0. 0. 0. 0. 0. 0. 4. 0. 4. 3. 9. 1. 0. 2.
      7. 0. 1. 7. 0. 0. 0. 0. 3. 0. 4. 8. 2. 0. 0. 0. 0. 0. 0. 0. 1. 0.
      0. 1. 2. 0. 3. 3. 9. 0. 0. 4. 8. 0. 2. 1. 0. 0. 0. 0. 1. 0. 1. 0.
      0. 0. 0. 0. 2. 0. 0. 0. 0. 0. 0. 0. 3. 0. 0. 0. 8. 0. 0. 0. 9. 0.
      0. 2. 0. 0. 0. 0. 0. 0. 0. 0. 0. 0. 0. 0. 0. 0. 0. 0. 1. 0. 0. 0.
      2. 0. 0. 0. 10. 3. 2. 5. 6. 0. 2. 6. 0. 0. 0. 0. 4. 0. 4. 3. 2. 2.
      0. 1. 0. 0. 0. 0. 1. 1. 0. 0. 1. 1. 3. 1. 9. 6. 2. 2. 8. 0. 2. 0.
      1. 1. 0. 0. 0. 1. 2. 3. 4. 0. 0. 0. 0. 0. 0. 1. 1. 0. 0. 0. 1. 1.
      8. 4. 11. 3. 2. 0. 2. 0. 2. 2. 1. 0. 1. 0. 2. 1. 0. 7. 1. 2. 0. 0.
      0. 0. 0. 0. 0. 0. 0. 0. 3. 1. 4. 4. 13. 0. 0. 1. 4. 1. 1. 2. 0. 0.
      1. 0. 2. 0. 1. 5. 2. 1. 0. 0. 0. 0. 0. 0. 0. 0. 0. 0. 1. 0. 2. 6.
      12. 1. 3. 0. 2. 1. 1. 3. 0. 0. 0. 0. 1. 1. 1. 1. 2. 0. 0. 0. 1. 0.
      2. 0. 0. 1. 0. 1. 10. 0. 3. 0. 10. 0. 1. 1. 5. 0. 0. 3. 0. 0. 0.
      0. 2. 0. 0. 1. 1. 1. 0. 0. 0. 0. 1. 0. 0. 0. 0. 0. 0. 0. 4. 2. 10.
      2. 2. 1. 7. 0. 2. 0. 0. 0. 0. 1. 0. 0. 0. 4. 1. 0. 0. 0. 0. 0. 0.
      0. 0. 0. 0. 0. 4. 0. 1. 3.</_>
    <_>
      6. 1. 0. 2. 2. 0. 1. 6. 0. 0. 0. 0. 1. 1. 2. 7. 2. 0. 0. 0. 2. 0.
      0. 0. 0. 1. 0. 0. 9. 0. 3. 1. 6. 1. 1. 2. 4. 0. 3. 8. 0. 0. 0. 0.
      3. 0. 3. 4. 2. 0. 0. 0. 0. 0. 0. 3. 0. 0. 0. 0. 6. 0. 9. 6. 4. 2.
      2. 2. 2. 0. 2. 9. 0. 0. 0. 0. 2. 0. 2. 2. 1. 0. 0. 0. 1. 0. 2. 0.
      0. 0. 0. 0. 3. 0. 4. 4. 2. 0. 0. 1. 2. 0. 2. 11. 0. 0. 0. 0. 3. 0.
      2. 9. 0. 0. 0. 0. 1. 0. 1. 0. 0. 0. 0. 0. 6. 0. 2. 2. 6. 4. 0. 1.
      5. 1. 3. 5. 0. 0. 0. 0. 2. 0. 1. 3. 3. 0. 0. 0. 1. 0. 0. 0. 0. 0.
      0. 0. 4. 0. 2. 2. 3. 2. 0. 1. 5. 0. 3. 4. 0. 0. 0. 0. 1. 0. 0. 1.
      1. 0. 0. 0. 0. 0. 0. 1. 0. 0. 0. 0. 3. 0. 1. 2. 3. 0. 1. 1. 4. 0.
      6. 2. 0. 0. 0. 0. 1. 0. 0. 5. 0. 0. 0. 0. 1. 0. 0. 0. 1. 0. 0. 0.
      6. 0. 0. 3. 0. 0. 1. 1. 6. 0. 0. 4. 0. 0. 0. 0. 0. 0. 1. 1. 0. 0.
      0. 0. 0. 0. 0. 0. 0. 0. 0. 0. 8. 0. 1. 1. 7. 1. 1. 3. 6. 0. 1. 1.
      0. 0. 0. 0. 0. 0. 2. 3. 1. 0. 0. 0. 2. 0. 0. 0. 0. 0. 0. 0. 2. 1.
      2. 2. 7. 1. 0. 1. 12. 0. 1. 2. 0. 0. 0. 0. 0. 0. 0. 0. 1. 0. 0. 0.
      1. 0. 0. 0. 0. 0. 0. 0. 1. 0. 1. 1. 10. 0. 0. 1. 3. 0. 2. 4. 0. 0.
      0. 0. 1. 0. 1. 6. 0. 0. 0. 0. 0. 0. 0. 0. 2. 0. 0. 0. 1. 0. 1. 2.
      2. 1. 0. 0. 3. 1. 2. 6. 0. 0. 0. 0. 0. 0. 0. 4. 0. 0. 0. 0. 0. 0.
      0. 0. 2. 0. 0. 0. 3. 0. 2. 3. 6. 0. 1. 1. 4. 0. 1. 1. 1. 1. 0. 0.
      2. 0. 1. 6. 1. 0. 0. 0. 0. 0. 0. 0. 0. 0. 0. 0. 0. 0. 15. 7. 8. 1.
      1. 0. 1. 0. 1. 2. 0. 0. 0. 0. 2. 0. 0. 4. 0. 0. 0. 1. 0. 0. 0. 0.
      1. 0. 0. 0. 2. 0. 1. 3. 5. 0. 1. 2. 2. 0. 1. 7. 0. 0. 0. 0. 2. 0.
      2. 14. 0. 0. 0. 0. 0. 0. 0. 0. 2. 0. 0. 0. 2. 0. 12. 12. 8. 1. 0.
      1. 1. 1. 1. 1. 0. 0. 0. 0. 1. 0. 0. 0. 0. 1. 0. 0. 0. 0. 0. 0. 0.
      1. 0. 0. 1. 2. 0. 3.</_>
    <_>
      9. 1. 0. 4. 5. 0. 1. 4. 1. 0. 0. 0. 2. 0. 1. 5. 4. 0. 0. 0. 0. 0.
      0. 1. 0. 1. 0. 1. 5. 1. 5. 1. 10. 4. 3. 2. 1. 0. 0. 2. 0. 0. 0. 0.
      5. 0. 1. 4. 3. 3. 0. 1. 1. 1. 0. 0. 5. 1. 0. 2. 5. 2. 3. 4. 8. 6.
      0. 3. 4. 1. 3. 9. 1. 0. 0. 0. 3. 1. 1. 12. 1. 1. 0. 1. 0. 0. 0. 1.
      0. 1. 0. 1. 5. 0. 6. 6. 9. 2. 1. 3. 0. 1. 0. 3. 0. 0. 0. 0. 1. 0.
      3. 10. 8. 2. 0. 0. 1. 0. 0. 0. 2. 0. 0. 2. 7. 0. 13. 10. 5. 2. 0.
      3. 6. 2. 1. 5. 1. 0. 0. 0. 1. 0. 3. 6. 1. 0. 0. 1. 1. 0. 0. 0. 1.
      0. 0. 0. 5. 0. 2. 3. 6. 1. 0. 1. 4. 0. 3. 5. 0. 0. 0. 0. 4. 0. 1.
      0. 3. 0. 1. 0. 0. 0. 0. 0. 1. 0. 0. 0. 5. 0. 1. 2. 2. 1. 0. 1. 10.
      1. 2. 4. 0. 0. 0. 0. 0. 1. 1. 2. 1. 0. 0. 0. 0. 0. 0. 0. 2. 0. 0.
      0. 7. 0. 1. 0. 5. 1. 0. 0. 4. 1. 2. 6. 2. 0. 0. 0. 3. 0. 2. 1. 1.
      0. 0. 0. 0. 0. 0. 0. 1. 0. 1. 0. 5. 0. 6. 1. 5. 0. 1. 2. 5. 0. 3.
      4. 1. 0. 0. 0. 1. 0. 1. 6. 0. 0. 0. 0. 1. 0. 0. 0. 0. 0. 0. 0. 4.
      0. 2. 2. 6. 0. 0. 2. 3. 1. 2. 0. 0. 1. 0. 0. 0. 0. 1. 0. 2. 0. 1.
      0. 0. 0. 0. 0. 2. 0. 0. 0. 0. 0. 2. 2. 2. 0. 0. 1. 7. 0. 1. 0. 0.
      0. 0. 0. 1. 1. 2. 0. 0. 0. 0. 0. 0. 0. 0. 0. 1. 0. 0. 0. 1. 0. 0.
      0. 3. 0. 2. 2. 2. 0. 1. 3. 0. 0. 0. 0. 0. 0. 1. 12. 0. 0. 0. 0. 1.
      0. 0. 0. 0. 0. 0. 0. 1. 0. 0. 1. 5. 1. 1. 1. 5. 1. 2. 7. 0. 0. 0.
      0. 2. 0. 4. 16. 1. 0. 0. 0. 0. 0. 0. 0. 0. 0. 0. 1. 1. 1. 6. 10.
      6. 0. 2. 2. 2. 0. 1. 7. 0. 0. 0. 0. 1. 1. 5. 5. 1. 0. 0. 0. 0. 0.
      0. 0. 7. 0. 0. 0. 3. 0. 16. 18. 6. 1. 0. 1. 4. 0. 1. 1. 0. 0. 0.
      0. 1. 1. 2. 17. 1. 0. 0. 0. 1. 0. 1. 0. 1. 0. 0. 0. 2. 0. 13. 7.
      6. 2. 0. 1. 3. 0. 0. 4. 0. 0. 0. 0. 2. 0. 3. 9. 1. 2. 0. 0. 0. 0.
      0. 0. 1. 1. 0. 1. 4. 0. 11. 8.</_>
    <_>
      3. 0. 0. 0. 4. 1. 1. 10. 0. 0. 0. 0. 3. 0. 2. 9. 1. 0. 0. 0. 0. 0.
      0. 0. 1. 1. 0. 0. 4. 1. 7. 2. 3. 0. 1. 0. 11. 0. 4. 2. 0. 0. 0. 0.
      1. 0. 3. 8. 0. 0. 0. 0. 0. 0. 0. 0. 0. 0. 0. 0. 6. 0. 5. 0. 1. 0.
      0. 0. 7. 0. 1. 10. 0. 0. 0. 0. 0. 0. 10. 17. 0. 0. 0. 0. 0. 0. 0.
      0. 0. 0. 0. 0. 9. 0. 13. 13. 5. 0. 0. 0. 4. 0. 3. 6. 0. 0. 0. 1.
      1. 0. 1. 2. 0. 0. 0. 0. 1. 0. 0. 0. 0. 0. 0. 1. 1. 0. 13. 7. 3. 0.
      1. 1. 4. 0. 4. 4. 0. 0. 0. 0. 1. 0. 2. 2. 0. 0. 0. 0. 0. 0. 0. 0.
      0. 1. 0. 0. 4. 0. 1. 3. 4. 0. 0. 0. 5. 0. 3. 0. 0. 0. 0. 0. 0. 0.
      0. 0. 0. 0. 0. 0. 0. 0. 0. 0. 0. 0. 0. 0. 0. 0. 1. 0. 1. 2. 1. 0.
      4. 1. 1. 1. 0. 0. 0. 0. 1. 0. 3. 4. 1. 0. 0. 0. 0. 0. 0. 0. 2. 0.
      0. 0. 2. 1. 2. 2. 2. 0. 0. 2. 2. 0. 2. 7. 0. 0. 0. 0. 1. 0. 1. 9.
      0. 0. 0. 0. 1. 0. 0. 0. 0. 0. 0. 0. 5. 0. 0. 3. 1. 0. 0. 2. 9. 0.
      0. 2. 0. 0. 0. 0. 2. 0. 2. 7. 0. 0. 0. 0. 0. 0. 0. 0. 0. 0. 0. 0.
      4. 0. 1. 2. 4. 1. 0. 0. 7. 0. 0. 5. 0. 0. 0. 1. 0. 1. 1. 15. 0. 0.
      0. 0. 0. 0. 0. 0. 0. 0. 0. 0. 6. 0. 5. 4. 2. 0. 1. 0. 7. 0. 2. 5.
      0. 0. 0. 0. 1. 1. 2. 2. 0. 0. 0. 0. 0. 0. 0. 0. 1. 0. 0. 0. 3. 0.
      9. 0. 3. 1. 0. 1. 3. 1. 1. 6. 1. 0. 0. 0. 3. 2. 0. 6. 1. 2. 0. 0.
      0. 0. 0. 0. 2. 0. 0. 0. 1. 0. 0. 2. 5. 0. 0. 1. 5. 0. 5. 2. 0. 0.
      0. 0. 2. 0. 0. 0. 0. 0. 0. 0. 0. 0. 0. 0. 0. 0. 0. 0. 3. 0. 2. 2.
      4. 0. 0. 0. 4. 0. 0. 3. 1. 0. 0. 0. 6. 0. 0. 2. 0. 0. 0. 0. 0. 0.
      1. 0. 0. 0. 0. 0. 3. 0. 1. 0. 2. 0. 0. 1. 5. 0. 2. 1. 0. 0. 0. 0.
      1. 0. 1. 0. 0. 0. 0. 0. 1. 0. 0. 0. 0. 0. 0. 0. 1. 0. 0. 0. 2. 0.
      1. 0. 2. 0. 0. 3. 0. 0. 0. 0. 2. 0. 0. 0. 0. 0. 0. 0. 0. 0. 0. 0.
      0. 0. 0. 0. 3. 0. 0. 0.</_>
    <_>
      7. 2. 2. 2. 0. 2. 2. 8. 1. 0. 0. 0. 2. 1. 3. 6. 0. 0. 0. 1. 1. 0.
      0. 0. 1. 1. 0. 0. 6. 0. 6. 5. 5. 2. 1. 3. 7. 0. 1. 9. 0. 0. 0. 0.
      2. 0. 1. 6. 0. 0. 0. 0. 0. 0. 0. 0. 0. 0. 0. 0. 3. 0. 0. 2. 2. 1.
      3. 2. 4. 0. 3. 3. 2. 0. 0. 0. 1. 1. 0. 7. 0. 1. 0. 0. 2. 0. 1. 0.
      0. 0. 0. 0. 6. 0. 3. 0. 8. 4. 0. 0. 2. 0. 0. 5. 1. 0. 0. 0. 0. 0.
      1. 9. 1. 2. 0. 0. 0. 0. 0. 0. 1. 2. 0. 0. 4. 0. 3. 6. 4. 0. 0. 1.
      8. 0. 3. 1. 1. 0. 0. 0. 2. 1. 4. 4. 1. 0. 0. 0. 0. 0. 0. 0. 1. 0.
      0. 1. 6. 0. 6. 2. 3. 1. 0. 3. 1. 0. 0. 9. 0. 0. 0. 0. 1. 0. 1. 10.
      1. 0. 0. 0. 1. 0. 1. 0. 0. 0. 0. 0. 2. 0. 1. 2. 6. 1. 3. 0. 6. 0.
      2. 1. 0. 0. 0. 0. 1. 0. 0. 0. 1. 0. 0. 0. 0. 0. 0. 0. 0. 0. 0. 0.
      1. 0. 2. 1. 4. 0. 2. 1. 8. 0. 0. 1. 0. 0. 0. 0. 1. 0. 0. 3. 0. 0.
      0. 0. 0. 0. 0. 0. 0. 0. 0. 0. 1. 0. 3. 5. 6. 1. 0. 0. 9. 0. 2. 2.
      0. 0. 0. 0. 3. 1. 1. 0. 2. 0. 0. 0. 0. 0. 0. 0. 1. 0. 0. 0. 2. 0.
      0. 1. 4. 0. 1. 0. 5. 0. 4. 0. 0. 0. 0. 0. 0. 0. 1. 0. 0. 0. 0. 0.
      0. 0. 0. 0. 0. 0. 0. 0. 1. 0. 0. 0. 3. 0. 0. 0. 1. 0. 0. 0. 1. 0.
      0. 0. 1. 0. 1. 0. 0. 0. 0. 0. 0. 0. 0. 0. 0. 0. 0. 0. 3. 0. 0. 0.
      4. 0. 1. 0. 2. 0. 1. 3. 1. 0. 0. 0. 2. 0. 1. 3. 1. 0. 0. 1. 0. 0.
      0. 0. 0. 0. 0. 0. 0. 0. 1. 0. 3. 0. 0. 0. 6. 0. 0. 0. 0. 0. 0. 0.
      1. 0. 2. 3. 0. 0. 0. 0. 0. 0. 0. 0. 0. 0. 0. 0. 1. 0. 4. 4. 4. 0.
      0. 0. 4. 0. 0. 0. 0. 0. 0. 0. 1. 0. 0. 7. 0. 0. 0. 0. 0. 0. 0. 0.
      1. 0. 0. 0. 0. 0. 5. 3. 6. 0. 1. 0. 7. 0. 2. 2. 0. 0. 1. 0. 0. 0.
      3. 4. 0. 0. 0. 0. 0. 0. 0. 0. 0. 0. 0. 0. 2. 0. 5. 5. 4. 0. 2. 0.
      3. 0. 3. 1. 2. 0. 0. 0. 0. 0. 1. 3. 0. 0. 0. 0. 1. 0. 0. 0. 0. 0.
      0. 0. 3. 0. 3. 5.</_>
    <_>
      6. 4. 1. 2. 3. 1. 2. 5. 2. 1. 0. 0. 0. 0. 6. 15. 1. 1. 1. 1. 1. 0.
      0. 1. 3. 1. 1. 0. 10. 1. 11. 5. 5. 3. 0. 2. 2. 1. 0. 9. 0. 0. 0.
      0. 2. 1. 8. 15. 1. 1. 0. 0. 0. 0. 0. 0. 2. 1. 0. 1. 6. 0. 18. 8.
      7. 3. 1. 1. 2. 0. 0. 6. 0. 0. 0. 0. 3. 0. 8. 13. 2. 1. 1. 0. 1. 0.
      0. 0. 1. 0. 0. 0. 11. 0. 26. 7. 9. 2. 1. 0. 7. 1. 4. 2. 0. 0. 0.
      1. 1. 0. 0. 0. 2. 1. 1. 0. 1. 0. 0. 0. 3. 0. 0. 0. 3. 0. 6. 2. 5.
      1. 1. 0. 3. 0. 3. 7. 0. 0. 1. 0. 2. 0. 3. 7. 0. 0. 0. 1. 1. 0. 0.
      1. 3. 0. 0. 0. 7. 0. 7. 0. 6. 1. 2. 1. 4. 0. 0. 4. 1. 0. 0. 0. 1.
      0. 2. 4. 0. 1. 0. 1. 0. 0. 0. 1. 2. 0. 0. 0. 2. 0. 3. 6. 8. 1. 0.
      1. 4. 0. 4. 6. 2. 0. 0. 1. 1. 0. 0. 3. 1. 0. 0. 0. 1. 0. 0. 0. 0.
      0. 0. 0. 7. 0. 2. 3. 8. 4. 0. 1. 10. 2. 0. 1. 1. 0. 0. 0. 0. 0. 0.
      5. 2. 0. 0. 1. 0. 0. 0. 1. 2. 1. 0. 0. 0. 0. 3. 4. 5. 0. 1. 0. 3.
      0. 4. 3. 0. 0. 0. 0. 1. 0. 2. 5. 3. 1. 0. 0. 0. 0. 0. 0. 1. 0. 0.
      0. 9. 0. 2. 4. 6. 0. 1. 0. 5. 0. 3. 5. 0. 0. 0. 0. 1. 0. 3. 2. 1.
      0. 0. 0. 0. 0. 0. 0. 1. 0. 0. 0. 2. 0. 3. 3. 11. 0. 0. 0. 7. 0. 0.
      4. 0. 0. 0. 0. 5. 0. 5. 2. 0. 0. 0. 0. 0. 0. 0. 0. 0. 0. 0. 0. 2.
      0. 2. 2. 7. 0. 0. 0. 4. 0. 3. 2. 0. 0. 0. 0. 1. 0. 0. 0. 0. 0. 0.
      0. 0. 0. 0. 0. 0. 0. 0. 0. 3. 0. 1. 0. 5. 1. 0. 0. 8. 0. 1. 0. 0.
      0. 0. 0. 1. 0. 1. 6. 0. 0. 0. 0. 0. 0. 0. 0. 1. 0. 0. 0. 1. 0. 0.
      2. 5. 0. 3. 0. 5. 0. 0. 1. 0. 0. 0. 0. 1. 0. 0. 2. 0. 0. 0. 0. 0.
      0. 0. 0. 0. 0. 0. 0. 1. 0. 2. 1. 8. 2. 1. 1. 1. 0. 2. 6. 0. 0. 0.
      0. 0. 1. 5. 4. 2. 1. 0. 0. 0. 0. 1. 0. 2. 0. 0. 0. 2. 0. 18. 6. 5.
      0. 0. 0. 3. 0. 1. 1. 0. 0. 0. 0. 0. 0. 0. 2. 2. 0. 0. 0. 1. 0. 0.
      0. 0. 0. 0. 0. 2. 0. 6. 3.</_>
    <_>
      3. 1. 0. 0. 9. 0. 0. 6. 0. 0. 0. 0. 0. 0. 6. 9. 2. 1. 0. 0. 1. 0.
      0. 0. 0. 0. 0. 0. 2. 0. 5. 4. 5. 1. 1. 2. 4. 1. 4. 3. 1. 0. 0. 0.
      2. 1. 1. 2. 1. 0. 0. 0. 2. 0. 0. 0. 2. 0. 0. 1. 5. 0. 1. 0. 7. 1.
      0. 1. 3. 0. 1. 8. 1. 0. 0. 1. 1. 1. 3. 9. 3. 2. 0. 0. 0. 0. 0. 0.
      1. 0. 0. 0. 7. 0. 10. 2. 6. 3. 1. 1. 3. 1. 1. 7. 0. 0. 0. 0. 1. 0.
      5. 5. 3. 1. 0. 1. 0. 0. 1. 0. 1. 0. 0. 0. 5. 0. 7. 4. 5. 1. 0. 0.
      3. 1. 3. 5. 0. 0. 0. 0. 2. 0. 1. 7. 1. 0. 1. 0. 0. 0. 0. 0. 3. 0.
      0. 0. 6. 1. 7. 7. 5. 0. 2. 1. 7. 0. 3. 3. 0. 0. 0. 0. 1. 0. 2. 1.
      0. 0. 0. 0. 0. 0. 0. 0. 1. 0. 0. 0. 1. 0. 2. 1. 8. 2. 0. 0. 4. 0.
      1. 6. 1. 1. 0. 0. 0. 0. 4. 11. 2. 0. 1. 1. 0. 0. 0. 0. 1. 0. 0. 0.
      2. 0. 5. 5. 8. 1. 1. 0. 6. 1. 0. 10. 0. 0. 0. 0. 1. 0. 3. 11. 0.
      0. 0. 0. 0. 0. 0. 0. 1. 0. 0. 0. 4. 0. 10. 5. 5. 1. 3. 1. 3. 1. 4.
      2. 1. 0. 0. 1. 0. 0. 0. 2. 1. 1. 0. 0. 0. 0. 0. 0. 0. 0. 0. 0. 8.
      0. 0. 3. 4. 1. 0. 0. 11. 0. 1. 0. 0. 0. 0. 0. 0. 0. 0. 0. 0. 0. 0.
      0. 0. 0. 0. 0. 0. 0. 0. 0. 1. 0. 0. 0. 3. 0. 1. 0. 3. 1. 2. 2. 1.
      0. 0. 0. 2. 0. 0. 5. 0. 0. 0. 0. 0. 0. 0. 0. 2. 0. 0. 0. 0. 0. 2.
      0. 6. 0. 0. 0. 5. 0. 0. 3. 2. 0. 1. 0. 3. 0. 1. 4. 1. 1. 0. 0. 1.
      0. 0. 0. 1. 0. 0. 0. 1. 0. 2. 2. 5. 0. 1. 1. 3. 0. 2. 6. 2. 0. 0.
      0. 1. 0. 2. 3. 1. 0. 0. 0. 1. 0. 0. 1. 2. 0. 0. 0. 5. 0. 9. 4. 4.
      1. 0. 1. 7. 0. 1. 0. 1. 0. 0. 0. 0. 0. 0. 4. 1. 1. 0. 0. 0. 0. 1.
      0. 1. 0. 0. 0. 1. 0. 1. 4. 6. 0. 0. 0. 10. 0. 0. 4. 0. 0. 0. 0. 1.
      0. 4. 3. 0. 0. 0. 0. 1. 0. 0. 0. 0. 0. 0. 0. 6. 0. 5. 8. 8. 1. 1.
      1. 7. 0. 1. 5. 0. 0. 0. 0. 0. 0. 2. 1. 0. 0. 0. 0. 0. 0. 0. 0. 1.
      0. 0. 0. 5. 0. 4. 5.</_>
    <_>
      12. 13. 1. 0. 0. 0. 0. 0. 0. 0. 0. 0. 0. 0. 7. 10. 12. 11. 0. 0.
      1. 0. 0. 0. 0. 0. 0. 0. 2. 0. 10. 10. 10. 19. 0. 0. 0. 0. 0. 0. 0.
      0. 0. 0. 0. 0. 6. 11. 13. 11. 0. 0. 0. 0. 0. 1. 0. 0. 0. 0. 1. 0.
      7. 9. 12. 23. 0. 0. 0. 0. 0. 0. 0. 0. 0. 0. 0. 0. 5. 6. 15. 11. 0.
      0. 0. 0. 1. 0. 0. 0. 0. 0. 0. 0. 11. 11. 14. 13. 2. 1. 1. 0. 0. 1.
      0. 2. 0. 0. 1. 0. 2. 6. 13. 11. 0. 0. 1. 0. 0. 0. 1. 2. 0. 0. 1.
      0. 7. 4. 8. 4. 4. 0. 2. 1. 2. 3. 3. 1. 0. 0. 2. 2. 3. 4. 4. 0. 1.
      0. 0. 0. 1. 1. 2. 1. 0. 1. 3. 0. 3. 5. 14. 3. 2. 4. 2. 1. 2. 8. 1.
      0. 0. 1. 2. 0. 3. 0. 4. 0. 0. 0. 1. 0. 1. 0. 2. 0. 0. 0. 7. 3. 1.
      1. 13. 13. 1. 1. 1. 0. 1. 6. 1. 2. 0. 1. 1. 2. 7. 9. 8. 5. 1. 2.
      1. 0. 0. 2. 1. 0. 0. 0. 4. 2. 11. 5. 12. 10. 1. 1. 2. 1. 1. 3. 0.
      2. 0. 0. 0. 0. 9. 8. 4. 2. 1. 2. 0. 0. 0. 1. 0. 0. 1. 0. 5. 1. 7.
      7. 13. 2. 0. 4. 3. 2. 2. 9. 0. 1. 0. 0. 1. 0. 3. 1. 5. 1. 1. 0. 0.
      0. 0. 0. 3. 0. 0. 0. 6. 0. 1. 1. 15. 1. 1. 2. 8. 1. 0. 2. 0. 0. 0.
      0. 1. 0. 1. 0. 0. 0. 0. 0. 2. 0. 0. 0. 3. 0. 0. 0. 1. 0. 1. 0. 14.
      2. 1. 1. 3. 0. 1. 3. 2. 0. 0. 0. 2. 1. 1. 3. 3. 0. 2. 0. 0. 0. 0.
      2. 1. 0. 0. 0. 2. 0. 3. 1. 16. 2. 1. 1. 6. 1. 1. 3. 2. 1. 0. 0. 0.
      2. 1. 5. 1. 1. 1. 1. 1. 0. 1. 0. 1. 2. 0. 0. 1. 0. 6. 2. 14. 6. 1.
      1. 11. 1. 0. 1. 2. 0. 0. 0. 3. 0. 0. 2. 4. 0. 0. 0. 0. 0. 0. 0. 1.
      1. 0. 1. 3. 0. 1. 0. 9. 1. 3. 0. 7. 0. 0. 2. 0. 1. 0. 0. 0. 0. 0.
      2. 2. 1. 0. 0. 0. 0. 0. 0. 2. 0. 0. 0. 0. 0. 0. 1. 13. 3. 3. 1. 6.
      0. 0. 3. 0. 0. 0. 1. 2. 2. 0. 6. 1. 0. 1. 0. 0. 0. 0. 0. 1. 1. 0.
      0. 1. 1. 4. 3. 12. 3. 2. 0. 3. 1. 2. 3. 0. 0. 0. 0. 2. 0. 1. 2. 1.
      0. 1. 0. 0. 0. 0. 0. 1. 0. 0. 0. 2. 0. 4. 4.</_>
    <_>
      6. 4. 0. 0. 0. 0. 0. 4. 0. 0. 0. 0. 2. 0. 1. 5. 2. 1. 0. 0. 0. 0.
      0. 0. 1. 0. 0. 0. 0. 0. 0. 0. 3. 9. 0. 1. 0. 0. 0. 3. 0. 0. 0. 0.
      1. 1. 4. 12. 4. 3. 0. 1. 1. 0. 0. 0. 4. 0. 0. 0. 5. 0. 9. 12. 3.
      8. 0. 1. 0. 0. 0. 3. 0. 0. 0. 0. 1. 0. 7. 22. 3. 1. 0. 0. 0. 0. 0.
      1. 6. 0. 0. 1. 0. 1. 27. 21. 3. 5. 0. 0. 0. 0. 0. 5. 0. 0. 0. 0.
      0. 0. 0. 6. 4. 1. 1. 1. 0. 0. 0. 1. 4. 0. 0. 0. 0. 0. 14. 4. 5. 3.
      1. 0. 1. 0. 2. 4. 0. 1. 0. 0. 0. 0. 7. 23. 1. 4. 1. 0. 0. 0. 0. 0.
      0. 0. 0. 0. 7. 0. 17. 2. 7. 2. 1. 0. 3. 1. 0. 8. 1. 0. 0. 0. 2. 1.
      2. 32. 4. 0. 0. 0. 0. 0. 1. 0. 2. 0. 0. 0. 8. 0. 11. 5. 2. 4. 1.
      4. 0. 1. 2. 7. 0. 2. 1. 0. 1. 0. 7. 21. 5. 4. 3. 1. 0. 0. 0. 0. 0.
      0. 0. 0. 9. 0. 32. 14. 2. 3. 0. 2. 0. 1. 0. 10. 1. 0. 0. 0. 1. 0.
      4. 17. 6. 5. 1. 0. 0. 0. 1. 0. 2. 0. 0. 0. 3. 0. 28. 2. 7. 3. 1.
      0. 3. 0. 4. 5. 1. 1. 0. 0. 1. 0. 4. 13. 1. 3. 0. 0. 0. 0. 0. 1. 1.
      0. 0. 0. 8. 0. 4. 3. 5. 3. 1. 1. 0. 0. 0. 6. 0. 0. 0. 0. 2. 0. 4.
      4. 3. 1. 0. 0. 0. 0. 1. 0. 2. 0. 0. 0. 4. 0. 4. 3. 3. 3. 0. 1. 9.
      0. 2. 5. 0. 0. 0. 0. 1. 0. 1. 12. 1. 0. 0. 1. 0. 0. 0. 0. 1. 0. 0.
      1. 0. 1. 1. 1. 4. 3. 0. 0. 1. 1. 0. 8. 1. 1. 0. 0. 0. 2. 2. 17. 4.
      0. 0. 0. 0. 0. 0. 0. 2. 0. 0. 0. 1. 0. 5. 4. 3. 3. 0. 0. 1. 0. 3.
      0. 0. 1. 0. 0. 1. 0. 0. 8. 3. 3. 0. 0. 0. 0. 0. 0. 3. 0. 0. 0. 1.
      0. 5. 5. 5. 1. 0. 0. 1. 1. 1. 8. 2. 0. 0. 0. 1. 0. 4. 5. 1. 1. 0.
      0. 1. 0. 0. 0. 3. 0. 0. 0. 3. 0. 3. 0. 7. 1. 2. 1. 1. 0. 0. 3. 0.
      0. 0. 0. 1. 1. 2. 4. 3. 2. 1. 0. 0. 0. 1. 0. 1. 0. 0. 1. 3. 0. 9.
      6. 1. 2. 1. 1. 0. 0. 0. 5. 0. 0. 0. 0. 1. 1. 0. 5. 3. 1. 0. 0. 0.
      0. 2. 0. 1. 0. 0. 0. 0. 0. 6. 4.</_>
    <_>
      7. 0. 0. 0. 6. 1. 5. 6. 1. 0. 0. 0. 2. 0. 1. 11. 1. 0. 0. 0. 0. 0.
      0. 0. 1. 0. 0. 0. 4. 0. 4. 7. 1. 1. 0. 0. 4. 0. 2. 4. 0. 0. 0. 0.
      2. 1. 0. 0. 2. 0. 1. 0. 1. 0. 0. 0. 0. 1. 0. 1. 3. 0. 2. 5. 7. 1.
      1. 0. 8. 1. 2. 5. 1. 0. 0. 0. 1. 0. 1. 2. 2. 0. 0. 2. 1. 0. 0. 0.
      3. 0. 0. 0. 5. 0. 2. 2. 5. 2. 1. 0. 6. 0. 3. 4. 0. 0. 0. 0. 3. 0.
      3. 3. 3. 1. 0. 0. 1. 0. 0. 0. 2. 0. 0. 0. 9. 0. 6. 5. 4. 0. 0. 0.
      5. 0. 1. 2. 0. 0. 0. 0. 1. 0. 2. 2. 0. 0. 0. 0. 0. 0. 0. 0. 0. 0.
      0. 0. 5. 0. 0. 1. 5. 0. 1. 1. 3. 0. 6. 9. 0. 0. 0. 0. 2. 0. 6. 8.
      1. 1. 0. 0. 0. 0. 0. 0. 1. 1. 0. 0. 8. 1. 9. 9. 7. 0. 1. 1. 9. 0.
      0. 6. 1. 0. 0. 0. 0. 0. 2. 17. 0. 0. 0. 0. 0. 0. 0. 0. 1. 0. 0. 0.
      3. 0. 9. 7. 6. 2. 0. 0. 3. 0. 2. 7. 1. 0. 0. 0. 0. 0. 3. 5. 2. 0.
      0. 0. 0. 0. 0. 0. 0. 0. 0. 0. 4. 0. 3. 6. 4. 1. 0. 0. 7. 0. 1. 2.
      1. 0. 0. 0. 4. 0. 1. 1. 4. 0. 0. 0. 0. 0. 0. 0. 0. 0. 1. 0. 2. 0.
      1. 2. 4. 3. 0. 0. 4. 0. 1. 2. 0. 0. 0. 0. 2. 0. 1. 2. 2. 0. 0. 0.
      0. 0. 0. 0. 1. 0. 0. 0. 2. 0. 2. 2. 5. 1. 1. 1. 5. 1. 1. 1. 0. 0.
      0. 0. 0. 0. 0. 0. 0. 0. 0. 0. 1. 0. 0. 0. 2. 0. 0. 0. 0. 0. 3. 2.
      6. 0. 0. 1. 7. 0. 1. 7. 0. 0. 0. 0. 1. 0. 1. 3. 0. 0. 0. 0. 0. 0.
      0. 0. 0. 1. 0. 0. 1. 0. 1. 0. 4. 0. 0. 0. 5. 0. 1. 3. 0. 0. 0. 0.
      3. 0. 4. 16. 0. 0. 0. 0. 1. 0. 0. 0. 0. 0. 0. 0. 3. 0. 5. 3. 4. 1.
      0. 0. 4. 0. 0. 3. 0. 0. 0. 0. 1. 0. 0. 0. 1. 1. 0. 0. 0. 0. 0. 0.
      1. 0. 0. 0. 0. 0. 0. 0. 7. 0. 1. 0. 5. 0. 0. 4. 0. 0. 0. 0. 2. 0.
      2. 9. 0. 0. 0. 0. 0. 0. 0. 0. 1. 0. 0. 0. 5. 0. 3. 4. 3. 0. 1. 1.
      8. 0. 0. 0. 0. 0. 0. 0. 0. 0. 0. 1. 0. 0. 0. 0. 0. 0. 0. 0. 0. 0.
      0. 0. 1. 0. 4. 2.</_>
    <_>
      7. 6. 0. 2. 5. 0. 1. 10. 0. 0. 0. 0. 2. 1. 5. 7. 3. 1. 0. 0. 0. 1.
      0. 0. 4. 0. 0. 2. 8. 0. 8. 2. 10. 5. 0. 4. 0. 0. 1. 8. 2. 1. 0. 0.
      1. 3. 8. 13. 3. 2. 3. 2. 1. 0. 0. 2. 4. 0. 0. 0. 3. 0. 25. 6. 9.
      3. 2. 0. 0. 3. 1. 7. 1. 5. 0. 0. 1. 2. 6. 19. 8. 2. 1. 0. 1. 0. 2.
      1. 2. 1. 0. 0. 4. 0. 16. 9. 10. 5. 2. 1. 1. 0. 1. 6. 1. 4. 0. 0.
      0. 2. 4. 19. 5. 1. 2. 0. 1. 0. 6. 0. 2. 1. 0. 0. 7. 0. 14. 7. 9.
      0. 0. 1. 2. 1. 2. 4. 1. 0. 0. 0. 2. 0. 0. 5. 1. 1. 0. 2. 1. 0. 0.
      0. 1. 0. 0. 0. 3. 1. 1. 4. 9. 1. 0. 0. 4. 0. 3. 3. 0. 0. 0. 0. 0.
      1. 1. 1. 1. 0. 1. 0. 0. 0. 1. 0. 2. 0. 0. 0. 1. 0. 3. 0. 9. 5. 0.
      2. 2. 0. 0. 0. 0. 0. 0. 0. 1. 1. 0. 5. 4. 0. 0. 1. 0. 0. 1. 0. 0.
      0. 0. 0. 2. 0. 4. 2. 7. 0. 0. 0. 3. 0. 0. 0. 3. 0. 0. 1. 0. 1. 0.
      3. 1. 0. 0. 0. 2. 0. 1. 0. 0. 0. 0. 1. 2. 1. 1. 2. 7. 4. 1. 0. 9.
      1. 3. 0. 1. 1. 0. 0. 1. 0. 0. 0. 2. 2. 0. 1. 1. 0. 0. 0. 0. 0. 1.
      0. 2. 0. 0. 1. 10. 2. 0. 1. 4. 0. 1. 0. 1. 0. 0. 0. 1. 0. 0. 2. 3.
      1. 0. 1. 0. 0. 0. 0. 0. 0. 0. 0. 3. 0. 3. 1. 11. 5. 3. 2. 0. 0. 3.
      1. 1. 2. 0. 0. 0. 0. 1. 3. 1. 1. 1. 0. 1. 0. 3. 0. 0. 0. 0. 0. 8.
      0. 10. 2. 11. 2. 2. 1. 7. 0. 1. 3. 1. 0. 0. 0. 2. 1. 1. 3. 4. 1.
      0. 0. 0. 0. 3. 0. 1. 0. 0. 0. 2. 0. 7. 3. 9. 6. 0. 1. 0. 0. 0. 2.
      0. 2. 0. 0. 0. 0. 8. 20. 6. 1. 0. 2. 0. 0. 2. 0. 0. 0. 0. 0. 3. 0.
      19. 14. 12. 9. 0. 0. 0. 1. 1. 2. 0. 0. 1. 0. 1. 1. 6. 14. 9. 8. 3.
      2. 2. 0. 1. 1. 4. 0. 0. 1. 2. 1. 18. 10. 15. 11. 0. 0. 0. 0. 0. 3.
      0. 0. 0. 0. 0. 0. 10. 18. 9. 9. 2. 1. 0. 0. 0. 0. 2. 2. 0. 0. 5.
      0. 10. 12. 9. 8. 1. 0. 0. 0. 0. 0. 0. 0. 0. 1. 2. 0. 9. 20. 7. 6.
      0. 0. 0. 0. 0. 1. 3. 2. 0. 0. 1. 0. 18. 17.</_>
    <_>
      10. 2. 1. 0. 4. 1. 1. 4. 0. 1. 0. 1. 1. 1. 5. 9. 4. 1. 1. 1. 1. 0.
      0. 3. 2. 2. 0. 1. 7. 0. 6. 8. 12. 3. 2. 6. 3. 0. 2. 8. 2. 0. 0. 0.
      3. 0. 2. 7. 6. 3. 2. 1. 0. 0. 3. 0. 2. 1. 0. 1. 3. 2. 10. 5. 11.
      7. 3. 3. 4. 0. 0. 3. 1. 0. 0. 0. 0. 1. 4. 7. 10. 0. 1. 0. 1. 0. 1.
      1. 2. 4. 1. 1. 9. 0. 6. 7. 17. 6. 0. 0. 6. 0. 2. 5. 0. 1. 0. 0. 1.
      0. 3. 8. 5. 8. 0. 0. 1. 0. 0. 0. 4. 1. 0. 0. 4. 1. 2. 1. 13. 2. 3.
      2. 7. 0. 2. 3. 2. 0. 0. 1. 3. 1. 1. 3. 4. 5. 0. 1. 0. 0. 0. 0. 1.
      0. 0. 1. 3. 0. 4. 5. 13. 2. 5. 4. 5. 1. 0. 0. 2. 0. 0. 0. 1. 0. 2.
      0. 2. 0. 0. 0. 0. 1. 0. 0. 1. 0. 0. 1. 5. 0. 1. 3. 9. 7. 3. 2. 1.
      1. 0. 1. 2. 0. 0. 0. 1. 0. 1. 4. 3. 0. 0. 0. 2. 0. 1. 0. 0. 1. 0.
      0. 2. 0. 2. 0. 8. 0. 0. 2. 14. 0. 0. 3. 0. 0. 1. 0. 1. 0. 0. 1. 0.
      0. 0. 0. 1. 0. 1. 0. 2. 0. 1. 0. 4. 0. 1. 1. 12. 7. 1. 3. 6. 0. 4.
      2. 0. 0. 0. 1. 1. 0. 4. 2. 2. 1. 1. 0. 1. 0. 2. 1. 1. 0. 0. 0. 8.
      1. 4. 5. 8. 4. 0. 0. 10. 1. 2. 3. 0. 0. 0. 0. 2. 1. 0. 5. 1. 1. 0.
      0. 0. 0. 0. 0. 1. 1. 1. 0. 3. 0. 0. 4. 9. 0. 0. 0. 4. 1. 1. 5. 1.
      1. 0. 0. 1. 0. 2. 7. 1. 0. 0. 0. 0. 0. 1. 0. 2. 0. 1. 0. 4. 1. 9.
      2. 9. 0. 0. 0. 9. 1. 0. 3. 2. 0. 0. 0. 2. 0. 2. 3. 0. 0. 0. 0. 0.
      0. 0. 0. 0. 0. 0. 0. 4. 0. 3. 0. 11. 2. 1. 4. 5. 0. 2. 3. 1. 0. 0.
      0. 2. 0. 4. 2. 5. 1. 0. 1. 0. 0. 0. 0. 1. 1. 0. 1. 5. 1. 9. 6. 11.
      2. 0. 2. 1. 1. 0. 0. 1. 1. 0. 0. 0. 1. 1. 9. 7. 1. 0. 1. 0. 0. 1.
      0. 2. 1. 0. 0. 1. 0. 6. 4. 10. 4. 0. 0. 2. 0. 1. 3. 0. 0. 0. 0. 1.
      0. 1. 15. 4. 1. 1. 0. 0. 0. 1. 0. 0. 0. 0. 0. 1. 1. 15. 5. 12. 5.
      1. 0. 2. 1. 0. 2. 0. 0. 0. 0. 0. 0. 1. 6. 2. 1. 0. 0. 0. 0. 0. 1.
      0. 0. 0. 0. 2. 0. 7. 3.</_>
    <_>
      10. 3. 2. 2. 1. 0. 5. 11. 2. 1. 0. 0. 7. 0. 11. 14. 4. 3. 0. 1. 0.
      0. 0. 0. 1. 0. 1. 0. 11. 1. 15. 12. 7. 4. 2. 6. 3. 0. 4. 7. 0. 0.
      1. 1. 2. 1. 11. 14. 6. 4. 0. 1. 0. 0. 0. 1. 2. 0. 0. 0. 12. 0. 23.
      13. 10. 3. 1. 1. 1. 2. 3. 7. 2. 1. 1. 0. 0. 0. 8. 15. 4. 0. 1. 0.
      0. 0. 3. 0. 2. 0. 0. 0. 7. 1. 19. 0. 9. 1. 1. 3. 3. 3. 1. 6. 1. 0.
      0. 0. 2. 0. 2. 6. 1. 2. 1. 0. 0. 0. 0. 0. 0. 0. 0. 0. 6. 0. 6. 1.
      9. 3. 0. 2. 0. 1. 1. 7. 1. 0. 1. 0. 4. 1. 1. 2. 2. 1. 0. 0. 0. 0.
      0. 0. 2. 0. 0. 1. 4. 0. 3. 1. 9. 0. 2. 0. 7. 2. 5. 6. 1. 0. 0. 1.
      2. 0. 4. 0. 2. 1. 0. 0. 0. 0. 2. 0. 2. 0. 0. 0. 5. 1. 19. 5. 10.
      4. 3. 2. 8. 2. 5. 4. 1. 0. 0. 0. 1. 0. 1. 1. 3. 0. 0. 0. 0. 0. 1.
      1. 3. 1. 0. 0. 5. 0. 3. 0. 9. 5. 4. 2. 8. 0. 4. 5. 2. 0. 0. 0. 3.
      0. 1. 0. 1. 0. 1. 0. 0. 0. 0. 0. 0. 0. 0. 0. 3. 0. 6. 2. 8. 2. 1.
      1. 4. 0. 1. 9. 0. 0. 0. 0. 3. 0. 1. 1. 4. 0. 0. 0. 0. 0. 0. 0. 3.
      0. 0. 0. 5. 0. 1. 1. 8. 4. 0. 3. 6. 0. 1. 3. 0. 1. 1. 0. 3. 1. 1.
      0. 2. 1. 0. 1. 1. 0. 0. 0. 1. 1. 0. 0. 2. 0. 2. 5. 10. 0. 2. 2. 4.
      1. 3. 0. 0. 0. 1. 0. 0. 0. 1. 2. 0. 0. 0. 0. 1. 0. 0. 0. 0. 0. 0.
      0. 0. 0. 8. 2. 14. 1. 0. 0. 4. 0. 3. 1. 1. 0. 0. 0. 1. 1. 1. 3. 0.
      1. 1. 0. 0. 0. 2. 0. 0. 0. 0. 0. 4. 0. 7. 4. 9. 0. 1. 0. 5. 0. 0.
      2. 0. 1. 0. 0. 1. 0. 0. 0. 0. 0. 0. 0. 0. 0. 1. 0. 1. 0. 0. 0. 2.
      0. 0. 0. 10. 5. 0. 0. 3. 0. 2. 3. 0. 0. 0. 0. 0. 0. 4. 2. 1. 2. 0.
      1. 0. 0. 0. 0. 1. 0. 0. 0. 5. 0. 10. 2. 10. 4. 0. 0. 2. 1. 4. 3.
      1. 1. 0. 1. 0. 1. 3. 4. 4. 1. 2. 0. 0. 0. 3. 1. 3. 0. 0. 0. 6. 0.
      16. 9. 10. 8. 1. 3. 1. 0. 3. 9. 1. 0. 0. 2. 4. 0. 6. 2. 7. 5. 0.
      1. 0. 0. 0. 0. 2. 0. 0. 0. 0. 0. 10. 5.</_>
    <_>
      7. 2. 0. 4. 8. 0. 3. 8. 1. 0. 0. 0. 2. 0. 2. 9. 1. 0. 0. 0. 0. 0.
      0. 0. 3. 0. 0. 0. 12. 0. 3. 2. 7. 1. 1. 5. 3. 1. 2. 5. 3. 0. 0. 0.
      2. 1. 11. 35. 3. 1. 0. 0. 1. 0. 0. 0. 3. 3. 0. 1. 12. 1. 34. 11.
      5. 1. 2. 3. 1. 0. 2. 11. 1. 3. 0. 1. 5. 3. 16. 44. 5. 0. 0. 1. 1.
      0. 1. 1. 2. 1. 1. 1. 10. 3. 27. 16. 4. 0. 1. 1. 0. 0. 3. 8. 1. 1.
      0. 0. 2. 0. 15. 39. 0. 0. 0. 1. 1. 0. 0. 0. 3. 0. 1. 1. 10. 1. 23.
      20. 6. 0. 0. 3. 5. 0. 1. 2. 1. 0. 0. 0. 4. 0. 6. 9. 3. 0. 0. 0. 0.
      0. 0. 0. 4. 0. 0. 0. 11. 0. 7. 4. 9. 1. 0. 1. 3. 0. 2. 10. 2. 1.
      0. 0. 6. 0. 2. 9. 1. 0. 0. 0. 0. 0. 0. 0. 2. 0. 0. 0. 3. 0. 4. 1.
      5. 0. 0. 3. 5. 0. 1. 2. 1. 0. 0. 0. 3. 0. 3. 4. 0. 0. 0. 0. 0. 0.
      0. 0. 1. 0. 0. 0. 4. 0. 4. 3. 8. 1. 1. 1. 10. 0. 3. 2. 1. 0. 0. 0.
      2. 0. 6. 6. 0. 1. 0. 0. 1. 1. 0. 1. 2. 1. 0. 0. 4. 0. 3. 10. 10.
      0. 0. 0. 6. 1. 0. 2. 0. 0. 0. 0. 1. 0. 2. 0. 1. 0. 0. 0. 0. 0. 0.
      0. 1. 0. 1. 0. 3. 0. 1. 2. 9. 1. 4. 1. 2. 0. 7. 4. 0. 0. 0. 0. 5.
      0. 0. 1. 1. 0. 0. 0. 0. 0. 0. 0. 1. 0. 1. 0. 9. 0. 7. 3. 11. 1. 1.
      0. 6. 0. 2. 3. 1. 0. 0. 0. 1. 1. 1. 2. 0. 0. 0. 0. 1. 0. 0. 0. 0.
      0. 0. 0. 1. 0. 2. 2. 13. 2. 1. 1. 6. 0. 1. 1. 0. 1. 0. 0. 2. 0. 0.
      0. 0. 2. 1. 0. 0. 0. 0. 0. 1. 0. 0. 0. 1. 1. 0. 2. 7. 2. 1. 0. 1.
      0. 2. 2. 0. 0. 0. 0. 2. 0. 2. 0. 2. 1. 0. 0. 0. 0. 0. 0. 2. 0. 0.
      0. 7. 0. 2. 5. 6. 3. 0. 3. 2. 0. 3. 3. 1. 0. 0. 0. 2. 0. 2. 5. 4.
      0. 0. 0. 0. 0. 0. 0. 1. 0. 0. 0. 1. 0. 4. 2. 13. 2. 1. 0. 2. 0. 1.
      0. 0. 0. 0. 0. 1. 0. 1. 1. 0. 0. 0. 0. 2. 0. 0. 0. 1. 0. 0. 0. 1.
      0. 8. 3. 9. 2. 1. 1. 9. 1. 2. 3. 0. 0. 0. 0. 4. 0. 1. 1. 0. 0. 1.
      0. 0. 0. 0. 0. 3. 0. 0. 0. 8. 0. 4. 1.</_>
    <_>
      6. 1. 1. 2. 3. 1. 1. 11. 0. 0. 0. 0. 1. 0. 10. 11. 5. 0. 1. 0. 1.
      0. 0. 0. 2. 0. 0. 1. 13. 0. 9. 4. 12. 1. 1. 3. 2. 0. 0. 5. 1. 1.
      0. 0. 0. 2. 3. 13. 2. 2. 0. 1. 1. 0. 1. 0. 3. 1. 0. 0. 11. 0. 21.
      7. 4. 9. 0. 6. 1. 0. 1. 10. 1. 1. 0. 0. 2. 0. 10. 17. 7. 2. 0. 1.
      1. 0. 1. 1. 3. 0. 1. 0. 15. 0. 19. 7. 6. 9. 1. 4. 1. 0. 2. 12. 1.
      0. 1. 1. 5. 0. 9. 13. 8. 2. 0. 1. 1. 0. 0. 1. 2. 0. 0. 1. 7. 1.
      14. 11. 4. 3. 0. 0. 2. 0. 2. 3. 0. 0. 0. 0. 0. 0. 3. 0. 3. 0. 0.
      0. 0. 0. 0. 0. 2. 0. 0. 0. 6. 1. 8. 3. 5. 2. 1. 0. 2. 0. 1. 3. 0.
      0. 0. 0. 1. 0. 3. 5. 4. 0. 0. 0. 0. 0. 0. 0. 3. 0. 0. 0. 13. 1. 4.
      4. 9. 4. 0. 1. 0. 0. 3. 5. 0. 1. 0. 0. 0. 0. 5. 12. 2. 1. 1. 1. 0.
      0. 0. 0. 0. 1. 0. 0. 1. 1. 2. 6. 6. 1. 1. 2. 2. 1. 5. 7. 1. 0. 0.
      0. 1. 0. 1. 2. 0. 0. 0. 0. 0. 0. 0. 0. 3. 0. 0. 0. 5. 0. 0. 1. 7.
      2. 0. 1. 0. 2. 1. 0. 2. 0. 0. 0. 0. 0. 2. 6. 3. 1. 0. 0. 0. 1. 0.
      0. 4. 0. 0. 0. 5. 0. 3. 2. 4. 3. 3. 3. 1. 0. 3. 3. 1. 0. 1. 0. 1.
      0. 2. 4. 4. 0. 0. 0. 1. 2. 0. 0. 1. 0. 0. 0. 5. 0. 7. 2. 6. 4. 0.
      0. 1. 0. 0. 5. 2. 0. 0. 0. 1. 0. 11. 11. 3. 2. 0. 0. 0. 0. 0. 0.
      3. 0. 0. 0. 6. 0. 8. 8. 9. 2. 1. 1. 4. 0. 0. 5. 1. 0. 0. 0. 1. 0.
      0. 4. 0. 1. 0. 0. 0. 0. 0. 0. 0. 0. 0. 0. 2. 0. 2. 3. 5. 7. 1. 0.
      2. 1. 0. 0. 1. 0. 0. 0. 0. 1. 2. 4. 6. 1. 0. 0. 1. 0. 0. 1. 4. 1.
      0. 0. 3. 0. 1. 1. 9. 4. 0. 3. 1. 0. 1. 0. 0. 0. 0. 0. 0. 0. 3. 1.
      5. 2. 0. 0. 0. 0. 1. 0. 0. 0. 0. 0. 6. 0. 2. 4. 9. 4. 1. 2. 0. 0.
      0. 1. 0. 0. 0. 1. 1. 0. 4. 3. 4. 1. 0. 0. 1. 0. 0. 0. 1. 0. 0. 1.
      6. 0. 6. 3. 7. 7. 0. 2. 2. 0. 2. 6. 0. 0. 0. 0. 1. 0. 1. 4. 6. 0.
      0. 1. 0. 0. 0. 1. 2. 1. 0. 0. 5. 0. 0. 3.</_>
    <_>
      10. 3. 0. 2. 5. 1. 0. 5. 1. 0. 0. 1. 1. 1. 4. 10. 4. 0. 0. 0. 1.
      0. 0. 0. 2. 0. 0. 0. 4. 0. 2. 2. 12. 5. 0. 1. 4. 0. 2. 6. 0. 1. 0.
      1. 0. 0. 3. 8. 4. 1. 0. 0. 0. 0. 1. 0. 3. 0. 1. 0. 8. 1. 14. 2. 5.
      7. 3. 4. 1. 1. 0. 5. 0. 0. 0. 1. 1. 0. 7. 11. 3. 0. 1. 0. 1. 0. 1.
      0. 1. 0. 0. 0. 4. 0. 7. 6. 6. 3. 2. 2. 2. 0. 5. 8. 1. 0. 0. 0. 2.
      1. 6. 4. 3. 0. 0. 0. 0. 0. 0. 0. 0. 1. 0. 0. 9. 0. 14. 6. 8. 3. 0.
      2. 2. 0. 1. 4. 0. 0. 0. 0. 1. 1. 5. 5. 1. 0. 0. 0. 1. 0. 0. 0. 1.
      0. 0. 0. 4. 0. 0. 2. 10. 1. 0. 1. 2. 0. 0. 4. 3. 0. 1. 0. 1. 0. 0.
      2. 3. 0. 0. 0. 0. 0. 0. 0. 1. 0. 0. 0. 3. 0. 1. 3. 7. 0. 1. 2. 4.
      0. 2. 3. 1. 0. 0. 0. 0. 1. 0. 3. 0. 0. 0. 0. 0. 0. 0. 0. 2. 0. 0.
      0. 2. 0. 0. 0. 10. 0. 0. 2. 6. 1. 1. 2. 1. 0. 0. 0. 1. 0. 0. 1. 1.
      1. 0. 0. 0. 0. 0. 0. 6. 0. 0. 1. 2. 0. 3. 3. 12. 1. 0. 1. 4. 0. 1.
      7. 0. 1. 0. 0. 0. 0. 5. 10. 1. 0. 0. 0. 0. 0. 0. 0. 0. 0. 0. 0. 8.
      0. 1. 3. 11. 1. 1. 1. 3. 0. 2. 7. 1. 0. 1. 0. 5. 0. 2. 16. 2. 1.
      0. 0. 0. 0. 0. 0. 2. 0. 0. 1. 3. 0. 2. 3. 8. 1. 2. 0. 3. 0. 3. 5.
      2. 0. 0. 0. 4. 0. 2. 4. 1. 0. 0. 0. 0. 1. 0. 2. 2. 0. 0. 0. 6. 0.
      4. 0. 8. 2. 1. 0. 6. 0. 2. 3. 0. 0. 0. 0. 2. 0. 2. 3. 4. 0. 0. 0.
      0. 0. 1. 0. 2. 0. 0. 0. 5. 0. 0. 1. 4. 0. 0. 3. 4. 0. 1. 6. 0. 0.
      0. 0. 0. 1. 6. 17. 2. 0. 0. 0. 0. 0. 0. 0. 0. 0. 0. 0. 1. 0. 10.
      9. 8. 2. 0. 2. 1. 0. 2. 3. 1. 0. 0. 1. 1. 1. 1. 7. 1. 1. 0. 1. 0.
      0. 0. 0. 1. 0. 0. 0. 2. 1. 22. 4. 9. 0. 1. 3. 2. 0. 2. 4. 0. 0. 0.
      0. 1. 0. 1. 10. 2. 0. 0. 0. 0. 0. 0. 0. 3. 0. 0. 1. 3. 1. 18. 5.
      4. 2. 0. 2. 0. 0. 0. 6. 1. 0. 0. 0. 1. 1. 6. 6. 1. 0. 1. 0. 0. 0.
      0. 0. 1. 0. 0. 1. 6. 0. 4. 11.</_>
    <_>
      10. 7. 0. 3. 8. 2. 0. 4. 0. 0. 0. 0. 3. 1. 0. 1. 5. 3. 0. 2. 0. 0.
      0. 0. 2. 0. 0. 1. 1. 0. 0. 0. 14. 5. 1. 3. 5. 0. 5. 6. 0. 1. 0. 0.
      5. 0. 1. 7. 2. 0. 0. 1. 1. 0. 1. 0. 2. 2. 0. 2. 5. 0. 6. 5. 10. 4.
      2. 6. 4. 0. 5. 8. 2. 0. 0. 0. 1. 0. 5. 12. 1. 1. 0. 0. 0. 0. 3. 0.
      3. 0. 2. 1. 6. 0. 8. 8. 8. 3. 1. 5. 5. 1. 5. 7. 0. 0. 0. 0. 1. 2.
      2. 9. 3. 2. 0. 1. 1. 0. 1. 0. 4. 0. 0. 0. 0. 0. 11. 11. 8. 2. 0.
      1. 8. 0. 2. 4. 0. 0. 0. 0. 3. 0. 4. 4. 3. 1. 0. 0. 0. 0. 0. 0. 2.
      0. 0. 0. 6. 0. 3. 2. 8. 0. 1. 1. 10. 0. 2. 8. 0. 0. 0. 1. 2. 0. 0.
      0. 2. 0. 0. 0. 0. 0. 0. 0. 1. 0. 0. 0. 3. 0. 0. 1. 12. 0. 0. 4. 5.
      0. 2. 0. 0. 0. 0. 0. 1. 0. 2. 5. 1. 0. 0. 1. 1. 0. 0. 0. 1. 0. 0.
      0. 1. 0. 1. 1. 10. 3. 2. 1. 0. 0. 4. 5. 0. 0. 0. 1. 2. 0. 2. 10.
      2. 0. 0. 0. 3. 0. 1. 1. 2. 0. 0. 0. 4. 0. 3. 3. 10. 1. 0. 0. 8. 0.
      2. 2. 1. 0. 0. 0. 1. 0. 1. 1. 2. 0. 0. 0. 0. 0. 0. 0. 1. 0. 0. 0.
      5. 0. 1. 0. 9. 2. 2. 1. 3. 0. 1. 5. 0. 0. 0. 0. 0. 0. 2. 10. 1. 0.
      0. 0. 0. 0. 0. 0. 0. 0. 0. 1. 2. 0. 3. 5. 6. 3. 2. 2. 5. 0. 2. 3.
      1. 0. 0. 0. 0. 0. 0. 2. 2. 0. 0. 0. 1. 0. 0. 0. 1. 0. 1. 0. 4. 0.
      4. 3. 13. 2. 2. 0. 6. 0. 0. 4. 0. 0. 0. 0. 4. 0. 0. 0. 1. 0. 0. 0.
      0. 0. 0. 0. 2. 0. 1. 0. 2. 0. 2. 1. 6. 5. 2. 3. 0. 1. 1. 2. 1. 0.
      0. 0. 0. 1. 2. 8. 2. 1. 0. 0. 1. 0. 0. 0. 2. 1. 0. 1. 0. 0. 8. 5.
      9. 4. 0. 3. 0. 0. 1. 2. 2. 0. 0. 0. 1. 0. 0. 9. 2. 1. 0. 0. 2. 0.
      0. 0. 1. 0. 0. 0. 1. 2. 2. 5. 6. 4. 2. 2. 0. 0. 0. 1. 1. 0. 0. 0.
      1. 0. 2. 1. 4. 2. 0. 0. 1. 0. 0. 0. 0. 1. 0. 0. 3. 0. 7. 3. 6. 3.
      0. 1. 1. 1. 1. 2. 1. 1. 0. 0. 2. 0. 2. 13. 6. 3. 0. 0. 0. 0. 0. 1.
      6. 0. 0. 0. 1. 0. 18. 10.</_>
    <_>
      3. 0. 0. 1. 5. 0. 4. 10. 0. 0. 0. 0. 7. 0. 1. 3. 0. 0. 0. 0. 0. 0.
      0. 0. 0. 0. 0. 0. 9. 0. 0. 0. 3. 2. 0. 0. 3. 0. 3. 4. 0. 0. 0. 0.
      1. 0. 0. 0. 0. 0. 0. 0. 0. 0. 0. 0. 0. 0. 0. 0. 6. 0. 2. 1. 1. 0.
      0. 2. 7. 0. 2. 7. 0. 0. 0. 0. 2. 0. 3. 1. 0. 0. 0. 0. 0. 0. 0. 0.
      0. 1. 0. 0. 4. 0. 4. 1. 4. 0. 0. 2. 7. 0. 6. 9. 0. 0. 0. 0. 6. 0.
      1. 0. 1. 0. 0. 0. 0. 0. 0. 0. 2. 0. 0. 0. 8. 0. 1. 0. 4. 0. 0. 0.
      6. 0. 0. 3. 0. 0. 0. 0. 1. 0. 3. 6. 0. 0. 0. 0. 0. 0. 0. 0. 0. 0.
      0. 0. 6. 0. 2. 3. 3. 1. 0. 2. 3. 0. 4. 10. 0. 0. 0. 0. 3. 0. 7. 3.
      1. 0. 0. 0. 0. 0. 0. 0. 0. 0. 0. 0. 6. 0. 20. 9. 5. 0. 0. 0. 5. 0.
      0. 8. 0. 0. 0. 0. 0. 0. 6. 8. 0. 0. 0. 0. 0. 0. 0. 0. 2. 0. 0. 0.
      9. 0. 2. 6. 6. 0. 1. 0. 3. 1. 1. 4. 1. 0. 0. 0. 1. 0. 3. 8. 1. 0.
      0. 0. 0. 0. 1. 0. 0. 0. 1. 0. 7. 0. 8. 5. 2. 0. 0. 1. 6. 0. 1. 4.
      0. 0. 0. 0. 2. 0. 0. 0. 0. 0. 0. 1. 0. 0. 0. 0. 1. 0. 0. 0. 2. 1.
      2. 2. 3. 0. 1. 0. 1. 0. 2. 5. 0. 0. 0. 0. 0. 0. 3. 4. 1. 0. 0. 0.
      0. 0. 0. 0. 1. 0. 0. 0. 5. 0. 8. 3. 3. 0. 1. 2. 5. 0. 3. 1. 0. 0.
      0. 0. 4. 0. 0. 0. 0. 0. 0. 0. 0. 0. 0. 0. 0. 0. 0. 0. 3. 0. 0. 1.
      4. 0. 1. 0. 3. 0. 1. 0. 1. 0. 0. 0. 2. 1. 0. 0. 0. 0. 0. 0. 0. 0.
      0. 0. 1. 0. 0. 0. 4. 0. 1. 2. 2. 0. 1. 1. 2. 0. 3. 1. 1. 0. 0. 0.
      1. 0. 0. 0. 2. 1. 0. 0. 0. 0. 0. 0. 0. 0. 0. 0. 5. 0. 10. 3. 3. 0.
      0. 1. 0. 1. 1. 9. 1. 0. 0. 0. 6. 0. 4. 7. 1. 0. 0. 0. 0. 0. 0. 0.
      3. 0. 1. 0. 7. 0. 19. 12. 3. 1. 0. 0. 0. 0. 0. 4. 0. 0. 0. 0. 3.
      0. 0. 3. 0. 0. 0. 0. 0. 0. 0. 0. 0. 1. 0. 0. 1. 0. 1. 4. 4. 1. 0.
      0. 6. 0. 4. 6. 0. 0. 0. 0. 1. 0. 3. 4. 1. 0. 0. 0. 0. 0. 0. 0. 1.
      0. 0. 0. 4. 0. 8. 3.</_>
    <_>
      4. 0. 0. 0. 2. 1. 0. 8. 1. 0. 0. 0. 3. 0. 5. 17. 0. 0. 0. 0. 0. 0.
      0. 0. 3. 0. 1. 0. 8. 0. 12. 17. 9. 1. 1. 3. 7. 0. 3. 7. 0. 0. 0.
      0. 1. 0. 4. 2. 0. 0. 0. 1. 0. 0. 0. 0. 1. 0. 0. 0. 9. 0. 7. 3. 2.
      0. 1. 0. 2. 0. 4. 7. 0. 0. 0. 0. 1. 1. 5. 14. 1. 0. 0. 0. 1. 0. 0.
      0. 2. 0. 0. 0. 8. 0. 11. 10. 6. 3. 2. 2. 2. 0. 2. 2. 2. 0. 0. 0.
      2. 0. 2. 7. 2. 2. 0. 0. 1. 0. 1. 0. 5. 0. 0. 0. 2. 1. 13. 5. 3. 0.
      0. 0. 6. 0. 0. 6. 0. 0. 0. 0. 3. 0. 4. 4. 1. 0. 0. 0. 0. 0. 0. 0.
      3. 1. 0. 0. 4. 0. 4. 4. 9. 0. 2. 1. 6. 1. 0. 0. 1. 0. 0. 0. 4. 0.
      0. 5. 1. 0. 0. 0. 0. 0. 0. 0. 0. 0. 0. 1. 4. 0. 7. 5. 5. 3. 0. 1.
      5. 0. 3. 7. 0. 0. 0. 0. 2. 0. 4. 4. 2. 0. 0. 0. 0. 0. 0. 0. 2. 0.
      0. 0. 5. 0. 10. 2. 5. 1. 2. 0. 0. 0. 2. 5. 1. 0. 1. 1. 1. 0. 3. 0.
      0. 0. 0. 0. 2. 0. 0. 0. 1. 0. 0. 0. 5. 0. 6. 1. 8. 0. 0. 3. 7. 1.
      0. 3. 0. 0. 0. 0. 2. 0. 3. 7. 0. 0. 0. 0. 0. 0. 0. 0. 2. 0. 0. 0.
      7. 0. 1. 6. 8. 4. 2. 2. 4. 0. 1. 2. 0. 0. 0. 0. 0. 0. 1. 10. 3. 1.
      0. 0. 0. 0. 0. 0. 1. 0. 0. 0. 2. 0. 6. 4. 7. 1. 0. 1. 5. 0. 3. 5.
      0. 0. 0. 0. 2. 0. 1. 6. 2. 0. 0. 0. 0. 0. 0. 0. 0. 1. 0. 0. 4. 0.
      7. 3. 7. 0. 2. 2. 4. 1. 0. 10. 0. 0. 0. 0. 3. 0. 3. 23. 0. 0. 0.
      0. 0. 0. 0. 0. 4. 0. 0. 2. 8. 0. 2. 1. 6. 6. 1. 1. 1. 0. 2. 3. 0.
      0. 0. 0. 1. 0. 6. 21. 4. 0. 0. 1. 0. 0. 0. 1. 0. 0. 0. 0. 8. 0.
      10. 13. 7. 5. 2. 1. 2. 0. 1. 1. 0. 1. 0. 0. 0. 0. 11. 15. 1. 0. 0.
      1. 0. 0. 1. 0. 1. 0. 0. 0. 5. 2. 13. 20. 4. 0. 1. 2. 3. 0. 1. 6.
      0. 0. 0. 0. 1. 0. 2. 16. 2. 0. 0. 0. 1. 0. 0. 0. 2. 1. 0. 0. 4. 0.
      17. 10. 5. 1. 1. 0. 0. 0. 2. 1. 0. 0. 0. 0. 2. 0. 0. 12. 1. 0. 0.
      0. 0. 0. 0. 0. 3. 0. 0. 0. 6. 0. 14. 6.</_>
    <_>
      3. 3. 0. 4. 1. 0. 1. 6. 0. 0. 0. 0. 0. 0. 11. 23. 0. 1. 0. 1. 0.
      0. 0. 0. 2. 0. 0. 0. 13. 0. 18. 4. 3. 0. 1. 2. 4. 1. 4. 12. 0. 0.
      0. 0. 2. 0. 5. 10. 0. 0. 0. 0. 1. 0. 0. 0. 0. 1. 0. 1. 14. 0. 13.
      4. 6. 3. 3. 0. 1. 0. 0. 9. 1. 0. 0. 0. 0. 3. 5. 25. 1. 2. 0. 0. 1.
      0. 0. 0. 2. 0. 0. 0. 9. 0. 23. 1. 5. 2. 1. 1. 3. 2. 2. 9. 1. 2. 0.
      0. 0. 0. 7. 33. 1. 0. 0. 0. 2. 0. 2. 0. 0. 0. 0. 0. 11. 0. 32. 6.
      2. 3. 0. 4. 3. 0. 0. 9. 0. 0. 0. 0. 4. 0. 9. 16. 2. 0. 0. 0. 0. 0.
      0. 0. 3. 1. 0. 0. 7. 0. 14. 5. 6. 0. 0. 2. 2. 0. 3. 7. 0. 0. 0. 0.
      1. 0. 3. 5. 2. 1. 0. 0. 0. 0. 0. 0. 1. 0. 0. 0. 7. 0. 8. 5. 4. 0.
      1. 1. 1. 0. 1. 1. 1. 0. 0. 0. 1. 0. 0. 1. 1. 0. 0. 0. 0. 0. 0. 0.
      1. 0. 0. 1. 3. 0. 0. 2. 10. 0. 0. 1. 6. 0. 1. 0. 0. 0. 0. 0. 0. 0.
      0. 0. 1. 0. 0. 0. 0. 0. 0. 0. 0. 0. 0. 0. 5. 0. 5. 1. 3. 1. 0. 1.
      5. 0. 3. 7. 0. 0. 0. 0. 5. 0. 2. 1. 1. 0. 0. 0. 0. 0. 0. 0. 1. 0.
      0. 0. 11. 0. 10. 1. 4. 1. 0. 0. 4. 0. 1. 2. 1. 0. 0. 0. 0. 0. 2.
      3. 1. 0. 0. 0. 0. 0. 0. 0. 1. 0. 0. 0. 0. 1. 0. 2. 2. 0. 0. 2. 6.
      0. 6. 4. 0. 0. 0. 0. 1. 0. 1. 0. 0. 0. 0. 0. 0. 0. 0. 0. 0. 0. 0.
      0. 7. 0. 4. 1. 3. 0. 0. 0. 11. 0. 0. 0. 0. 0. 0. 0. 2. 0. 0. 0. 0.
      0. 0. 0. 0. 0. 0. 0. 1. 0. 0. 0. 3. 0. 0. 0. 7. 5. 1. 1. 0. 1. 1.
      3. 0. 0. 0. 0. 3. 0. 4. 8. 1. 1. 0. 0. 0. 0. 0. 0. 2. 0. 0. 0. 4.
      0. 8. 3. 2. 0. 2. 4. 4. 0. 2. 7. 0. 0. 0. 0. 0. 0. 2. 3. 0. 0. 0.
      0. 1. 0. 0. 0. 1. 0. 0. 0. 2. 0. 9. 2. 5. 0. 1. 1. 3. 0. 1. 0. 1.
      0. 0. 0. 2. 0. 0. 4. 3. 0. 1. 0. 0. 0. 0. 1. 2. 1. 0. 0. 4. 0. 5.
      4. 9. 2. 1. 1. 1. 0. 0. 0. 0. 0. 0. 0. 0. 1. 0. 7. 3. 1. 0. 1. 0.
      0. 1. 0. 0. 0. 0. 0. 2. 0. 15. 5.</_>
    <_>
      6. 1. 0. 2. 4. 2. 3. 15. 1. 0. 0. 2. 3. 0. 20. 32. 0. 0. 0. 1. 0.
      0. 1. 1. 6. 0. 0. 0. 15. 0. 20. 19. 5. 1. 2. 5. 4. 0. 1. 9. 0. 0.
      0. 0. 6. 0. 10. 35. 2. 0. 0. 0. 1. 0. 0. 0. 8. 1. 1. 0. 13. 1. 16.
      16. 4. 3. 3. 3. 1. 1. 6. 21. 1. 0. 0. 1. 3. 0. 18. 43. 1. 0. 0. 1.
      0. 0. 2. 2. 4. 1. 0. 0. 8. 1. 34. 25. 5. 2. 2. 7. 2. 1. 2. 13. 3.
      1. 0. 0. 5. 1. 14. 21. 0. 0. 0. 0. 1. 0. 0. 0. 2. 2. 0. 1. 19. 0.
      24. 15. 6. 1. 0. 0. 5. 0. 2. 4. 1. 0. 0. 0. 2. 0. 3. 3. 3. 0. 0.
      0. 0. 0. 0. 0. 2. 0. 0. 0. 5. 1. 2. 1. 9. 1. 0. 5. 1. 2. 2. 7. 1.
      1. 0. 1. 2. 1. 4. 8. 2. 1. 0. 1. 0. 0. 1. 0. 5. 0. 1. 1. 8. 2. 5.
      3. 5. 1. 0. 1. 5. 0. 1. 2. 0. 0. 0. 0. 3. 0. 1. 3. 1. 0. 0. 0. 0.
      0. 0. 0. 1. 1. 0. 0. 11. 0. 8. 2. 11. 0. 2. 0. 4. 0. 4. 4. 0. 0.
      0. 0. 3. 0. 0. 0. 1. 0. 0. 0. 2. 0. 0. 0. 2. 0. 0. 0. 7. 0. 7. 4.
      11. 1. 1. 1. 5. 1. 2. 1. 1. 0. 0. 0. 1. 0. 1. 0. 1. 0. 1. 0. 1. 0.
      0. 0. 3. 0. 0. 0. 2. 0. 4. 2. 9. 5. 0. 3. 2. 0. 0. 7. 1. 0. 0. 1.
      5. 1. 1. 3. 3. 0. 0. 0. 0. 0. 0. 0. 1. 0. 0. 0. 2. 0. 2. 1. 5. 2.
      1. 4. 3. 0. 1. 3. 2. 0. 0. 0. 1. 0. 1. 2. 0. 1. 0. 0. 0. 0. 0. 0.
      6. 0. 0. 0. 3. 0. 4. 0. 8. 1. 0. 2. 3. 0. 3. 4. 1. 0. 0. 0. 2. 0.
      3. 2. 3. 0. 0. 1. 1. 0. 0. 0. 3. 1. 0. 0. 3. 0. 5. 4. 10. 3. 0. 0.
      0. 0. 0. 1. 0. 0. 0. 0. 0. 0. 3. 2. 3. 1. 0. 0. 1. 0. 0. 0. 2. 0.
      0. 0. 6. 0. 4. 2. 6. 4. 0. 2. 1. 0. 0. 1. 0. 0. 0. 0. 0. 0. 2. 5.
      3. 2. 0. 0. 0. 0. 0. 0. 1. 0. 0. 0. 2. 0. 0. 2. 6. 3. 0. 2. 0. 0.
      3. 4. 1. 1. 0. 0. 0. 1. 3. 2. 6. 0. 0. 0. 0. 0. 0. 0. 1. 1. 0. 0.
      6. 0. 1. 1. 6. 2. 1. 0. 1. 0. 2. 0. 0. 0. 0. 0. 1. 0. 1. 1. 7. 0.
      0. 1. 0. 0. 0. 0. 4. 0. 0. 0. 6. 1. 4. 1.</_>
    <_>
      8. 2. 0. 1. 5. 0. 5. 8. 0. 0. 0. 0. 3. 0. 26. 19. 0. 0. 0. 0. 0.
      0. 0. 0. 2. 0. 0. 0. 9. 1. 43. 38. 7. 0. 0. 0. 4. 0. 4. 6. 0. 1.
      0. 0. 3. 0. 22. 24. 3. 0. 0. 1. 0. 0. 0. 0. 2. 0. 1. 1. 10. 0. 50.
      41. 10. 4. 2. 3. 2. 0. 4. 3. 0. 0. 0. 0. 3. 0. 6. 9. 1. 0. 0. 0.
      0. 0. 2. 2. 2. 0. 1. 1. 5. 0. 22. 13. 7. 3. 1. 1. 5. 0. 3. 4. 1.
      1. 1. 0. 3. 0. 5. 5. 2. 0. 0. 0. 0. 0. 0. 0. 3. 2. 0. 0. 4. 0. 8.
      7. 4. 0. 2. 0. 6. 1. 6. 1. 0. 0. 0. 0. 0. 0. 0. 1. 0. 0. 0. 0. 0.
      0. 0. 0. 0. 0. 0. 0. 3. 0. 0. 2. 11. 0. 0. 3. 7. 1. 2. 0. 1. 0. 0.
      0. 0. 0. 0. 1. 1. 0. 0. 0. 0. 0. 0. 0. 1. 0. 0. 0. 6. 0. 1. 0. 7.
      2. 3. 0. 6. 0. 1. 9. 0. 0. 0. 0. 3. 0. 7. 4. 2. 0. 0. 0. 1. 0. 0.
      1. 1. 1. 0. 0. 8. 0. 8. 2. 8. 2. 0. 3. 3. 0. 1. 4. 0. 1. 0. 0. 2.
      0. 4. 11. 0. 0. 0. 0. 0. 0. 1. 0. 0. 1. 0. 0. 9. 0. 9. 5. 9. 0. 0.
      2. 8. 0. 1. 3. 0. 0. 0. 0. 1. 0. 0. 0. 0. 0. 0. 0. 0. 0. 0. 0. 0.
      0. 0. 0. 2. 0. 2. 0. 5. 1. 0. 1. 6. 0. 2. 2. 0. 0. 0. 1. 1. 0. 1.
      3. 0. 0. 0. 0. 0. 0. 0. 0. 3. 0. 0. 0. 1. 0. 4. 0. 4. 0. 0. 1. 1.
      0. 6. 6. 1. 0. 0. 0. 1. 0. 5. 8. 1. 0. 0. 0. 0. 0. 0. 0. 0. 0. 0.
      0. 5. 0. 5. 5. 8. 0. 0. 0. 1. 0. 4. 7. 0. 0. 0. 1. 1. 0. 9. 10. 0.
      0. 0. 1. 0. 0. 0. 0. 2. 0. 0. 0. 8. 1. 12. 5. 11. 2. 0. 1. 8. 1.
      2. 5. 1. 0. 0. 0. 5. 0. 0. 0. 0. 0. 0. 0. 0. 0. 0. 0. 2. 0. 0. 0.
      1. 0. 0. 0. 8. 0. 2. 3. 7. 0. 1. 3. 1. 0. 0. 0. 1. 0. 1. 1. 1. 0.
      0. 0. 0. 0. 0. 0. 3. 0. 0. 0. 6. 0. 1. 3. 9. 1. 3. 2. 5. 0. 0. 4.
      1. 0. 0. 0. 2. 0. 1. 0. 0. 0. 0. 0. 2. 1. 0. 0. 3. 0. 0. 0. 4. 0.
      1. 0. 5. 1. 0. 0. 2. 1. 1. 1. 1. 0. 0. 0. 1. 0. 0. 6. 1. 0. 0. 0.
      0. 0. 0. 0. 0. 0. 0. 0. 1. 0. 7. 3.</_>
    <_>
      4. 4. 2. 3. 0. 0. 1. 5. 0. 1. 0. 0. 2. 1. 5. 13. 4. 5. 0. 0. 0. 0.
      0. 1. 1. 0. 0. 0. 5. 0. 5. 3. 5. 7. 1. 5. 0. 1. 1. 4. 1. 0. 0. 0.
      1. 0. 5. 12. 13. 5. 0. 1. 0. 0. 0. 0. 2. 1. 0. 0. 10. 0. 4. 3. 4.
      2. 0. 1. 0. 0. 1. 9. 0. 0. 0. 0. 0. 0. 7. 14. 9. 1. 0. 1. 0. 1. 0.
      0. 1. 1. 1. 1. 4. 0. 18. 15. 5. 4. 1. 0. 1. 0. 0. 3. 0. 1. 0. 0.
      0. 0. 3. 3. 1. 0. 0. 0. 0. 0. 1. 0. 1. 2. 0. 0. 0. 0. 9. 1. 5. 1.
      2. 0. 2. 1. 6. 10. 0. 0. 0. 0. 1. 0. 3. 13. 1. 0. 0. 1. 2. 0. 1.
      0. 2. 0. 0. 0. 10. 0. 6. 0. 7. 0. 0. 1. 4. 0. 1. 6. 1. 0. 0. 0. 3.
      1. 2. 1. 0. 0. 0. 0. 0. 1. 0. 0. 4. 0. 0. 0. 3. 0. 0. 1. 6. 6. 1.
      2. 1. 0. 1. 7. 1. 0. 0. 0. 2. 0. 6. 9. 0. 1. 0. 0. 0. 0. 0. 0. 4.
      0. 0. 0. 13. 1. 12. 5. 7. 2. 0. 1. 6. 0. 5. 7. 0. 0. 0. 0. 5. 0.
      5. 6. 1. 0. 0. 1. 1. 0. 0. 0. 3. 0. 1. 0. 11. 1. 9. 6. 4. 1. 0. 2.
      2. 0. 0. 7. 1. 0. 0. 0. 4. 0. 4. 1. 3. 0. 0. 0. 0. 0. 0. 0. 3. 0.
      0. 0. 5. 0. 7. 6. 6. 0. 0. 1. 6. 0. 0. 7. 1. 0. 0. 0. 3. 1. 3. 2.
      1. 0. 0. 0. 0. 0. 0. 0. 1. 0. 0. 1. 4. 0. 1. 2. 4. 0. 1. 0. 3. 1.
      2. 8. 4. 0. 0. 0. 0. 1. 0. 6. 2. 0. 0. 0. 0. 0. 0. 0. 1. 0. 0. 0.
      6. 0. 2. 0. 6. 0. 1. 0. 3. 1. 0. 4. 0. 0. 0. 0. 3. 0. 1. 4. 0. 0.
      0. 0. 0. 0. 0. 0. 2. 0. 0. 0. 5. 0. 0. 0. 5. 0. 0. 1. 3. 0. 4. 7.
      0. 0. 0. 0. 2. 0. 3. 4. 0. 0. 1. 0. 0. 0. 0. 0. 2. 0. 0. 0. 8. 0.
      6. 4. 4. 2. 0. 0. 4. 0. 3. 9. 0. 0. 0. 0. 4. 1. 7. 6. 1. 0. 0. 0.
      0. 0. 0. 0. 1. 0. 0. 0. 6. 0. 13. 4. 3. 1. 1. 2. 4. 0. 0. 5. 1. 0.
      0. 0. 1. 0. 3. 11. 0. 0. 0. 0. 2. 0. 0. 0. 1. 0. 0. 0. 2. 0. 5. 5.
      5. 0. 1. 3. 4. 0. 2. 9. 0. 0. 0. 0. 4. 1. 4. 7. 1. 0. 0. 0. 0. 0.
      0. 0. 0. 0. 0. 0. 7. 0. 3. 3.</_>
    <_>
      1. 0. 1. 0. 2. 0. 5. 6. 0. 0. 0. 0. 2. 0. 3. 0. 0. 0. 0. 0. 0. 0.
      0. 0. 3. 0. 0. 0. 14. 0. 9. 1. 6. 3. 0. 1. 1. 0. 2. 8. 0. 0. 0. 0.
      5. 0. 6. 9. 3. 0. 0. 0. 0. 0. 1. 0. 2. 0. 0. 0. 4. 0. 8. 5. 3. 0.
      1. 2. 0. 0. 7. 2. 0. 0. 0. 0. 0. 1. 2. 2. 0. 0. 1. 0. 0. 0. 1. 0.
      2. 0. 2. 0. 7. 0. 15. 6. 3. 0. 2. 1. 1. 0. 7. 4. 2. 0. 0. 0. 0. 0.
      5. 1. 2. 0. 0. 1. 0. 1. 0. 0. 0. 0. 0. 0. 11. 1. 9. 2. 4. 0. 0. 0.
      2. 0. 0. 5. 1. 0. 0. 0. 2. 0. 2. 1. 1. 0. 0. 0. 0. 0. 0. 0. 0. 0.
      0. 0. 3. 1. 1. 1. 7. 0. 0. 2. 8. 0. 4. 5. 1. 0. 0. 0. 2. 0. 1. 2.
      0. 0. 0. 0. 1. 0. 0. 0. 2. 0. 0. 1. 5. 1. 1. 0. 5. 2. 2. 1. 4. 0.
      4. 2. 0. 0. 0. 0. 3. 0. 1. 0. 0. 0. 0. 0. 1. 0. 1. 0. 3. 0. 0. 0.
      12. 0. 6. 1. 6. 1. 0. 0. 4. 0. 3. 3. 0. 0. 0. 0. 3. 0. 2. 1. 1. 0.
      0. 0. 0. 0. 0. 0. 2. 0. 0. 0. 10. 0. 2. 3. 6. 0. 0. 1. 5. 0. 0. 1.
      1. 0. 0. 0. 1. 0. 0. 1. 0. 0. 0. 0. 0. 0. 0. 0. 0. 0. 0. 0. 2. 0.
      0. 0. 5. 2. 1. 4. 1. 0. 3. 4. 0. 0. 0. 0. 2. 0. 2. 2. 3. 0. 0. 0.
      0. 0. 0. 0. 2. 1. 0. 0. 10. 0. 4. 2. 7. 0. 1. 4. 5. 0. 4. 5. 0. 1.
      0. 0. 3. 0. 0. 1. 1. 0. 0. 1. 1. 0. 0. 0. 2. 1. 0. 0. 4. 0. 6. 1.
      6. 1. 0. 4. 5. 0. 1. 3. 0. 0. 0. 0. 3. 0. 2. 1. 0. 0. 1. 0. 1. 1.
      1. 0. 3. 0. 0. 0. 4. 0. 0. 1. 7. 0. 0. 1. 3. 0. 0. 2. 0. 0. 0. 0.
      2. 0. 0. 0. 1. 0. 0. 0. 0. 0. 0. 0. 1. 0. 0. 0. 3. 0. 4. 0. 7. 2.
      0. 2. 3. 0. 1. 4. 0. 0. 0. 0. 0. 0. 3. 2. 1. 0. 0. 0. 0. 0. 0. 0.
      5. 0. 0. 0. 10. 0. 6. 1. 8. 4. 1. 1. 2. 0. 1. 1. 0. 0. 0. 0. 2. 0.
      3. 4. 1. 1. 0. 0. 1. 0. 0. 0. 2. 0. 0. 0. 2. 0. 3. 5. 6. 0. 0. 1.
      2. 0. 0. 3. 0. 0. 0. 0. 3. 0. 0. 5. 0. 1. 0. 0. 0. 0. 0. 0. 4. 0.
      0. 0. 3. 0. 0. 2.</_>
    <_>
      6. 0. 0. 0. 3. 1. 1. 2. 5. 0. 1. 0. 3. 1. 15. 10. 3. 3. 1. 1. 0.
      1. 0. 0. 3. 0. 0. 0. 2. 1. 13. 22. 8. 1. 6. 0. 4. 0. 0. 1. 3. 2.
      2. 1. 1. 2. 18. 6. 0. 2. 0. 0. 0. 0. 0. 2. 3. 1. 0. 0. 7. 3. 12.
      27. 14. 2. 3. 0. 1. 0. 5. 3. 1. 0. 2. 2. 2. 4. 13. 14. 0. 0. 2. 0.
      1. 0. 0. 3. 1. 1. 3. 2. 1. 2. 12. 22. 9. 2. 2. 3. 3. 1. 4. 4. 2.
      3. 3. 2. 3. 1. 6. 17. 0. 1. 1. 0. 2. 2. 0. 1. 5. 1. 1. 0. 2. 0.
      14. 13. 8. 0. 0. 1. 7. 1. 0. 5. 0. 0. 0. 0. 2. 0. 1. 5. 1. 1. 0.
      0. 0. 0. 0. 0. 3. 0. 0. 0. 5. 0. 1. 0. 13. 0. 3. 1. 2. 2. 1. 4. 1.
      0. 0. 1. 1. 0. 3. 6. 1. 0. 0. 0. 0. 0. 0. 0. 1. 0. 0. 0. 3. 0. 3.
      4. 12. 3. 1. 0. 5. 1. 1. 3. 3. 2. 0. 1. 1. 0. 3. 4. 1. 2. 2. 0. 0.
      0. 1. 0. 3. 0. 0. 1. 7. 0. 4. 3. 12. 0. 1. 1. 4. 0. 1. 3. 1. 2. 0.
      0. 1. 0. 2. 2. 1. 0. 2. 0. 0. 0. 1. 0. 1. 0. 0. 0. 4. 0. 3. 2. 8.
      1. 2. 1. 2. 0. 3. 0. 0. 0. 0. 0. 0. 0. 1. 0. 0. 0. 0. 0. 0. 0. 1.
      1. 2. 0. 0. 0. 10. 0. 10. 2. 13. 3. 3. 0. 3. 0. 0. 0. 1. 1. 1. 0.
      1. 0. 1. 1. 2. 0. 0. 0. 0. 1. 1. 3. 1. 1. 0. 0. 4. 0. 2. 3. 11. 1.
      4. 0. 5. 0. 0. 3. 1. 0. 1. 0. 0. 0. 0. 5. 0. 0. 0. 0. 0. 0. 0. 0.
      1. 0. 0. 0. 4. 0. 4. 1. 13. 0. 0. 0. 7. 0. 0. 0. 0. 1. 0. 1. 2. 0.
      0. 0. 1. 0. 0. 0. 1. 0. 0. 0. 3. 0. 0. 0. 1. 0. 0. 1. 10. 2. 2. 1.
      3. 0. 1. 5. 2. 0. 2. 0. 3. 0. 4. 3. 2. 0. 0. 0. 0. 0. 0. 1. 2. 0.
      0. 0. 6. 0. 8. 11. 11. 1. 0. 0. 0. 0. 0. 1. 2. 0. 0. 0. 0. 0. 10.
      11. 4. 1. 1. 0. 2. 0. 0. 1. 0. 0. 0. 0. 4. 0. 8. 14. 8. 1. 0. 0.
      2. 0. 0. 0. 2. 0. 0. 0. 1. 1. 1. 22. 1. 0. 0. 0. 0. 0. 0. 0. 2. 0.
      0. 0. 1. 0. 20. 8. 9. 3. 0. 2. 0. 1. 0. 0. 0. 0. 1. 0. 0. 0. 4. 9.
      2. 0. 0. 0. 1. 0. 0. 0. 2. 0. 0. 1. 4. 1. 11. 7.</_>
    <_>
      3. 0. 0. 5. 0. 1. 4. 13. 0. 0. 0. 1. 3. 1. 24. 34. 1. 1. 0. 1. 0.
      0. 0. 0. 2. 0. 1. 0. 4. 0. 65. 43. 7. 1. 0. 1. 2. 0. 2. 4. 1. 0.
      0. 0. 3. 0. 19. 24. 2. 1. 0. 0. 0. 0. 0. 1. 2. 0. 0. 0. 16. 1. 71.
      38. 5. 4. 0. 1. 0. 0. 3. 9. 3. 0. 0. 0. 0. 0. 19. 22. 4. 0. 1. 0.
      0. 0. 0. 1. 5. 0. 0. 1. 4. 1. 46. 33. 5. 2. 1. 2. 2. 1. 1. 7. 0.
      0. 0. 0. 2. 0. 4. 16. 0. 0. 0. 1. 0. 0. 0. 0. 5. 0. 0. 1. 6. 1.
      10. 7. 8. 1. 0. 3. 6. 0. 0. 6. 0. 0. 0. 0. 5. 0. 1. 4. 2. 0. 0. 0.
      0. 0. 1. 0. 1. 0. 0. 0. 5. 0. 0. 0. 3. 0. 0. 1. 6. 0. 3. 6. 1. 0.
      0. 0. 2. 0. 4. 1. 2. 0. 0. 0. 1. 0. 0. 0. 2. 0. 0. 0. 8. 0. 5. 2.
      7. 1. 0. 0. 5. 1. 1. 10. 1. 0. 0. 1. 2. 0. 4. 10. 0. 0. 1. 0. 2.
      0. 1. 0. 1. 0. 0. 0. 6. 0. 9. 5. 7. 2. 0. 3. 1. 0. 3. 11. 1. 0. 0.
      0. 1. 0. 3. 10. 2. 0. 0. 0. 0. 0. 0. 0. 0. 0. 2. 0. 4. 0. 6. 7. 5.
      2. 0. 2. 6. 0. 3. 8. 0. 0. 0. 0. 4. 0. 4. 1. 1. 0. 0. 0. 0. 0. 0.
      0. 1. 0. 0. 0. 4. 0. 2. 3. 10. 0. 0. 2. 3. 0. 1. 5. 0. 0. 0. 0. 1.
      0. 4. 2. 0. 0. 0. 0. 0. 0. 0. 0. 1. 0. 0. 0. 2. 0. 5. 0. 13. 1. 2.
      2. 4. 0. 1. 0. 0. 0. 0. 0. 3. 0. 3. 2. 1. 1. 0. 0. 0. 1. 0. 1. 2.
      0. 1. 0. 6. 0. 9. 3. 4. 3. 2. 2. 3. 0. 1. 8. 0. 0. 0. 1. 1. 0. 1.
      4. 0. 0. 0. 0. 1. 0. 0. 0. 0. 0. 0. 0. 4. 0. 0. 1. 7. 0. 0. 1. 7.
      0. 4. 7. 0. 0. 0. 0. 2. 0. 3. 2. 0. 0. 0. 0. 0. 0. 0. 0. 0. 0. 0.
      0. 5. 0. 1. 1. 4. 0. 0. 2. 8. 0. 7. 4. 1. 0. 0. 0. 1. 0. 1. 1. 0.
      0. 0. 0. 0. 0. 0. 0. 2. 0. 0. 0. 9. 1. 2. 3. 8. 2. 2. 1. 4. 0. 3.
      0. 0. 1. 0. 0. 2. 0. 0. 0. 3. 0. 1. 0. 0. 0. 0. 0. 0. 0. 0. 0. 1.
      0. 0. 1. 4. 2. 1. 3. 2. 0. 3. 1. 0. 0. 0. 0. 2. 0. 1. 5. 2. 1. 0.
      0. 0. 0. 0. 0. 1. 0. 0. 0. 4. 0. 5. 2.</_>
    <_>
      4. 1. 1. 0. 5. 0. 3. 8. 0. 0. 0. 0. 3. 0. 4. 2. 0. 0. 1. 0. 0. 0.
      0. 0. 0. 0. 0. 0. 12. 0. 11. 2. 3. 0. 0. 0. 8. 0. 3. 7. 0. 0. 0.
      0. 4. 0. 8. 9. 0. 0. 0. 0. 1. 0. 0. 0. 1. 0. 0. 0. 3. 0. 9. 14. 3.
      0. 0. 3. 3. 0. 9. 11. 0. 0. 0. 0. 4. 0. 5. 3. 0. 0. 0. 0. 0. 0. 0.
      0. 0. 0. 0. 0. 7. 0. 4. 0. 4. 0. 1. 3. 3. 0. 4. 2. 0. 0. 0. 0. 0.
      0. 11. 9. 1. 0. 0. 0. 0. 0. 1. 0. 1. 0. 0. 0. 12. 0. 17. 11. 12.
      0. 1. 0. 5. 0. 1. 3. 1. 0. 0. 0. 3. 0. 1. 5. 0. 0. 0. 0. 2. 0. 1.
      0. 0. 0. 0. 0. 6. 0. 4. 1. 7. 0. 0. 0. 7. 1. 4. 4. 1. 1. 0. 0. 1.
      0. 2. 0. 1. 0. 0. 0. 0. 0. 0. 0. 0. 0. 0. 0. 4. 0. 2. 2. 4. 0. 0.
      0. 4. 0. 0. 3. 1. 0. 0. 0. 2. 0. 0. 0. 0. 0. 0. 0. 0. 0. 0. 0. 0.
      0. 0. 0. 0. 0. 0. 0. 6. 3. 0. 0. 3. 0. 5. 1. 0. 0. 0. 0. 1. 0. 4.
      2. 1. 0. 0. 0. 0. 0. 0. 0. 1. 0. 0. 0. 2. 0. 4. 1. 4. 1. 0. 0. 6.
      0. 3. 0. 0. 0. 0. 0. 2. 0. 0. 0. 1. 0. 0. 0. 0. 0. 0. 0. 1. 0. 0.
      0. 1. 0. 0. 3. 5. 0. 0. 2. 5. 0. 8. 4. 0. 0. 0. 0. 3. 0. 0. 0. 0.
      0. 0. 0. 0. 0. 0. 0. 1. 0. 0. 0. 7. 0. 2. 2. 4. 0. 0. 0. 1. 0. 0.
      7. 0. 0. 0. 0. 2. 0. 7. 1. 0. 0. 0. 0. 0. 0. 0. 0. 0. 1. 0. 0. 7.
      0. 8. 2. 4. 0. 0. 0. 5. 0. 3. 7. 0. 0. 0. 0. 1. 0. 10. 3. 0. 0. 0.
      1. 0. 0. 0. 0. 1. 0. 1. 0. 12. 0. 18. 6. 6. 0. 0. 0. 4. 0. 4. 3.
      0. 0. 0. 0. 4. 0. 0. 2. 0. 0. 0. 0. 0. 0. 0. 0. 0. 0. 0. 0. 4. 0.
      1. 0. 6. 0. 0. 0. 8. 0. 1. 4. 0. 0. 0. 0. 0. 0. 1. 0. 0. 0. 0. 0.
      0. 0. 0. 0. 0. 0. 0. 0. 1. 0. 0. 1. 4. 1. 0. 0. 6. 0. 0. 4. 2. 0.
      0. 0. 2. 0. 0. 0. 1. 0. 0. 0. 0. 0. 0. 0. 0. 0. 0. 0. 2. 0. 1. 0.
      4. 0. 0. 0. 3. 0. 0. 0. 0. 0. 0. 0. 0. 0. 0. 0. 1. 0. 0. 0. 0. 0.
      0. 0. 0. 0. 0. 0. 0. 0. 0. 0.</_>
    <_>
      6. 5. 0. 0. 0. 0. 0. 0. 0. 0. 0. 0. 0. 0. 10. 16. 13. 8. 0. 0. 0.
      0. 0. 0. 0. 0. 0. 0. 3. 0. 22. 13. 9. 13. 0. 0. 0. 1. 0. 0. 0. 0.
      0. 0. 0. 1. 6. 25. 18. 12. 1. 0. 0. 0. 0. 0. 0. 0. 0. 0. 0. 0. 4.
      8. 9. 16. 0. 0. 0. 0. 0. 0. 0. 0. 0. 0. 0. 0. 3. 7. 19. 20. 1. 0.
      0. 0. 0. 0. 0. 0. 0. 0. 0. 0. 37. 8. 7. 9. 0. 2. 0. 0. 0. 0. 0. 0.
      0. 0. 0. 0. 6. 15. 9. 11. 0. 0. 0. 0. 0. 0. 0. 0. 0. 0. 0. 0. 6.
      7. 5. 0. 0. 1. 2. 0. 5. 14. 0. 0. 1. 0. 1. 0. 7. 15. 1. 1. 0. 0.
      0. 0. 0. 0. 2. 0. 0. 0. 12. 1. 9. 6. 6. 1. 0. 2. 1. 1. 4. 2. 1. 1.
      0. 0. 1. 1. 12. 21. 4. 0. 1. 0. 1. 0. 0. 1. 2. 0. 0. 2. 13. 0. 40.
      13. 6. 5. 1. 3. 0. 1. 0. 7. 0. 0. 0. 0. 1. 0. 11. 17. 5. 3. 1. 1.
      1. 0. 1. 0. 2. 1. 0. 0. 5. 0. 15. 15. 4. 1. 0. 3. 2. 0. 4. 11. 1.
      1. 0. 0. 0. 1. 14. 9. 3. 1. 0. 0. 1. 0. 0. 0. 3. 0. 0. 1. 8. 1.
      23. 6. 8. 0. 2. 2. 2. 0. 0. 5. 1. 0. 0. 0. 0. 0. 2. 5. 4. 0. 0. 0.
      2. 0. 1. 0. 4. 1. 0. 0. 4. 0. 4. 0. 7. 1. 1. 1. 2. 0. 1. 5. 2. 0.
      0. 0. 2. 0. 3. 2. 0. 0. 0. 0. 0. 0. 0. 0. 1. 0. 0. 0. 7. 1. 2. 0.
      11. 0. 0. 2. 2. 2. 1. 6. 0. 1. 0. 0. 0. 3. 1. 14. 1. 0. 1. 1. 0.
      0. 1. 0. 0. 0. 0. 0. 3. 0. 1. 2. 10. 3. 0. 2. 4. 0. 1. 5. 1. 1. 0.
      0. 0. 2. 1. 6. 1. 1. 0. 0. 0. 0. 1. 0. 0. 0. 0. 0. 2. 0. 1. 1. 6.
      2. 1. 0. 2. 0. 1. 2. 1. 0. 0. 0. 2. 0. 1. 2. 2. 1. 0. 0. 0. 0. 0.
      0. 3. 0. 0. 0. 2. 0. 1. 3. 9. 5. 1. 1. 0. 0. 0. 3. 0. 0. 0. 0. 1.
      1. 4. 3. 1. 2. 0. 0. 1. 0. 0. 0. 4. 0. 0. 0. 4. 0. 5. 0. 12. 1. 1.
      0. 1. 0. 0. 6. 1. 0. 0. 0. 1. 1. 1. 5. 4. 4. 0. 0. 0. 0. 0. 0. 2.
      0. 0. 0. 6. 0. 6. 2. 9. 1. 0. 1. 2. 0. 0. 3. 0. 0. 0. 0. 1. 0. 1.
      2. 2. 2. 0. 0. 0. 0. 0. 0. 1. 1. 0. 0. 0. 0. 4. 2.</_>
    <_>
      4. 1. 0. 1. 3. 1. 2. 13. 1. 0. 0. 0. 0. 0. 7. 7. 0. 0. 0. 0. 0. 0.
      0. 1. 0. 0. 0. 0. 12. 0. 15. 1. 3. 3. 1. 4. 3. 1. 4. 4. 1. 0. 1.
      1. 4. 0. 9. 18. 2. 0. 0. 0. 0. 0. 0. 0. 0. 0. 0. 0. 8. 0. 5. 8.
      11. 2. 1. 0. 1. 0. 1. 12. 0. 1. 0. 0. 1. 0. 10. 11. 7. 1. 0. 0. 0.
      0. 1. 0. 4. 2. 0. 0. 6. 2. 12. 7. 11. 5. 0. 2. 0. 2. 3. 10. 1. 1.
      0. 0. 0. 2. 3. 20. 2. 2. 1. 0. 1. 0. 2. 0. 0. 0. 0. 0. 4. 0. 13.
      1. 11. 4. 0. 2. 2. 1. 3. 5. 0. 0. 0. 0. 1. 0. 2. 7. 4. 0. 0. 0. 0.
      0. 0. 0. 2. 1. 1. 0. 5. 0. 7. 0. 9. 2. 2. 4. 6. 0. 1. 1. 3. 0. 0.
      0. 0. 0. 3. 0. 1. 0. 0. 1. 0. 0. 0. 1. 4. 0. 0. 0. 5. 1. 6. 0. 7.
      1. 2. 1. 2. 0. 1. 2. 1. 0. 0. 0. 2. 1. 0. 4. 1. 0. 0. 0. 0. 0. 0.
      0. 1. 1. 0. 0. 6. 0. 5. 1. 6. 1. 1. 1. 5. 1. 2. 0. 0. 0. 0. 2. 1.
      0. 2. 3. 1. 1. 0. 0. 1. 0. 1. 1. 0. 0. 0. 0. 2. 0. 3. 7. 6. 2. 2.
      1. 5. 0. 5. 7. 3. 0. 0. 0. 1. 0. 2. 3. 0. 0. 0. 0. 1. 0. 0. 0. 0.
      0. 0. 1. 7. 0. 0. 2. 8. 0. 1. 2. 5. 0. 1. 5. 1. 0. 0. 0. 2. 2. 2.
      0. 2. 0. 0. 0. 0. 0. 0. 0. 2. 1. 0. 0. 7. 0. 2. 0. 9. 1. 2. 2. 3.
      1. 1. 6. 0. 0. 0. 0. 1. 1. 3. 8. 2. 2. 0. 0. 1. 0. 1. 0. 1. 0. 0.
      0. 5. 0. 2. 1. 10. 0. 3. 2. 7. 0. 2. 0. 0. 0. 0. 0. 3. 0. 1. 1. 0.
      0. 0. 0. 0. 0. 0. 0. 0. 0. 0. 0. 3. 0. 2. 1. 10. 1. 2. 4. 2. 1. 3.
      5. 0. 1. 0. 1. 1. 0. 8. 18. 2. 2. 0. 0. 1. 0. 0. 0. 0. 0. 0. 1. 7.
      0. 13. 9. 9. 4. 2. 3. 1. 0. 0. 3. 2. 1. 0. 0. 1. 2. 4. 13. 9. 2.
      0. 2. 0. 0. 0. 0. 4. 0. 0. 0. 1. 0. 13. 6. 7. 6. 0. 4. 2. 1. 2. 4.
      0. 0. 0. 0. 1. 1. 4. 14. 3. 3. 0. 0. 0. 0. 1. 0. 2. 0. 0. 1. 2. 0.
      13. 7. 4. 8. 0. 1. 1. 0. 1. 3. 3. 1. 0. 0. 1. 0. 8. 12. 6. 0. 0.
      0. 0. 0. 1. 0. 2. 0. 0. 0. 1. 2. 25. 12.</_>
    <_>
      9. 0. 4. 0. 5. 1. 3. 6. 1. 1. 0. 0. 5. 0. 9. 15. 0. 0. 0. 1. 2. 0.
      2. 0. 4. 0. 1. 0. 13. 1. 12. 7. 7. 2. 3. 3. 7. 0. 4. 9. 2. 0. 0.
      0. 4. 0. 9. 14. 0. 1. 1. 0. 1. 0. 2. 0. 3. 1. 1. 1. 9. 0. 21. 3.
      5. 2. 1. 1. 3. 1. 5. 16. 4. 0. 0. 1. 6. 0. 8. 6. 0. 0. 1. 0. 0. 0.
      1. 0. 7. 0. 0. 0. 11. 0. 6. 6. 6. 2. 0. 1. 8. 0. 5. 16. 0. 1. 0.
      0. 9. 2. 2. 7. 3. 1. 0. 0. 0. 0. 3. 0. 1. 0. 0. 0. 5. 0. 6. 2. 10.
      2. 0. 1. 5. 0. 0. 4. 0. 0. 0. 0. 6. 1. 1. 4. 2. 0. 0. 0. 1. 0. 0.
      0. 2. 0. 0. 0. 5. 0. 0. 2. 14. 0. 0. 0. 7. 2. 0. 2. 2. 1. 0. 0. 0.
      0. 1. 5. 2. 1. 0. 0. 0. 0. 0. 1. 2. 0. 0. 0. 3. 0. 4. 5. 6. 0. 0.
      0. 9. 0. 3. 10. 3. 0. 0. 0. 3. 1. 9. 20. 1. 0. 1. 0. 1. 0. 0. 0.
      2. 0. 0. 2. 12. 0. 6. 2. 5. 0. 0. 1. 14. 0. 1. 9. 0. 0. 0. 0. 4.
      0. 1. 5. 0. 0. 0. 0. 0. 0. 0. 1. 3. 0. 0. 0. 9. 1. 3. 3. 8. 0. 0.
      1. 12. 0. 4. 2. 1. 0. 0. 0. 0. 1. 0. 3. 1. 0. 0. 0. 0. 0. 0. 0. 0.
      0. 0. 0. 6. 0. 3. 2. 14. 1. 0. 2. 4. 0. 1. 1. 0. 0. 0. 1. 0. 0. 0.
      2. 0. 0. 0. 0. 0. 0. 0. 0. 0. 0. 0. 0. 2. 0. 4. 4. 6. 1. 1. 0. 3.
      0. 0. 4. 3. 0. 0. 0. 1. 0. 1. 2. 1. 0. 1. 0. 0. 0. 0. 0. 1. 0. 0.
      0. 3. 1. 2. 2. 8. 1. 0. 1. 9. 1. 5. 1. 2. 0. 0. 1. 4. 0. 0. 3. 4.
      1. 0. 1. 0. 0. 1. 0. 2. 0. 0. 0. 4. 0. 4. 0. 7. 6. 0. 1. 1. 0. 0.
      4. 1. 0. 0. 0. 2. 0. 6. 6. 2. 2. 1. 0. 0. 0. 0. 1. 4. 0. 0. 1. 5.
      0. 13. 10. 9. 6. 0. 0. 0. 0. 1. 2. 0. 0. 0. 0. 4. 0. 12. 9. 11. 5.
      0. 0. 1. 0. 0. 1. 2. 0. 0. 0. 2. 0. 18. 17. 8. 3. 0. 2. 2. 0. 1.
      5. 1. 1. 0. 0. 1. 0. 10. 12. 4. 2. 0. 1. 0. 0. 0. 0. 2. 0. 0. 1.
      4. 2. 18. 10. 7. 1. 0. 1. 2. 0. 2. 1. 0. 0. 0. 0. 2. 1. 13. 13. 2.
      1. 0. 0. 1. 0. 1. 1. 0. 0. 0. 1. 2. 2. 7. 12.</_>
    <_>
      6. 0. 0. 1. 10. 0. 5. 10. 0. 0. 0. 0. 3. 0. 3. 3. 0. 0. 0. 0. 0.
      0. 0. 0. 0. 0. 0. 1. 14. 0. 3. 1. 5. 0. 0. 1. 10. 1. 4. 11. 0. 0.
      0. 0. 4. 0. 2. 0. 0. 0. 0. 0. 0. 0. 0. 0. 1. 0. 0. 0. 12. 0. 0. 0.
      5. 1. 1. 2. 4. 0. 9. 3. 0. 0. 1. 0. 1. 0. 0. 1. 1. 0. 0. 0. 0. 0.
      0. 0. 1. 0. 0. 1. 15. 1. 10. 4. 6. 1. 0. 1. 9. 0. 8. 9. 0. 0. 0.
      0. 5. 0. 2. 1. 0. 0. 0. 1. 0. 0. 0. 0. 2. 0. 0. 0. 11. 0. 4. 2. 6.
      0. 0. 1. 12. 0. 2. 7. 1. 0. 0. 0. 3. 0. 4. 2. 0. 1. 0. 0. 0. 0. 0.
      0. 1. 0. 0. 1. 3. 0. 4. 4. 5. 0. 0. 0. 1. 0. 3. 3. 0. 0. 0. 0. 0.
      0. 2. 1. 0. 0. 0. 0. 0. 0. 0. 0. 1. 0. 0. 0. 7. 0. 1. 0. 8. 0. 1.
      1. 2. 0. 7. 9. 0. 0. 0. 0. 5. 1. 0. 4. 1. 0. 0. 0. 1. 0. 0. 0. 0.
      0. 0. 0. 6. 0. 3. 0. 7. 0. 1. 0. 4. 0. 0. 9. 1. 0. 0. 1. 3. 1. 4.
      13. 1. 0. 0. 0. 1. 0. 1. 0. 0. 0. 0. 0. 4. 0. 0. 5. 5. 0. 0. 1. 5.
      0. 0. 2. 0. 0. 0. 0. 3. 0. 1. 0. 0. 0. 0. 0. 0. 0. 0. 0. 2. 0. 0.
      0. 2. 0. 0. 0. 8. 1. 0. 0. 5. 0. 2. 3. 1. 0. 0. 0. 1. 0. 0. 0. 0.
      0. 0. 0. 1. 0. 0. 0. 0. 0. 0. 0. 2. 0. 0. 0. 3. 0. 2. 2. 5. 0. 3.
      5. 0. 0. 0. 0. 3. 0. 2. 0. 1. 0. 0. 0. 0. 0. 0. 0. 0. 0. 0. 0. 11.
      0. 1. 1. 5. 0. 0. 0. 7. 0. 2. 4. 0. 0. 0. 0. 3. 0. 1. 0. 0. 0. 0.
      0. 0. 0. 0. 0. 1. 0. 0. 0. 2. 0. 2. 2. 6. 1. 0. 0. 3. 1. 0. 3. 1.
      0. 0. 0. 4. 0. 1. 2. 1. 0. 0. 0. 0. 0. 0. 0. 2. 0. 0. 0. 0. 1. 0.
      1. 2. 0. 0. 0. 4. 0. 1. 2. 0. 0. 0. 0. 2. 0. 0. 0. 1. 0. 0. 0. 0.
      0. 0. 0. 1. 0. 0. 0. 2. 0. 0. 0. 3. 1. 0. 0. 0. 0. 0. 2. 0. 0. 0.
      0. 0. 0. 0. 6. 1. 0. 0. 0. 0. 0. 0. 0. 1. 0. 0. 0. 1. 0. 5. 5. 3.
      0. 0. 0. 1. 0. 1. 1. 0. 0. 0. 1. 1. 0. 3. 2. 0. 0. 0. 0. 0. 0. 0.
      0. 1. 0. 0. 0. 2. 0. 3. 5.</_>
    <_>
      2. 2. 2. 3. 3. 0. 4. 9. 0. 0. 0. 0. 1. 0. 3. 3. 2. 0. 0. 0. 1. 0.
      0. 0. 1. 0. 0. 0. 6. 0. 8. 2. 2. 3. 0. 2. 1. 0. 2. 3. 0. 0. 0. 0.
      2. 0. 3. 10. 7. 0. 0. 1. 0. 0. 0. 0. 2. 1. 0. 1. 7. 0. 18. 6. 4.
      0. 1. 4. 3. 0. 2. 11. 0. 0. 0. 0. 3. 0. 4. 6. 1. 1. 0. 0. 1. 0. 0.
      0. 5. 0. 0. 0. 9. 0. 15. 1. 5. 0. 2. 1. 1. 0. 2. 7. 0. 0. 0. 0. 1.
      0. 2. 3. 0. 0. 1. 0. 0. 0. 1. 0. 1. 1. 0. 0. 17. 0. 20. 1. 4. 1.
      1. 2. 5. 0. 1. 3. 0. 0. 0. 0. 1. 0. 3. 3. 0. 0. 0. 1. 1. 0. 0. 1.
      1. 0. 0. 0. 5. 0. 6. 6. 6. 2. 0. 0. 1. 0. 1. 13. 1. 0. 0. 0. 1. 0.
      7. 10. 4. 1. 0. 0. 0. 0. 0. 0. 1. 1. 0. 0. 11. 1. 21. 4. 5. 0. 0.
      2. 1. 1. 2. 5. 1. 0. 0. 0. 1. 0. 1. 10. 1. 0. 0. 0. 0. 0. 1. 1. 2.
      0. 0. 0. 7. 0. 5. 7. 2. 2. 1. 2. 1. 0. 2. 5. 0. 1. 0. 0. 1. 1. 1.
      21. 1. 0. 0. 1. 1. 0. 0. 0. 3. 0. 0. 0. 2. 0. 3. 3. 3. 1. 0. 0. 7.
      0. 0. 2. 0. 0. 0. 0. 0. 0. 0. 0. 0. 0. 0. 0. 0. 0. 0. 0. 0. 0. 0.
      0. 1. 0. 0. 0. 2. 0. 1. 0. 2. 0. 3. 4. 1. 0. 0. 0. 5. 0. 3. 4. 0.
      0. 0. 0. 0. 0. 0. 0. 1. 0. 0. 1. 12. 0. 23. 8. 3. 0. 0. 0. 6. 0.
      0. 1. 1. 0. 0. 0. 1. 0. 2. 1. 0. 0. 0. 0. 0. 0. 0. 0. 2. 0. 0. 0.
      5. 0. 5. 2. 4. 0. 0. 1. 2. 0. 2. 5. 2. 0. 0. 0. 2. 0. 0. 2. 0. 0.
      0. 0. 0. 0. 0. 0. 1. 0. 0. 0. 4. 0. 7. 1. 2. 0. 0. 0. 0. 0. 0. 2.
      0. 0. 0. 0. 1. 0. 0. 1. 0. 0. 0. 0. 0. 0. 0. 0. 2. 0. 0. 0. 3. 0.
      4. 3. 5. 4. 0. 0. 4. 0. 0. 4. 0. 0. 0. 0. 2. 0. 1. 2. 4. 0. 0. 0.
      0. 0. 0. 0. 2. 1. 0. 0. 1. 0. 7. 5. 4. 0. 0. 3. 3. 0. 0. 6. 0. 0.
      0. 0. 0. 1. 0. 8. 1. 0. 1. 1. 0. 0. 0. 0. 1. 0. 0. 0. 4. 0. 8. 3.
      4. 1. 0. 1. 1. 0. 4. 1. 1. 0. 0. 0. 3. 0. 3. 11. 1. 1. 1. 0. 0. 0.
      0. 0. 0. 0. 0. 1. 4. 0. 21. 6.</_>
    <_>
      1. 0. 0. 3. 8. 0. 2. 12. 0. 0. 0. 0. 2. 0. 6. 14. 0. 0. 0. 0. 0.
      0. 0. 0. 2. 0. 0. 1. 11. 0. 2. 6. 4. 1. 0. 6. 1. 1. 0. 14. 0. 0.
      0. 0. 1. 0. 4. 19. 3. 0. 0. 0. 0. 0. 0. 2. 4. 0. 0. 0. 6. 0. 7. 6.
      2. 0. 0. 8. 3. 1. 0. 10. 1. 0. 0. 0. 2. 0. 6. 10. 0. 0. 0. 0. 0.
      0. 0. 0. 4. 0. 0. 1. 11. 0. 11. 4. 2. 2. 0. 3. 2. 0. 3. 5. 0. 0.
      0. 0. 2. 0. 4. 3. 3. 0. 0. 0. 1. 0. 0. 0. 3. 0. 0. 0. 8. 0. 17. 1.
      7. 1. 1. 1. 2. 0. 1. 2. 0. 0. 0. 0. 0. 0. 0. 0. 2. 0. 0. 0. 0. 0.
      0. 0. 1. 0. 0. 0. 2. 0. 1. 1. 3. 1. 0. 1. 1. 0. 0. 4. 0. 0. 0. 0.
      1. 1. 2. 2. 0. 0. 0. 0. 0. 0. 0. 0. 2. 0. 0. 0. 2. 0. 1. 0. 3. 0.
      0. 1. 4. 0. 0. 10. 0. 0. 0. 0. 2. 0. 3. 9. 0. 0. 0. 0. 1. 0. 1. 0.
      0. 0. 0. 0. 5. 0. 23. 11. 3. 1. 1. 3. 1. 0. 2. 7. 0. 0. 0. 0. 0.
      0. 4. 2. 0. 0. 0. 0. 0. 0. 0. 0. 0. 0. 0. 0. 7. 0. 12. 2. 1. 0. 0.
      0. 0. 0. 1. 0. 1. 0. 0. 0. 2. 1. 2. 3. 0. 0. 0. 0. 0. 0. 0. 0. 0.
      0. 0. 0. 6. 0. 3. 3. 0. 0. 0. 0. 0. 0. 0. 11. 0. 0. 0. 0. 2. 0. 9.
      6. 0. 0. 0. 0. 0. 0. 0. 0. 0. 0. 0. 0. 10. 0. 8. 0. 3. 1. 0. 0. 1.
      0. 0. 0. 0. 0. 0. 0. 1. 0. 0. 0. 0. 0. 1. 0. 1. 0. 0. 0. 1. 0. 0.
      0. 7. 0. 2. 0. 1. 0. 0. 2. 5. 0. 5. 9. 1. 0. 0. 0. 3. 0. 1. 15. 0.
      0. 0. 0. 0. 0. 0. 0. 0. 0. 1. 0. 17. 1. 3. 1. 3. 0. 0. 1. 5. 0. 0.
      7. 0. 0. 0. 0. 1. 0. 0. 4. 0. 0. 0. 0. 0. 0. 0. 0. 1. 0. 0. 0. 0.
      0. 2. 1. 2. 1. 0. 0. 2. 0. 0. 0. 1. 0. 0. 0. 1. 0. 1. 8. 2. 0. 0.
      0. 0. 0. 0. 0. 0. 0. 0. 0. 3. 0. 6. 5. 2. 2. 0. 1. 2. 0. 0. 0. 0.
      0. 0. 0. 0. 0. 0. 0. 0. 0. 0. 0. 0. 0. 0. 0. 0. 0. 0. 0. 0. 0. 5.
      0. 4. 1. 0. 0. 2. 0. 0. 0. 0. 0. 0. 0. 0. 0. 0. 1. 3. 0. 1. 0. 0.
      0. 0. 0. 0. 0. 0. 0. 2. 0. 6. 1.</_>
    <_>
      9. 5. 0. 3. 3. 0. 1. 5. 0. 0. 0. 1. 1. 0. 6. 16. 5. 0. 0. 0. 0. 0.
      0. 1. 2. 1. 0. 0. 6. 0. 5. 5. 8. 3. 1. 2. 3. 1. 5. 4. 0. 2. 0. 0.
      0. 0. 1. 2. 3. 2. 0. 1. 0. 0. 1. 0. 1. 0. 1. 0. 9. 2. 3. 2. 9. 7.
      1. 2. 4. 1. 1. 3. 1. 0. 0. 0. 3. 0. 6. 4. 2. 0. 1. 0. 1. 0. 0. 1.
      6. 1. 0. 0. 6. 0. 8. 7. 8. 3. 2. 6. 2. 0. 2. 2. 3. 0. 0. 0. 0. 1.
      5. 7. 6. 2. 1. 0. 1. 0. 1. 1. 5. 0. 0. 0. 8. 0. 16. 2. 9. 4. 1. 2.
      6. 0. 1. 5. 0. 0. 0. 0. 3. 0. 3. 5. 1. 0. 0. 0. 0. 0. 1. 0. 3. 0.
      0. 0. 7. 0. 3. 3. 6. 0. 1. 0. 4. 1. 2. 1. 0. 0. 0. 0. 2. 0. 3. 2.
      1. 0. 0. 0. 0. 0. 0. 0. 1. 0. 0. 1. 1. 0. 3. 2. 12. 4. 1. 1. 1. 0.
      2. 2. 0. 1. 1. 0. 2. 0. 2. 6. 5. 0. 0. 1. 0. 0. 0. 0. 0. 0. 0. 1.
      7. 0. 1. 1. 7. 2. 0. 2. 2. 0. 4. 2. 3. 0. 0. 0. 1. 3. 2. 4. 1. 0.
      0. 0. 1. 0. 0. 0. 1. 0. 0. 0. 2. 0. 3. 4. 6. 2. 1. 4. 8. 1. 7. 4.
      0. 0. 0. 0. 3. 0. 2. 6. 1. 0. 0. 1. 1. 0. 0. 0. 2. 0. 0. 0. 7. 0.
      4. 3. 7. 0. 0. 0. 6. 0. 1. 3. 0. 0. 0. 0. 1. 0. 0. 2. 0. 0. 0. 0.
      0. 0. 0. 0. 1. 0. 0. 0. 1. 0. 1. 2. 9. 3. 1. 0. 4. 0. 1. 8. 2. 0.
      0. 0. 0. 0. 4. 8. 2. 0. 0. 0. 0. 0. 0. 0. 1. 0. 0. 0. 4. 0. 13. 4.
      6. 0. 1. 2. 1. 1. 1. 7. 1. 0. 0. 0. 0. 1. 3. 5. 1. 0. 2. 0. 0. 0.
      0. 0. 1. 0. 0. 0. 4. 0. 11. 1. 9. 4. 1. 3. 0. 0. 1. 0. 0. 0. 0. 0.
      4. 0. 3. 7. 3. 0. 3. 0. 4. 0. 0. 2. 0. 0. 0. 0. 6. 3. 16. 8. 13.
      3. 1. 2. 0. 0. 2. 2. 0. 0. 0. 0. 2. 1. 0. 9. 10. 1. 2. 0. 0. 0. 1.
      0. 4. 0. 0. 0. 2. 0. 11. 4. 10. 4. 0. 6. 0. 0. 1. 2. 1. 0. 0. 0.
      0. 0. 3. 15. 3. 3. 0. 1. 0. 0. 1. 0. 3. 0. 0. 0. 1. 0. 15. 6. 6.
      1. 3. 4. 0. 0. 2. 1. 2. 0. 0. 0. 1. 1. 1. 19. 3. 0. 0. 0. 0. 0. 0.
      0. 1. 0. 1. 1. 2. 0. 20. 7.</_>
    <_>
      4. 4. 0. 2. 0. 0. 0. 1. 1. 2. 0. 0. 1. 1. 3. 34. 3. 1. 0. 0. 0. 0.
      0. 1. 4. 0. 0. 0. 3. 0. 13. 17. 3. 11. 0. 2. 1. 0. 0. 0. 0. 0. 0.
      0. 0. 0. 11. 50. 4. 1. 0. 1. 0. 0. 0. 0. 3. 1. 0. 3. 2. 0. 15. 22.
      6. 7. 0. 0. 0. 0. 0. 1. 0. 1. 0. 0. 1. 0. 13. 43. 6. 4. 0. 0. 0.
      0. 0. 1. 1. 0. 0. 0. 2. 3. 38. 26. 4. 8. 0. 2. 0. 0. 1. 1. 0. 0.
      0. 0. 0. 0. 19. 19. 4. 5. 1. 0. 1. 0. 0. 0. 2. 0. 0. 0. 2. 0. 47.
      22. 6. 2. 1. 2. 0. 0. 5. 14. 0. 1. 0. 0. 4. 0. 7. 17. 3. 0. 0. 0.
      0. 0. 0. 0. 2. 0. 0. 0. 9. 0. 16. 7. 3. 1. 2. 2. 0. 1. 3. 5. 0. 0.
      0. 0. 3. 0. 13. 22. 1. 0. 0. 0. 2. 0. 2. 0. 3. 0. 0. 1. 12. 0. 36.
      24. 3. 1. 1. 2. 0. 0. 4. 10. 3. 1. 0. 1. 2. 1. 13. 33. 0. 0. 1. 2.
      0. 0. 2. 2. 1. 0. 0. 0. 10. 3. 19. 7. 3. 2. 1. 2. 1. 0. 0. 8. 4.
      0. 0. 0. 0. 2. 14. 34. 2. 3. 0. 0. 0. 0. 2. 1. 2. 0. 0. 1. 4. 0.
      37. 7. 7. 1. 0. 1. 2. 1. 1. 5. 0. 0. 0. 0. 1. 0. 1. 1. 1. 1. 0. 0.
      0. 0. 0. 0. 0. 0. 0. 0. 4. 0. 1. 0. 8. 4. 0. 3. 3. 0. 2. 2. 1. 0.
      0. 0. 0. 0. 3. 7. 2. 2. 0. 0. 0. 0. 0. 0. 1. 1. 0. 0. 4. 0. 2. 4.
      5. 0. 0. 0. 8. 0. 1. 0. 0. 0. 0. 0. 1. 0. 0. 0. 0. 0. 0. 0. 0. 0.
      0. 0. 0. 0. 0. 0. 7. 0. 0. 1. 7. 1. 5. 1. 2. 2. 0. 6. 3. 0. 0. 1.
      2. 2. 1. 2. 0. 0. 0. 0. 1. 0. 1. 0. 5. 1. 0. 0. 5. 0. 6. 3. 7. 0.
      1. 1. 2. 0. 0. 1. 0. 0. 0. 0. 0. 0. 0. 0. 3. 2. 0. 0. 0. 0. 0. 0.
      0. 0. 0. 0. 2. 0. 0. 1. 5. 1. 1. 0. 3. 0. 0. 0. 0. 0. 0. 0. 1. 0.
      0. 2. 1. 0. 0. 0. 1. 0. 1. 0. 1. 0. 0. 0. 5. 0. 1. 0. 9. 0. 0. 0.
      1. 0. 1. 2. 1. 0. 0. 0. 2. 0. 0. 1. 1. 0. 0. 0. 1. 0. 0. 0. 0. 0.
      0. 0. 0. 0. 5. 1. 8. 0. 1. 0. 3. 1. 0. 5. 1. 1. 0. 0. 1. 0. 1. 5.
      1. 0. 0. 0. 0. 0. 0. 0. 0. 0. 0. 0. 4. 1. 5. 4.</_>
    <_>
      4. 4. 1. 3. 1. 0. 0. 7. 0. 0. 0. 0. 5. 2. 8. 11. 1. 0. 0. 0. 0. 0.
      1. 1. 3. 0. 0. 0. 8. 0. 20. 17. 4. 2. 1. 6. 0. 0. 0. 6. 0. 0. 0.
      0. 1. 0. 8. 17. 2. 1. 1. 0. 1. 0. 0. 0. 1. 0. 0. 0. 12. 0. 11. 9.
      6. 2. 3. 1. 2. 0. 1. 2. 0. 0. 0. 0. 3. 0. 3. 11. 0. 2. 0. 0. 0. 0.
      0. 1. 2. 0. 0. 0. 4. 0. 9. 10. 2. 1. 0. 1. 3. 0. 0. 7. 0. 0. 0. 0.
      2. 0. 5. 12. 0. 0. 0. 0. 0. 0. 1. 0. 0. 0. 0. 0. 7. 0. 8. 6. 5. 1.
      0. 0. 5. 0. 0. 6. 0. 0. 0. 0. 2. 0. 4. 8. 0. 0. 0. 0. 0. 0. 0. 0.
      1. 0. 0. 0. 6. 0. 0. 1. 6. 0. 0. 0. 2. 0. 3. 9. 1. 1. 0. 0. 1. 1.
      5. 11. 1. 0. 0. 0. 1. 0. 0. 0. 1. 0. 0. 2. 8. 0. 8. 9. 6. 1. 0. 0.
      2. 2. 2. 3. 2. 0. 0. 0. 0. 0. 6. 7. 0. 0. 0. 0. 0. 0. 0. 1. 3. 0.
      0. 1. 7. 2. 4. 5. 5. 0. 0. 0. 2. 0. 4. 9. 0. 0. 0. 0. 2. 0. 1. 7.
      0. 0. 0. 0. 0. 0. 0. 0. 0. 0. 0. 0. 5. 0. 9. 8. 2. 0. 0. 1. 8. 0.
      1. 11. 0. 0. 0. 0. 4. 0. 2. 5. 0. 0. 0. 0. 0. 0. 0. 0. 1. 0. 0. 0.
      6. 0. 2. 1. 7. 0. 0. 2. 2. 0. 0. 1. 0. 0. 0. 0. 1. 0. 0. 0. 0. 0.
      0. 0. 0. 0. 0. 0. 1. 0. 0. 0. 0. 0. 0. 1. 2. 0. 0. 0. 3. 0. 1. 13.
      0. 0. 0. 0. 4. 0. 7. 11. 0. 0. 0. 0. 0. 0. 0. 0. 1. 1. 0. 0. 9. 0.
      13. 7. 4. 0. 1. 5. 1. 0. 0. 8. 0. 0. 1. 0. 1. 0. 4. 6. 1. 0. 0. 0.
      0. 0. 0. 1. 1. 0. 0. 0. 2. 1. 15. 5. 5. 0. 1. 2. 4. 0. 1. 3. 0. 0.
      0. 0. 3. 0. 1. 0. 0. 0. 0. 0. 0. 0. 0. 0. 1. 0. 0. 0. 2. 0. 0. 0.
      5. 1. 0. 1. 6. 0. 3. 4. 0. 0. 0. 0. 2. 0. 1. 2. 2. 0. 0. 0. 0. 0.
      0. 0. 1. 0. 0. 0. 3. 0. 1. 5. 6. 2. 1. 1. 3. 0. 1. 2. 0. 0. 0. 0.
      0. 0. 1. 0. 1. 0. 0. 0. 1. 0. 0. 0. 2. 0. 0. 0. 4. 0. 1. 1. 3. 0.
      1. 2. 2. 0. 1. 1. 0. 0. 0. 0. 1. 0. 1. 2. 0. 0. 0. 1. 2. 0. 0. 0.
      1. 0. 0. 0. 3. 0. 4. 0.</_>
    <_>
      10. 4. 1. 6. 2. 0. 2. 2. 1. 0. 1. 1. 0. 0. 1. 13. 2. 3. 0. 1. 0.
      0. 0. 2. 2. 1. 0. 0. 1. 0. 2. 8. 3. 1. 0. 1. 1. 0. 1. 4. 0. 0. 0.
      0. 0. 0. 11. 16. 2. 0. 0. 0. 0. 0. 0. 0. 2. 0. 0. 0. 10. 2. 21.
      15. 6. 3. 1. 2. 1. 0. 3. 4. 0. 0. 0. 0. 1. 0. 11. 11. 5. 0. 0. 1.
      0. 0. 0. 0. 2. 0. 0. 0. 4. 1. 25. 16. 8. 5. 0. 1. 1. 2. 2. 4. 2.
      0. 0. 1. 0. 0. 3. 0. 8. 4. 0. 1. 1. 0. 0. 0. 2. 0. 0. 4. 6. 0. 11.
      6. 5. 2. 0. 3. 8. 0. 3. 6. 0. 1. 0. 0. 3. 0. 6. 18. 1. 1. 0. 0. 0.
      0. 0. 0. 1. 0. 0. 1. 9. 0. 6. 3. 7. 3. 1. 2. 7. 0. 3. 9. 1. 0. 0.
      0. 2. 0. 5. 6. 0. 1. 0. 0. 1. 0. 0. 2. 0. 0. 0. 1. 9. 0. 12. 4. 8.
      3. 1. 4. 2. 0. 4. 11. 0. 1. 0. 0. 1. 1. 6. 15. 2. 2. 0. 0. 0. 0.
      1. 0. 2. 0. 0. 0. 5. 0. 15. 7. 6. 1. 1. 1. 8. 1. 1. 8. 2. 0. 0. 0.
      6. 1. 4. 7. 1. 0. 1. 0. 0. 0. 0. 1. 4. 0. 0. 0. 7. 0. 10. 1. 9. 1.
      0. 1. 7. 0. 2. 4. 0. 0. 0. 0. 1. 0. 4. 4. 1. 2. 0. 1. 0. 0. 0. 0.
      1. 0. 0. 0. 5. 1. 9. 3. 4. 3. 0. 2. 6. 0. 1. 6. 0. 0. 0. 0. 1. 0.
      2. 1. 1. 0. 1. 1. 0. 0. 0. 0. 2. 0. 0. 0. 4. 0. 2. 0. 11. 1. 1. 1.
      5. 2. 3. 0. 1. 0. 0. 0. 1. 1. 1. 2. 0. 0. 2. 1. 0. 0. 0. 0. 1. 1.
      0. 0. 3. 0. 0. 1. 9. 2. 2. 0. 3. 0. 0. 2. 0. 2. 0. 0. 2. 0. 0. 4.
      0. 2. 0. 0. 3. 0. 0. 0. 0. 0. 0. 0. 0. 0. 1. 4. 9. 0. 1. 2. 2. 1.
      2. 2. 1. 0. 0. 0. 1. 0. 3. 2. 2. 0. 0. 0. 0. 0. 0. 0. 1. 0. 0. 0.
      1. 1. 4. 1. 8. 4. 0. 2. 4. 0. 3. 3. 0. 0. 0. 0. 2. 0. 2. 0. 1. 0.
      0. 0. 1. 0. 0. 0. 1. 0. 1. 0. 4. 0. 4. 4. 7. 1. 1. 1. 0. 1. 3. 3.
      1. 0. 0. 0. 1. 0. 5. 7. 1. 1. 0. 0. 1. 0. 0. 0. 2. 2. 0. 0. 5. 0.
      6. 5. 7. 0. 1. 1. 3. 0. 0. 0. 0. 0. 0. 0. 0. 0. 0. 0. 1. 0. 0. 0.
      0. 0. 1. 0. 1. 0. 0. 0. 5. 0. 0. 0.</_>
    <_>
      5. 0. 1. 4. 1. 0. 2. 13. 1. 0. 0. 0. 3. 0. 8. 32. 1. 0. 0. 0. 0.
      0. 0. 0. 4. 1. 0. 0. 7. 1. 15. 15. 3. 2. 2. 2. 0. 0. 1. 9. 1. 0.
      0. 0. 3. 0. 16. 29. 7. 2. 0. 0. 0. 0. 0. 0. 0. 0. 0. 0. 12. 0. 26.
      32. 2. 1. 1. 6. 3. 0. 3. 13. 0. 0. 0. 0. 5. 1. 9. 17. 1. 0. 0. 0.
      0. 0. 0. 1. 9. 0. 0. 0. 8. 0. 18. 14. 1. 2. 0. 4. 2. 0. 1. 5. 0.
      0. 0. 0. 2. 0. 12. 21. 3. 0. 0. 0. 0. 0. 0. 0. 3. 1. 0. 0. 11. 0.
      26. 17. 4. 0. 1. 4. 3. 0. 1. 6. 0. 1. 0. 0. 0. 0. 4. 4. 0. 0. 0.
      0. 0. 0. 0. 0. 2. 0. 0. 0. 7. 0. 2. 0. 5. 1. 3. 4. 1. 0. 2. 2. 0.
      0. 0. 0. 0. 0. 0. 1. 1. 0. 0. 0. 0. 0. 1. 0. 2. 0. 0. 0. 2. 0. 2.
      1. 5. 0. 0. 0. 7. 0. 0. 3. 1. 0. 0. 0. 1. 0. 1. 3. 2. 0. 0. 0. 0.
      0. 0. 0. 2. 0. 0. 0. 3. 0. 1. 2. 4. 1. 2. 1. 1. 0. 4. 4. 0. 0. 0.
      0. 0. 1. 2. 1. 1. 0. 0. 0. 0. 0. 0. 0. 0. 0. 0. 0. 7. 0. 2. 1. 4.
      1. 0. 1. 5. 0. 4. 6. 1. 0. 0. 0. 1. 0. 1. 17. 2. 0. 0. 0. 0. 0. 0.
      0. 1. 0. 0. 1. 2. 0. 0. 3. 4. 0. 0. 1. 3. 0. 2. 0. 0. 0. 0. 0. 2.
      0. 1. 0. 0. 0. 0. 0. 0. 0. 0. 0. 1. 0. 0. 0. 0. 0. 2. 2. 6. 1. 0.
      1. 0. 1. 2. 9. 0. 0. 0. 0. 0. 0. 8. 11. 3. 0. 0. 0. 0. 0. 0. 0. 1.
      0. 1. 0. 5. 0. 12. 5. 3. 0. 0. 0. 2. 0. 4. 9. 0. 0. 0. 0. 1. 0. 5.
      2. 0. 0. 0. 0. 0. 0. 0. 0. 1. 0. 0. 0. 11. 0. 4. 0. 3. 0. 2. 1. 6.
      0. 1. 10. 0. 0. 0. 0. 4. 0. 6. 15. 1. 0. 0. 0. 0. 0. 0. 0. 0. 0.
      0. 0. 1. 0. 5. 9. 6. 2. 1. 1. 0. 0. 2. 3. 1. 0. 0. 0. 1. 0. 0. 0.
      0. 0. 0. 0. 0. 0. 0. 0. 0. 0. 1. 0. 4. 0. 1. 2. 4. 0. 0. 1. 4. 0.
      0. 0. 0. 0. 0. 0. 1. 0. 3. 9. 1. 0. 0. 0. 0. 0. 0. 0. 0. 0. 0. 0.
      1. 0. 4. 6. 4. 1. 0. 1. 2. 0. 0. 0. 0. 0. 0. 0. 1. 0. 1. 4. 0. 0.
      0. 0. 0. 0. 0. 0. 0. 0. 0. 0. 5. 0. 2. 3.</_>
    <_>
      5. 1. 1. 3. 4. 1. 4. 12. 4. 0. 0. 0. 3. 0. 5. 10. 0. 0. 0. 0. 0.
      0. 1. 0. 1. 0. 0. 0. 10. 0. 3. 3. 6. 0. 1. 1. 5. 0. 1. 4. 1. 0. 0.
      0. 0. 0. 1. 4. 1. 2. 1. 0. 0. 0. 0. 0. 1. 1. 0. 0. 5. 0. 9. 0. 7.
      2. 2. 1. 6. 1. 3. 4. 2. 0. 1. 1. 1. 0. 2. 1. 3. 0. 0. 0. 0. 0. 0.
      0. 1. 1. 0. 0. 4. 0. 5. 3. 7. 3. 1. 2. 2. 1. 0. 5. 2. 0. 0. 0. 1.
      1. 2. 4. 3. 0. 0. 0. 0. 0. 0. 0. 5. 0. 0. 0. 4. 0. 3. 6. 8. 0. 0.
      0. 11. 0. 1. 4. 0. 0. 0. 0. 2. 0. 0. 3. 0. 0. 0. 0. 0. 0. 0. 0. 1.
      0. 0. 0. 2. 0. 0. 1. 5. 1. 0. 0. 6. 1. 1. 3. 0. 0. 0. 0. 0. 0. 3.
      1. 0. 0. 0. 0. 0. 0. 0. 0. 3. 0. 0. 0. 10. 0. 0. 0. 4. 0. 1. 0.
      13. 1. 2. 6. 2. 0. 0. 0. 1. 0. 1. 5. 1. 0. 0. 0. 1. 0. 0. 0. 2. 0.
      0. 0. 1. 0. 1. 1. 9. 0. 2. 0. 3. 0. 1. 9. 2. 0. 0. 0. 2. 0. 1. 9.
      1. 0. 0. 0. 0. 0. 0. 0. 2. 0. 0. 0. 4. 0. 2. 3. 10. 0. 2. 1. 8. 0.
      1. 3. 0. 0. 0. 0. 2. 0. 0. 3. 2. 0. 0. 0. 0. 0. 0. 1. 0. 0. 0. 0.
      4. 0. 4. 1. 3. 1. 0. 1. 8. 0. 2. 6. 0. 0. 0. 0. 1. 0. 6. 2. 0. 0.
      0. 0. 1. 0. 0. 0. 0. 0. 0. 0. 9. 0. 2. 1. 10. 0. 1. 2. 2. 0. 2. 5.
      0. 0. 0. 0. 2. 0. 2. 0. 0. 0. 0. 0. 0. 0. 0. 0. 1. 0. 0. 0. 0. 0.
      4. 1. 5. 1. 2. 2. 3. 0. 5. 9. 0. 0. 0. 0. 3. 0. 3. 6. 0. 0. 0. 0.
      0. 0. 0. 1. 1. 0. 0. 0. 5. 0. 5. 1. 11. 1. 1. 0. 6. 0. 0. 4. 0. 1.
      0. 0. 3. 1. 4. 6. 1. 0. 0. 0. 0. 0. 0. 0. 2. 0. 0. 0. 4. 0. 3. 3.
      6. 1. 1. 1. 4. 0. 2. 3. 0. 0. 0. 0. 2. 1. 0. 7. 0. 0. 0. 0. 0. 0.
      0. 0. 1. 0. 0. 0. 2. 0. 3. 4. 9. 0. 1. 1. 6. 0. 0. 3. 1. 1. 0. 0.
      3. 0. 0. 2. 0. 0. 0. 0. 0. 0. 1. 0. 1. 0. 0. 0. 5. 1. 5. 2. 7. 1.
      0. 4. 2. 0. 5. 2. 1. 1. 0. 0. 4. 0. 0. 8. 2. 0. 0. 0. 0. 0. 2. 0.
      2. 0. 0. 0. 6. 1. 7. 7.</_>
    <_>
      6. 3. 1. 4. 4. 0. 1. 5. 0. 0. 0. 0. 1. 0. 5. 5. 4. 2. 0. 0. 1. 0.
      0. 0. 1. 0. 0. 0. 5. 0. 4. 6. 7. 1. 2. 5. 1. 1. 0. 7. 1. 0. 1. 0.
      0. 0. 8. 12. 2. 1. 0. 0. 1. 0. 1. 1. 4. 0. 0. 0. 6. 0. 12. 8. 6.
      2. 3. 1. 0. 2. 0. 11. 0. 1. 1. 0. 1. 0. 19. 25. 4. 1. 0. 2. 1. 0.
      0. 1. 2. 0. 0. 0. 7. 1. 9. 17. 2. 4. 2. 2. 1. 0. 0. 14. 0. 0. 0.
      0. 2. 0. 13. 28. 1. 1. 0. 0. 0. 0. 0. 2. 3. 1. 0. 0. 10. 1. 20.
      16. 7. 1. 1. 1. 5. 0. 1. 5. 1. 0. 0. 1. 2. 0. 1. 5. 1. 0. 0. 0. 1.
      0. 0. 0. 1. 0. 0. 0. 2. 0. 0. 2. 12. 1. 2. 5. 0. 1. 1. 1. 2. 1. 0.
      0. 0. 1. 0. 7. 0. 0. 0. 0. 0. 0. 0. 0. 1. 0. 0. 0. 0. 1. 0. 1. 12.
      0. 0. 2. 2. 0. 0. 5. 0. 0. 0. 1. 1. 0. 1. 5. 3. 0. 0. 0. 2. 0. 0.
      0. 1. 0. 0. 0. 2. 0. 0. 4. 9. 0. 0. 2. 4. 0. 0. 5. 0. 0. 0. 0. 0.
      0. 5. 4. 0. 0. 0. 0. 0. 0. 0. 0. 0. 0. 0. 0. 5. 0. 1. 2. 8. 0. 0.
      2. 7. 0. 2. 0. 0. 0. 0. 0. 0. 0. 0. 0. 0. 0. 0. 0. 0. 0. 0. 0. 0.
      0. 0. 0. 3. 0. 1. 1. 7. 1. 1. 0. 2. 0. 1. 4. 2. 0. 0. 0. 1. 0. 2.
      10. 3. 1. 0. 0. 0. 0. 0. 0. 2. 0. 0. 0. 3. 0. 1. 4. 7. 1. 0. 0. 3.
      1. 1. 3. 1. 0. 0. 0. 0. 0. 3. 1. 2. 0. 0. 0. 1. 0. 0. 0. 0. 0. 0.
      0. 3. 0. 7. 0. 6. 2. 0. 0. 4. 0. 2. 4. 0. 0. 0. 0. 2. 0. 4. 2. 1.
      0. 0. 0. 0. 0. 0. 0. 0. 0. 0. 1. 2. 0. 4. 1. 5. 0. 0. 2. 2. 0. 3.
      7. 0. 0. 0. 0. 0. 0. 4. 13. 2. 0. 0. 0. 0. 0. 0. 0. 2. 1. 0. 0. 2.
      0. 8. 12. 5. 1. 1. 2. 2. 2. 4. 1. 1. 0. 0. 0. 0. 1. 1. 9. 5. 0. 0.
      0. 1. 0. 0. 0. 1. 1. 0. 1. 2. 0. 10. 4. 6. 2. 1. 0. 0. 1. 1. 3. 0.
      0. 0. 0. 0. 0. 1. 5. 2. 0. 0. 0. 0. 0. 0. 0. 1. 0. 0. 0. 4. 1. 11.
      5. 7. 0. 1. 1. 2. 0. 1. 2. 0. 0. 0. 0. 0. 0. 2. 8. 1. 0. 0. 0. 0.
      0. 0. 0. 0. 0. 0. 0. 3. 0. 15. 3.</_>
    <_>
      6. 10. 0. 0. 0. 0. 1. 1. 0. 0. 0. 0. 0. 0. 16. 24. 10. 5. 0. 1. 0.
      0. 0. 0. 0. 0. 0. 1. 0. 1. 57. 25. 5. 6. 1. 0. 0. 0. 0. 1. 0. 0.
      0. 1. 0. 0. 18. 24. 5. 7. 0. 3. 0. 0. 2. 0. 1. 2. 0. 0. 2. 0. 54.
      16. 6. 3. 0. 1. 0. 0. 0. 1. 0. 1. 0. 0. 1. 0. 4. 15. 5. 2. 0. 2.
      1. 0. 1. 1. 0. 1. 0. 0. 2. 0. 43. 19. 1. 5. 0. 0. 0. 0. 0. 0. 1.
      0. 0. 0. 0. 0. 2. 3. 5. 3. 0. 1. 1. 0. 0. 0. 0. 0. 0. 0. 1. 0. 5.
      4. 1. 3. 0. 1. 0. 0. 0. 9. 0. 0. 0. 0. 0. 0. 11. 15. 3. 1. 0. 0.
      0. 0. 0. 0. 0. 0. 0. 1. 4. 0. 15. 6. 2. 2. 1. 2. 1. 1. 1. 3. 1. 0.
      0. 0. 0. 0. 4. 13. 4. 2. 0. 0. 1. 0. 0. 0. 3. 0. 0. 1. 5. 0. 19.
      3. 3. 0. 0. 1. 1. 0. 1. 8. 0. 0. 0. 0. 1. 0. 6. 5. 3. 0. 0. 0. 0.
      0. 0. 0. 1. 0. 0. 0. 13. 0. 10. 3. 5. 1. 2. 0. 1. 0. 0. 9. 0. 0.
      0. 0. 0. 0. 6. 9. 3. 1. 0. 0. 1. 0. 1. 0. 1. 0. 0. 1. 8. 0. 30. 4.
      3. 3. 0. 0. 4. 0. 1. 10. 0. 0. 0. 0. 1. 0. 6. 11. 3. 0. 0. 1. 0.
      0. 0. 0. 1. 0. 0. 0. 5. 0. 10. 4. 5. 0. 1. 1. 3. 0. 0. 2. 0. 0. 0.
      0. 3. 0. 1. 10. 4. 0. 0. 0. 0. 0. 0. 0. 1. 0. 0. 0. 6. 0. 4. 6. 4.
      1. 0. 0. 4. 1. 1. 4. 1. 0. 0. 0. 0. 0. 1. 13. 0. 0. 0. 0. 0. 0. 0.
      0. 2. 1. 0. 0. 3. 1. 3. 2. 5. 0. 1. 3. 2. 0. 0. 9. 2. 0. 0. 0. 3.
      1. 1. 12. 1. 0. 0. 0. 1. 0. 0. 0. 3. 0. 0. 0. 3. 0. 4. 5. 6. 3. 0.
      0. 2. 0. 0. 2. 0. 0. 0. 0. 4. 0. 2. 10. 0. 1. 0. 0. 0. 0. 0. 0. 1.
      0. 0. 0. 1. 0. 4. 2. 4. 1. 0. 2. 1. 0. 0. 4. 1. 0. 0. 0. 2. 0. 1.
      4. 0. 0. 0. 0. 0. 0. 0. 0. 3. 1. 0. 1. 6. 0. 1. 4. 2. 0. 0. 1. 4.
      0. 1. 1. 0. 0. 0. 0. 1. 0. 0. 2. 1. 0. 0. 1. 0. 0. 0. 0. 1. 0. 0.
      0. 4. 0. 2. 3. 8. 1. 0. 0. 1. 0. 0. 10. 0. 0. 0. 0. 1. 0. 5. 7. 1.
      0. 0. 0. 0. 0. 1. 0. 2. 0. 0. 0. 3. 0. 25. 7.</_>
    <_>
      12. 3. 0. 2. 4. 0. 6. 5. 1. 1. 0. 0. 0. 1. 3. 14. 0. 0. 1. 0. 0.
      0. 0. 0. 2. 0. 0. 0. 12. 0. 11. 2. 3. 1. 0. 0. 5. 1. 6. 10. 0. 0.
      0. 2. 1. 0. 7. 7. 0. 0. 0. 0. 0. 0. 0. 0. 5. 0. 0. 0. 19. 0. 16.
      8. 8. 2. 1. 1. 3. 1. 1. 13. 1. 0. 1. 1. 6. 0. 9. 4. 1. 0. 0. 0. 1.
      0. 0. 0. 2. 0. 0. 0. 13. 0. 17. 7. 11. 1. 0. 3. 5. 0. 3. 9. 0. 1.
      0. 0. 3. 0. 2. 16. 2. 1. 1. 0. 0. 0. 0. 0. 0. 0. 0. 0. 8. 0. 16.
      3. 7. 3. 1. 0. 7. 1. 2. 5. 1. 0. 0. 0. 4. 0. 2. 3. 1. 0. 0. 0. 1.
      0. 0. 0. 2. 0. 0. 0. 7. 0. 1. 2. 4. 0. 0. 1. 2. 0. 3. 5. 0. 0. 0.
      0. 4. 0. 5. 1. 1. 0. 1. 0. 1. 0. 0. 0. 0. 1. 0. 0. 7. 1. 8. 3. 7.
      0. 0. 0. 8. 2. 1. 3. 0. 0. 0. 0. 1. 0. 1. 2. 0. 0. 1. 0. 0. 0. 0.
      0. 2. 0. 0. 0. 2. 0. 3. 1. 8. 0. 0. 0. 11. 0. 2. 2. 0. 0. 0. 0. 2.
      0. 1. 1. 0. 0. 0. 0. 0. 0. 0. 0. 0. 0. 0. 0. 7. 0. 3. 0. 9. 1. 1.
      0. 7. 0. 2. 1. 1. 0. 0. 0. 2. 0. 2. 2. 0. 0. 0. 0. 0. 0. 0. 0. 0.
      0. 0. 0. 3. 1. 2. 0. 5. 2. 0. 0. 5. 0. 4. 9. 1. 0. 0. 0. 0. 0. 3.
      6. 1. 1. 0. 0. 0. 0. 0. 0. 3. 0. 0. 0. 4. 0. 8. 5. 5. 1. 0. 1. 4.
      0. 4. 5. 1. 0. 0. 0. 1. 0. 2. 6. 1. 1. 0. 0. 0. 0. 0. 0. 1. 0. 0.
      0. 4. 0. 4. 5. 9. 2. 2. 0. 5. 0. 4. 2. 1. 0. 0. 0. 0. 1. 1. 0. 1.
      0. 0. 0. 1. 0. 0. 0. 1. 0. 0. 0. 4. 0. 1. 0. 8. 2. 1. 2. 5. 0. 4.
      0. 1. 0. 0. 0. 0. 1. 0. 5. 2. 0. 0. 0. 0. 0. 0. 0. 0. 0. 0. 0. 2.
      0. 4. 4. 8. 0. 0. 1. 6. 0. 1. 3. 0. 0. 0. 0. 2. 0. 0. 0. 1. 0. 0.
      0. 1. 0. 0. 0. 0. 0. 0. 0. 1. 0. 0. 1. 9. 0. 1. 1. 7. 0. 0. 1. 2.
      0. 0. 0. 2. 0. 0. 2. 1. 0. 0. 0. 0. 0. 0. 0. 2. 0. 0. 0. 0. 0. 5.
      4. 8. 0. 1. 1. 7. 0. 2. 0. 0. 0. 0. 0. 0. 0. 1. 3. 0. 0. 1. 0. 1.
      0. 0. 0. 0. 0. 0. 1. 1. 1. 8. 4.</_>
    <_>
      6. 1. 0. 3. 1. 0. 2. 9. 0. 0. 0. 0. 6. 0. 4. 18. 3. 1. 0. 0. 0. 0.
      0. 0. 2. 2. 0. 0. 7. 0. 7. 3. 5. 6. 1. 4. 2. 0. 4. 6. 2. 0. 0. 0.
      5. 1. 3. 13. 6. 1. 1. 0. 0. 0. 0. 1. 2. 0. 1. 0. 8. 0. 19. 8. 9.
      5. 0. 2. 3. 0. 0. 9. 0. 0. 1. 0. 2. 1. 6. 14. 3. 0. 0. 0. 1. 0. 0.
      0. 3. 1. 1. 1. 4. 0. 15. 7. 7. 6. 1. 0. 0. 0. 1. 2. 0. 0. 0. 0. 1.
      0. 7. 16. 7. 1. 1. 0. 1. 0. 1. 1. 0. 1. 0. 0. 6. 0. 10. 13. 6. 0.
      0. 2. 3. 2. 4. 6. 0. 0. 0. 0. 1. 0. 2. 8. 1. 0. 0. 0. 0. 0. 0. 0.
      0. 0. 0. 0. 7. 1. 2. 5. 8. 3. 0. 3. 1. 0. 3. 4. 1. 0. 0. 0. 1. 1.
      2. 5. 3. 0. 0. 0. 0. 0. 0. 1. 1. 0. 1. 0. 5. 0. 2. 1. 11. 0. 1. 2.
      2. 0. 2. 3. 0. 0. 0. 0. 1. 0. 2. 0. 1. 1. 0. 0. 1. 0. 0. 0. 0. 1.
      1. 0. 7. 0. 2. 0. 9. 2. 2. 3. 4. 0. 2. 5. 0. 0. 0. 0. 0. 0. 1. 7.
      3. 0. 0. 0. 1. 0. 0. 0. 1. 0. 0. 0. 5. 0. 3. 3. 4. 0. 3. 2. 9. 0.
      5. 6. 0. 0. 0. 0. 1. 0. 4. 3. 0. 0. 0. 0. 0. 0. 1. 0. 1. 0. 0. 0.
      5. 0. 4. 3. 8. 8. 1. 0. 1. 0. 2. 4. 0. 1. 0. 0. 5. 0. 1. 11. 4. 1.
      1. 0. 0. 0. 0. 1. 2. 0. 0. 0. 5. 0. 5. 4. 5. 1. 1. 0. 4. 0. 3. 10.
      1. 1. 0. 0. 0. 1. 3. 15. 0. 0. 0. 0. 0. 0. 0. 0. 0. 0. 0. 0. 7. 0.
      3. 1. 6. 0. 2. 2. 3. 0. 1. 8. 0. 0. 0. 0. 1. 1. 4. 3. 1. 2. 1. 0.
      1. 0. 0. 0. 1. 0. 0. 0. 8. 0. 6. 3. 5. 2. 1. 2. 2. 0. 2. 3. 0. 0.
      0. 0. 1. 0. 10. 14. 6. 1. 0. 0. 0. 0. 0. 0. 1. 0. 1. 0. 4. 1. 8.
      13. 9. 2. 1. 0. 1. 2. 2. 4. 2. 0. 0. 0. 0. 0. 3. 13. 2. 1. 0. 0.
      1. 0. 0. 0. 1. 0. 0. 0. 1. 0. 11. 7. 6. 2. 0. 1. 1. 0. 1. 0. 0. 2.
      0. 0. 0. 1. 1. 18. 4. 1. 1. 0. 0. 0. 0. 0. 3. 0. 0. 0. 3. 0. 16.
      6. 5. 1. 0. 1. 1. 0. 1. 1. 0. 0. 0. 0. 1. 0. 1. 8. 0. 0. 0. 0. 0.
      0. 0. 0. 1. 1. 0. 0. 1. 1. 11. 5.</_>
    <_>
      5. 0. 1. 2. 1. 0. 1. 1. 0. 0. 0. 0. 0. 0. 4. 9. 0. 0. 0. 0. 0. 0.
      0. 0. 1. 0. 0. 0. 6. 0. 4. 6. 5. 0. 1. 0. 3. 0. 0. 6. 2. 0. 0. 0.
      2. 0. 3. 5. 1. 0. 0. 0. 0. 0. 1. 1. 3. 1. 0. 0. 4. 0. 4. 3. 6. 2.
      1. 3. 7. 0. 4. 9. 1. 1. 0. 0. 2. 0. 3. 2. 2. 0. 0. 1. 0. 0. 0. 0.
      2. 0. 0. 0. 5. 0. 5. 3. 1. 1. 0. 2. 2. 0. 1. 7. 4. 0. 0. 0. 2. 1.
      9. 5. 1. 0. 0. 0. 0. 0. 0. 1. 3. 0. 0. 0. 6. 0. 6. 9. 6. 1. 0. 1.
      3. 0. 1. 5. 0. 0. 0. 0. 6. 0. 4. 9. 1. 0. 0. 0. 0. 0. 0. 0. 3. 1.
      0. 0. 10. 0. 9. 7. 5. 1. 2. 0. 6. 1. 0. 4. 1. 0. 0. 0. 2. 0. 2. 8.
      0. 0. 0. 0. 1. 0. 0. 0. 4. 0. 0. 0. 1. 0. 0. 4. 5. 0. 1. 2. 2. 0.
      0. 4. 2. 0. 0. 0. 0. 0. 2. 2. 1. 0. 0. 0. 0. 0. 0. 0. 2. 0. 0. 0.
      2. 0. 8. 2. 5. 0. 1. 0. 1. 0. 1. 4. 0. 0. 0. 0. 3. 0. 5. 4. 2. 1.
      0. 0. 0. 0. 0. 0. 2. 0. 0. 0. 4. 0. 2. 4. 5. 0. 0. 0. 11. 0. 3. 3.
      0. 0. 0. 0. 4. 0. 1. 6. 0. 0. 0. 0. 0. 0. 0. 0. 1. 1. 0. 0. 5. 0.
      11. 6. 10. 0. 0. 2. 3. 0. 1. 3. 1. 0. 0. 0. 0. 1. 5. 3. 0. 0. 0.
      0. 0. 0. 0. 0. 0. 0. 0. 0. 7. 0. 12. 7. 7. 0. 1. 0. 6. 1. 0. 2. 1.
      0. 0. 0. 1. 0. 0. 0. 0. 0. 0. 0. 1. 0. 0. 0. 3. 0. 0. 0. 3. 0. 0.
      1. 3. 0. 0. 0. 1. 0. 2. 11. 0. 0. 0. 0. 2. 1. 10. 6. 1. 1. 0. 0.
      0. 0. 0. 0. 0. 0. 0. 0. 11. 0. 14. 6. 4. 0. 0. 0. 5. 0. 2. 2. 0.
      0. 0. 0. 2. 0. 2. 1. 1. 0. 0. 0. 0. 0. 0. 0. 1. 0. 0. 0. 4. 0. 4.
      2. 10. 2. 1. 0. 6. 0. 0. 0. 0. 0. 0. 0. 3. 0. 0. 1. 1. 0. 0. 1. 1.
      0. 0. 0. 1. 0. 0. 0. 3. 0. 1. 2. 7. 1. 1. 2. 5. 0. 3. 7. 0. 0. 0.
      0. 3. 0. 2. 1. 0. 0. 0. 0. 1. 0. 0. 0. 2. 0. 0. 0. 5. 0. 2. 0. 3.
      0. 0. 1. 3. 0. 0. 0. 0. 0. 0. 0. 0. 0. 1. 2. 1. 0. 0. 0. 0. 0. 0.
      0. 1. 0. 0. 0. 2. 0. 9. 1.</_>
    <_>
      7. 1. 0. 3. 3. 0. 5. 7. 0. 0. 0. 0. 0. 0. 2. 6. 1. 0. 0. 1. 0. 0.
      0. 0. 1. 0. 0. 0. 13. 0. 6. 4. 5. 0. 0. 5. 5. 0. 4. 8. 0. 0. 0. 0.
      2. 0. 3. 6. 0. 1. 0. 1. 0. 0. 0. 0. 1. 1. 0. 0. 6. 0. 7. 3. 4. 0.
      1. 4. 3. 0. 3. 8. 0. 0. 0. 1. 1. 0. 2. 0. 1. 0. 0. 0. 1. 0. 1. 0.
      0. 0. 0. 0. 9. 0. 3. 2. 6. 2. 1. 3. 15. 0. 3. 4. 0. 0. 0. 0. 2. 0.
      4. 5. 2. 0. 0. 1. 0. 0. 0. 0. 3. 0. 0. 0. 3. 0. 4. 5. 6. 2. 0. 0.
      10. 0. 2. 5. 1. 0. 0. 0. 2. 0. 5. 6. 1. 0. 0. 0. 0. 0. 0. 0. 0. 0.
      0. 0. 11. 0. 11. 4. 3. 0. 0. 0. 11. 0. 3. 8. 0. 0. 0. 0. 0. 0. 1.
      2. 0. 0. 0. 0. 0. 0. 0. 0. 1. 0. 0. 0. 4. 0. 2. 0. 7. 0. 3. 1. 6.
      0. 2. 6. 0. 0. 0. 0. 4. 1. 1. 2. 1. 0. 0. 0. 0. 0. 0. 0. 2. 0. 0.
      0. 4. 0. 4. 1. 5. 0. 1. 1. 12. 1. 0. 4. 1. 0. 0. 0. 5. 0. 1. 7. 0.
      0. 0. 0. 0. 0. 0. 0. 1. 0. 0. 0. 1. 0. 3. 1. 8. 0. 1. 1. 8. 0. 1.
      0. 0. 0. 0. 0. 2. 0. 5. 3. 0. 0. 0. 0. 0. 0. 0. 0. 1. 0. 0. 0. 0.
      0. 11. 6. 3. 0. 0. 0. 5. 0. 2. 3. 1. 0. 0. 0. 0. 0. 3. 2. 0. 0. 0.
      0. 0. 0. 0. 0. 0. 0. 0. 0. 1. 0. 9. 7. 5. 1. 1. 1. 1. 0. 1. 3. 0.
      0. 0. 0. 3. 0. 2. 4. 0. 0. 0. 0. 1. 0. 0. 0. 1. 0. 0. 0. 2. 0. 2.
      5. 13. 0. 0. 0. 9. 0. 0. 5. 1. 0. 0. 0. 3. 0. 1. 3. 0. 0. 0. 0. 0.
      1. 0. 0. 1. 0. 0. 0. 2. 0. 7. 7. 1. 0. 0. 0. 0. 0. 3. 0. 0. 0. 0.
      0. 0. 0. 3. 10. 4. 0. 0. 0. 0. 0. 0. 0. 0. 0. 0. 1. 9. 0. 16. 7.
      3. 0. 1. 1. 3. 0. 0. 2. 0. 0. 0. 0. 1. 0. 10. 15. 1. 0. 0. 0. 0.
      0. 0. 0. 0. 1. 0. 0. 7. 0. 21. 12. 1. 0. 0. 3. 0. 0. 5. 2. 0. 0.
      0. 0. 1. 0. 10. 24. 0. 0. 0. 0. 0. 0. 0. 0. 0. 0. 0. 1. 3. 0. 28.
      12. 1. 1. 2. 1. 0. 0. 4. 4. 0. 0. 0. 0. 0. 0. 10. 13. 1. 0. 0. 0.
      0. 0. 0. 0. 0. 0. 0. 0. 10. 0. 33. 10.</_>
    <_>
      3. 1. 0. 0. 2. 0. 5. 2. 0. 0. 0. 0. 0. 0. 1. 0. 1. 0. 0. 0. 0. 0.
      0. 0. 0. 0. 0. 0. 5. 0. 0. 0. 5. 0. 0. 0. 2. 0. 1. 5. 1. 0. 0. 0.
      2. 0. 2. 0. 0. 0. 0. 0. 0. 0. 0. 0. 0. 0. 0. 0. 11. 0. 7. 0. 3. 0.
      4. 0. 8. 0. 2. 1. 0. 0. 0. 0. 2. 0. 1. 0. 0. 0. 0. 0. 1. 0. 1. 0.
      1. 0. 0. 0. 3. 0. 0. 0. 4. 0. 0. 0. 10. 0. 0. 1. 1. 0. 0. 0. 1. 0.
      0. 0. 0. 0. 0. 0. 0. 0. 0. 1. 1. 0. 0. 0. 1. 0. 0. 0. 5. 0. 0. 0.
      3. 0. 4. 10. 0. 0. 0. 0. 0. 0. 9. 16. 1. 0. 0. 0. 0. 0. 0. 0. 0.
      0. 0. 0. 5. 0. 22. 8. 2. 0. 0. 1. 4. 0. 4. 1. 0. 0. 0. 0. 2. 0. 4.
      1. 0. 0. 0. 0. 0. 0. 1. 0. 0. 0. 0. 0. 6. 0. 10. 3. 3. 0. 1. 0. 6.
      0. 2. 2. 0. 0. 0. 0. 1. 0. 0. 4. 0. 0. 0. 0. 0. 0. 0. 0. 0. 0. 0.
      0. 4. 1. 2. 5. 5. 0. 0. 1. 4. 0. 0. 3. 0. 0. 0. 0. 1. 1. 0. 12. 0.
      0. 0. 0. 0. 0. 0. 0. 2. 0. 0. 0. 2. 0. 3. 1. 3. 1. 1. 0. 0. 0. 1.
      6. 0. 0. 0. 0. 4. 0. 1. 2. 1. 0. 0. 1. 0. 0. 0. 0. 2. 0. 0. 0. 2.
      0. 0. 1. 3. 0. 0. 0. 4. 0. 4. 1. 0. 0. 0. 0. 3. 0. 0. 1. 1. 0. 0.
      0. 0. 0. 0. 0. 1. 0. 0. 0. 7. 0. 0. 2. 4. 0. 0. 1. 3. 0. 5. 7. 0.
      0. 0. 0. 1. 0. 1. 1. 1. 0. 0. 0. 0. 0. 0. 0. 0. 0. 0. 0. 7. 0. 4.
      4. 2. 0. 0. 1. 4. 0. 1. 5. 1. 0. 0. 0. 2. 0. 4. 2. 0. 0. 0. 0. 0.
      0. 0. 0. 0. 0. 0. 0. 1. 0. 4. 3. 5. 0. 0. 1. 10. 0. 5. 2. 0. 0. 0.
      0. 1. 0. 1. 1. 0. 0. 0. 0. 0. 0. 0. 0. 1. 0. 0. 0. 5. 0. 0. 0. 4.
      2. 0. 0. 1. 0. 1. 1. 0. 0. 0. 0. 0. 0. 0. 1. 3. 0. 0. 0. 0. 0. 0.
      0. 0. 0. 0. 0. 3. 0. 3. 0. 6. 0. 0. 1. 2. 0. 5. 4. 0. 0. 0. 0. 0.
      0. 0. 0. 1. 0. 0. 0. 0. 0. 0. 0. 0. 0. 0. 0. 6. 0. 1. 3. 4. 0. 0.
      2. 7. 0. 7. 8. 0. 0. 0. 1. 3. 0. 4. 1. 0. 0. 0. 0. 0. 0. 0. 0. 0.
      0. 0. 0. 10. 0. 6. 3.</_>
    <_>
      3. 0. 0. 0. 2. 0. 2. 8. 0. 0. 0. 0. 0. 0. 5. 2. 0. 0. 0. 0. 0. 0.
      0. 0. 2. 0. 0. 0. 8. 0. 4. 0. 6. 1. 0. 0. 5. 0. 1. 10. 0. 0. 0. 0.
      3. 0. 3. 4. 0. 0. 0. 0. 0. 0. 0. 0. 2. 0. 0. 0. 10. 0. 1. 1. 5. 0.
      1. 1. 8. 1. 1. 7. 1. 0. 0. 0. 1. 0. 2. 2. 0. 0. 0. 0. 0. 0. 0. 0.
      0. 0. 0. 0. 8. 0. 1. 1. 7. 0. 1. 2. 2. 2. 1. 8. 0. 0. 0. 0. 2. 0.
      4. 7. 0. 0. 0. 0. 0. 0. 0. 0. 0. 0. 1. 0. 6. 0. 4. 0. 4. 1. 0. 0.
      15. 0. 2. 1. 0. 0. 0. 0. 2. 0. 0. 0. 1. 0. 0. 0. 0. 0. 0. 0. 4. 0.
      0. 0. 2. 0. 2. 0. 8. 0. 1. 0. 5. 0. 2. 2. 0. 0. 0. 0. 0. 0. 2. 8.
      0. 0. 1. 0. 0. 0. 0. 0. 0. 0. 0. 0. 2. 2. 4. 6. 9. 0. 0. 0. 5. 1.
      5. 0. 2. 0. 0. 0. 1. 0. 0. 2. 1. 0. 0. 0. 0. 0. 0. 0. 1. 0. 0. 0.
      6. 0. 3. 2. 8. 0. 0. 1. 3. 0. 0. 3. 0. 0. 0. 0. 4. 0. 0. 2. 0. 0.
      0. 0. 0. 0. 0. 0. 0. 0. 0. 0. 2. 0. 0. 0. 3. 2. 0. 0. 4. 1. 5. 3.
      1. 0. 0. 0. 4. 1. 6. 9. 0. 0. 0. 0. 0. 0. 0. 0. 4. 0. 1. 0. 3. 1.
      2. 6. 7. 1. 1. 1. 5. 0. 3. 6. 0. 0. 0. 0. 2. 0. 4. 24. 2. 0. 1. 0.
      0. 0. 0. 1. 2. 0. 1. 1. 4. 0. 7. 4. 6. 0. 2. 1. 6. 0. 2. 2. 2. 0.
      0. 0. 0. 0. 1. 1. 0. 0. 0. 0. 1. 0. 0. 0. 0. 0. 0. 0. 3. 0. 0. 1.
      7. 1. 0. 1. 8. 0. 1. 8. 0. 0. 0. 0. 4. 0. 3. 2. 0. 0. 1. 0. 0. 0.
      0. 0. 1. 0. 0. 0. 2. 0. 0. 1. 4. 1. 0. 0. 6. 0. 1. 6. 0. 0. 0. 0.
      3. 0. 1. 0. 1. 0. 0. 0. 1. 0. 0. 0. 0. 0. 0. 0. 4. 0. 0. 1. 4. 1.
      0. 2. 3. 0. 5. 5. 1. 0. 1. 0. 1. 1. 1. 3. 2. 0. 0. 0. 0. 0. 0. 0.
      1. 0. 0. 0. 2. 0. 2. 0. 5. 0. 0. 0. 4. 0. 1. 6. 0. 0. 0. 0. 0. 0.
      0. 1. 0. 0. 0. 0. 0. 0. 0. 0. 0. 0. 1. 0. 1. 0. 0. 0. 4. 1. 0. 1.
      4. 0. 0. 3. 0. 0. 0. 0. 3. 0. 0. 0. 1. 0. 0. 0. 0. 0. 0. 0. 0. 0.
      0. 0. 2. 0. 0. 0.</_>
    <_>
      2. 1. 0. 3. 6. 0. 7. 5. 0. 0. 0. 0. 1. 0. 1. 5. 1. 0. 0. 0. 0. 0.
      0. 0. 1. 0. 0. 0. 9. 0. 4. 1. 9. 2. 0. 1. 3. 1. 2. 5. 1. 0. 1. 0.
      2. 0. 5. 12. 4. 0. 0. 0. 0. 0. 0. 0. 5. 0. 0. 1. 2. 0. 4. 8. 5. 2.
      1. 1. 3. 1. 5. 4. 0. 1. 0. 0. 3. 0. 2. 1. 2. 1. 1. 0. 2. 0. 0. 1.
      3. 1. 0. 1. 8. 1. 5. 2. 5. 1. 0. 1. 9. 1. 2. 6. 0. 0. 0. 0. 4. 1.
      1. 2. 0. 0. 0. 0. 0. 0. 1. 0. 3. 0. 0. 1. 4. 0. 4. 0. 6. 0. 2. 0.
      6. 0. 2. 9. 3. 0. 0. 0. 1. 0. 7. 3. 1. 0. 0. 0. 1. 0. 1. 0. 0. 0.
      0. 0. 9. 1. 5. 5. 4. 0. 0. 3. 1. 0. 4. 9. 1. 0. 0. 0. 1. 0. 8. 6.
      0. 0. 0. 0. 0. 0. 0. 0. 0. 0. 0. 0. 6. 1. 0. 4. 6. 0. 0. 1. 5. 0.
      2. 10. 0. 1. 0. 0. 4. 1. 9. 14. 3. 0. 0. 1. 0. 0. 0. 0. 1. 0. 0.
      0. 4. 0. 6. 7. 7. 0. 0. 0. 6. 0. 0. 4. 1. 0. 0. 0. 3. 0. 0. 5. 0.
      0. 0. 0. 0. 0. 0. 0. 0. 0. 0. 0. 0. 0. 0. 2. 4. 0. 1. 1. 8. 0. 3.
      5. 0. 0. 0. 0. 2. 0. 0. 1. 0. 0. 0. 0. 1. 0. 0. 0. 0. 0. 0. 0. 4.
      0. 0. 1. 3. 2. 0. 1. 6. 0. 2. 5. 1. 0. 0. 0. 2. 0. 2. 2. 2. 1. 0.
      0. 1. 0. 0. 0. 2. 0. 0. 0. 6. 0. 2. 1. 5. 2. 1. 0. 5. 0. 1. 5. 1.
      0. 1. 0. 3. 0. 5. 4. 0. 0. 0. 0. 0. 0. 0. 0. 1. 0. 0. 0. 6. 0. 10.
      2. 4. 0. 0. 1. 7. 0. 0. 3. 0. 0. 0. 0. 3. 0. 0. 0. 1. 0. 0. 0. 0.
      0. 0. 0. 0. 0. 0. 0. 2. 0. 0. 0. 6. 0. 0. 0. 4. 0. 2. 1. 0. 0. 0.
      0. 0. 0. 0. 0. 0. 0. 0. 0. 0. 0. 0. 0. 0. 0. 0. 0. 2. 0. 0. 0. 5.
      0. 0. 0. 5. 0. 1. 1. 0. 0. 0. 0. 2. 0. 0. 0. 0. 0. 0. 0. 0. 0. 0.
      0. 2. 0. 0. 0. 5. 0. 10. 1. 3. 0. 1. 0. 9. 0. 0. 6. 0. 0. 0. 0. 1.
      0. 3. 3. 0. 0. 0. 0. 0. 0. 0. 0. 2. 0. 0. 0. 4. 0. 10. 2. 2. 0. 0.
      0. 4. 0. 1. 0. 0. 0. 0. 0. 1. 0. 0. 2. 0. 0. 0. 0. 0. 0. 0. 0. 0.
      0. 0. 0. 0. 0. 11. 2.</_>
    <_>
      6. 3. 0. 2. 0. 0. 0. 11. 2. 0. 0. 0. 2. 0. 10. 34. 3. 0. 0. 1. 0.
      0. 1. 0. 2. 1. 0. 0. 4. 0. 15. 21. 8. 2. 1. 4. 3. 1. 0. 2. 0. 0.
